{"network":{"layers":[{"layer_type":"conv","input_size":{"X":448,"Y":448,"Z":1},"parameters":{"stride":1,"kernel_size":3,"pooling_type":"","zero_padding_type":""},"weights":[{"data":[0.4032547972738716,0.6098922869262631,0.10302586877946485,-0.14362823979440928,0.8047700881832726,0.7447129070524972,0.3578396837187208,-0.018780404297490984,0.6208375829636812]}],"output_size":null},{"layer_type":"relu","input_size":{"X":446,"Y":446,"Z":1},"parameters":null,"weights":null,"output_size":null},{"layer_type":"pool","input_size":{"X":446,"Y":446,"Z":1},"parameters":{"stride":2,"kernel_size":2,"pooling_type":"max","zero_padding_type":"valid"},"weights":null,"output_size":null},{"layer_type":"fc","input_size":{"X":223,"Y":223,"Z":1},"parameters":null,"weights":[{"data":[-0.22904725784708807,-0.040500926936522075,0.3655285499229183,0.2607509920019627,-0.2878313700074062,0.08067262142975917,-0.13480363789024524,-0.4422935527351482,-0.3201868452829349,-0.23689209398366812,-0.25898312241473054,-0.2029051309504053,0.4059736623570265,-0.31325182181264444,0.001379241334580783,0.46631653125938155,-0.36520967924590975,0.4092747639880623,-0.38694188271947566,-0.2646660179211778,-0.3642316277650356,-0.3875139782630578,0.18418243480559038,-0.07597134462740102,0.00010136679479089139,-0.1636599051447094,0.06812794209977568,0.09764164007755016,-0.261084489054589,0.20978387279540023,0.08200167820657689,0.22145842776154612,0.34913131534654995,-0.29335566415073383,0.4316842106779234,0.08850946780182622,0.001402560803336672,-0.28982500077306694,0.005863996876151467,-0.13491313908088792,0.4136977108273565,-0.2564670886958436,0.00497810375958163,-0.08256877274810805,0.28246546121916377,0.4567846052493466,-0.08001690382889376,-0.11014827004611,-0.34329708495369815,0.05684135970493126,-0.09532096660384559,0.28102202777399765,-0.4362207357487236,-0.4849209332934684,0.07541959480779908,0.13616168050465563,-0.4920176351387223,-0.4207718954401365,0.32446920293801385,0.2529194685329504,0.32615299055185293,-0.29518024589424535,-0.33171139465192534,0.4022977999585542,-0.11421151722188036,-0.35915391443709277,0.18797234050023431,0.14606754852553655,-0.23039023500448083,0.3023820901150354,-0.012829127209106644,-0.4370867213851862,-0.11215680024527604,0.17024737616853022,0.3566528120110652,-0.14524963527271256,-0.1977792984784485,0.17607502535227426,0.20534809408470855,0.06919988335785665,-0.3249975235269866,-0.47584177479224754,0.17165916395587888,-0.022933047787410694,0.07387146628873924,-0.18978943905564535,-0.06094950106986,0.4598046426057577,0.033524714137479344,-0.2697523519888565,0.36204618599474353,-0.33376817557588784,0.1656055066726292,-0.06402908808792875,-0.2033930396541792,0.19810368854970248,-0.21380335560292776,0.41510006398542515,-0.055966199350843175,-0.2601014701077354,0.2866875472251457,0.4173532959081406,0.44041345934908854,-0.11963274678735464,0.45018224150886027,-0.07644603110187076,-0.18030031661296264,-0.09252787330678988,0.004184475733348354,-0.30531412037658123,-0.39618366595724536,-0.23892487711767948,-0.27779532922427447,-0.3933298686516597,0.2635096997182978,-0.4131855712114649,0.3092317438661153,-0.32794930804099587,0.02587915885279003,0.2066399223211718,0.32033817493585254,-0.2824486799470276,-0.46553354216756915,0.09349561794340741,0.23214559493028475,0.1474973009590147,0.42017840043228943,-0.2852869687839079,-0.0640279264175771,-0.4952393660992203,-0.4816340224296073,-0.12986741490192608,0.11767080984437633,0.47445674426404966,0.2797982366216593,-0.3200200053332592,0.37851169033022597,-0.15946435887941302,-0.46583338893538223,0.4907824784293517,0.1474472176295262,-0.2097698661917993,-0.034547947011572565,-0.30508183041508896,0.22293552710813017,-0.21496464090742592,0.319735136966388,-0.40847118443683705,0.44275566491505314,-0.4358638091524068,0.49182513535190214,-0.11764233662323474,-0.4591720500468017,-0.025659675082920056,0.2033187812161197,0.05620266497227389,-0.44932799046250455,0.3018298538596468,0.3133193232469391,0.13210072125060981,0.4855630474526702,-0.21287400910004337,-0.18877968988833346,-0.4268202336241931,0.07273725495299696,0.2442208132805392,0.10926249357474122,0.3894055102831159,0.06009278356218437,0.16816571771650504,-0.46519142818064396,0.06600928433148623,0.3671060816633922,-0.13737108498091263,-0.1874631767648999,-0.4243171898012476,0.48712463058763544,-0.41371688820986896,-0.2263286593842175,-0.19486287061770677,-0.35151758657190973,0.140021207850947,-0.412115081201049,0.18651215874709784,-0.35269549921574106,0.10488215396415461,0.020830633737368532,-0.17932396106983886,-0.33616280427778555,-0.36013322779936086,-0.31712335734574604,0.047551357625709695,-0.4490676066889868,0.2265617998467783,0.10548182946392863,0.39755576035847395,0.07199692789072043,-0.2146951162405086,-0.40706610281435673,-0.22679318682367525,0.3116492885509895,-0.43662381521133087,0.32231203006115006,0.41245986254412487,-0.0689351339870432,-0.3886761675961323,0.2937453457599044,0.17276937901888959,0.4448346214845049,0.06436976959322793,-0.4336935209312041,-0.48811775497991944,-0.3082268247953705,-0.2380163232892485,0.29288446323315775,-0.28351738149437905,-0.37825025039154375,-0.04075666088942248,0.4798046239910394,0.27057966470608596,-0.05059339813572,0.24326757535958055,-0.030309158343783116,0.059605977643198305,0.13533021902133935,0.114403333904046,-0.1334134369530473,0.04262594938029385,-0.0799402885503116,0.447122504934079,-0.1477617991417398,0.44076315010394695,0.12214726556875133,0.12769197657841025,-0.17782076190531143,0.4778700327605907,-0.3099220573229575,-0.28981966008978305,0.06205046028048674,-0.18914287818848524,-0.34013532808583347,-0.27652364427534015,-0.18530633519462908,-0.10629663082751635,-0.2728634378056276,-0.0018879641661496357,-0.015902370755949653,0.03631441592223206,0.26701701735154426,0.2955214453957138,0.3866798991491216,0.014918558705103039,-0.04672693084891394,0.0642964984112102,-0.15588497169108764,-0.0005444162669591905,0.3116195052387779,0.0269148219069185,-0.0054913130660200924,-0.11908464727904229,-0.3595721859052132,-0.47568460762588416,0.47878806627172577,-0.0037142073235129362,-0.2944630192070864,0.12976531414972653,0.4484486841132828,0.030417329307098426,0.21004794117926784,-0.04995450713088661,0.1679450901680895,-0.40280557931786865,-0.35238706780807205,0.3373053059956599,-0.011077146762408358,0.017096507745812985,0.13350259942130097,0.44628870029119494,0.0910754278379266,-0.3675610778159305,-0.25455675111623466,0.4975938264124037,-0.4574149526584858,-0.22496591826415774,0.3546135466197137,-0.21964919633965632,0.44798315267164995,-0.2953937650738533,-0.16494271121034865,-0.23616897268918438,-0.057607659786435186,-0.4592252240844745,0.10776519472098492,0.09511834413858558,0.26151139783075295,-0.281912255207705,0.0889934864541935,0.2860951784527487,-0.2104114272176205,-0.3548840072165325,0.41251251168618763,-0.07741257853978181,0.10127544577720562,-0.48806243026911106,0.29488262701145507,0.20945396128333774,0.4046944813434794,-0.11551268442544801,0.4019370606740389,0.30932807725629896,0.2712838458424103,-0.1321698297723149,0.41616794783857136,0.13691547068117366,0.36124602544857193,0.10495662160669907,0.3628729102503729,0.06844324970878414,-0.02065307366194019,0.08624782496227534,-0.006933223259349895,0.4528423690481435,-0.3744514850297927,0.15272116920217116,0.0019139214031309887,-0.1294156762847294,-0.26932608488183457,0.2509449225747026,-0.26111684858961726,0.15442990634987794,-0.31407661882875465,-0.24695744780615614,0.4816999171465549,0.07540097933059184,-0.47914250896409716,-0.30416416384417555,-0.18528100577004392,0.44444067539743876,-0.2224560562433823,-0.12031806141963824,-0.39910765317331476,-0.1981414092654763,0.027691863105527754,0.4715149323149813,0.2719975930469021,-0.029863568793857025,-0.08202567380956244,-0.013409911778848814,-0.25618511608427635,-0.4319956595006741,0.09881866171810191,-0.22399009720651392,-0.09949352150434364,-0.39811692474096905,0.2401343334059026,0.29941219458872,-0.2659560003206083,0.0035275482640490345,0.10724321092265107,-0.4810653916430134,-0.4235086912562816,0.022478908953230924,-0.015867010654983756,0.2041219382497192,0.4038256819491611,-0.4233355188692298,0.23180129338467964,-0.3891532537584662,-0.4248332746804917,-0.37138825003905634,-0.30870291602176486,0.17951844007486858,0.16073224381374335,-0.054674424144664356,0.4769032981983784,0.18118776306685408,-0.09816254650012693,0.1926494913805405,0.12612507912405116,0.4235435465268533,0.2668849272392159,0.2219155354425425,-0.007417305948932498,0.44314930405961056,-0.13150077685599848,-0.405731753645431,-0.10746813874331329,0.030553600089783237,-0.31584442248465894,-0.17704647533135262,0.28681772511127507,-0.43765819282878105,-0.16939790126629178,0.36310556646865183,-0.06267844638166588,-0.4680348056231921,-0.46164878550419863,-0.10702092562945104,-0.07303477674259828,0.481307476746393,-0.3109115619333686,-0.1754190099515828,0.15810106985762648,0.29281161217670976,0.16966184529569156,-0.04162030268187111,-0.0011038133364368661,0.09861351819873745,-0.23046131620102828,0.388519980663886,0.14636528109029967,0.26766223216200347,-0.2062505828280439,-0.028710340920280984,0.3128463188112812,0.2750960897173454,0.035829908876531924,-0.1510931328615529,0.2039373377838999,0.30501437623794675,0.366308727207909,0.3825439757723483,-0.31447587744490824,0.06268234555015699,0.44470460417381114,0.37245058050846075,0.08231127724696678,0.20107853158333683,-0.4331101992096859,0.3962273885332283,0.04309575428118318,0.3600434086591556,0.0573866628533738,0.10462859771991173,0.37184587338399705,-0.016098398326185287,-0.3237809969749467,0.20920168864504743,0.23428921470350397,0.40218505434431123,-0.3302379354156613,-0.21313281335189058,-0.13045363507105776,0.48057286046674047,-0.4437424871004526,0.36385673604163465,0.43622115440723574,0.1083358358463905,-0.3629347788616393,-0.016573632877249778,0.05584688128705784,0.4437933496043792,0.49122589761746094,0.47913274404924755,0.2985831508286565,0.2746859344938928,0.49101923899864364,0.1601278766842782,0.17997208462645597,0.20227148185250865,-0.28992464668552764,-0.3937846507260225,0.3198601645812632,-0.3763823762692807,0.28825975396999515,0.16629881103789024,0.30421724597901195,-0.09920290966710649,-0.41372573965919546,-0.2626040948807153,0.09780428476612002,-0.400409677315034,0.27624173507704336,0.14079672395139464,0.36484139080704053,-0.4826020349943039,0.0421593145780578,-0.1346699162430589,0.09095672353557277,0.186547697200256,0.2906570218161986,-0.14707425426943943,-0.00476993288012646,-0.3111235710639148,-0.2306211488594831,0.10372609977722895,0.3660361045408564,-0.005113232761398098,-0.3213738446934531,-0.18070021577333667,0.1614204916600094,0.25763517524294965,-0.21165761307485823,0.3992957158842072,0.0036494595187039265,0.14857987423913033,-0.3690840183276808,-0.37854514267745043,-0.2515259718117847,-0.32663522458518063,0.34692687303252057,0.48120173502762,0.30494561786382635,-0.39734247074083306,-0.04446108764883417,-0.23230417346830592,0.3029655516606959,0.381296215403107,-0.19630533611307605,-0.33551330447988964,0.41459324343603726,-0.28832908623900694,-0.4278329409878049,-0.37011467222766636,0.28119663705443165,-0.22304458587202122,0.40801719978460804,0.44580713771274594,0.3478477912854063,0.45794269450465663,0.4388559662074982,0.41644724388008286,-0.020308061588071476,0.2533534560915308,0.33979136567523427,-0.2355200323831519,0.10942527444095389,0.4929804872774327,0.41561742147373515,-0.3290018055911076,0.10009055108463243,-0.46358821229552205,-0.20604004648854232,-0.44859321597638363,-0.06746380430680617,-0.46420744366324695,-0.20547278864135285,0.0064574096435000535,-0.13840098074385582,-0.03888894004254838,-0.23460687982666767,0.31453056080328445,0.18277136411099018,-0.18640271280863405,0.41244312311742803,0.25993415309696444,-0.13296926346338184,-0.23019738680536578,-0.0005837168527608902,0.08463727954532542,-0.48696452429350057,0.021758810700988573,0.4215261740560967,0.22749028839765775,-0.1901934983638497,0.1258848941321251,0.20553284695267415,0.4821323683358145,-0.021545018069034624,-0.25552665829029686,0.3320342789422073,0.1962388469704746,-0.37170090985483406,-0.4013434850009171,0.3613666938308234,0.12863925230798579,0.4835509256069599,-0.27331932712666296,0.039576184522080025,0.09664509784236974,0.3041135268479759,-0.35500088898047466,-0.45778209680746873,0.054098749283054484,-0.031451104154630316,-0.31274151471041445,-0.3573371608071754,-0.17997338614112696,-0.33166570142176005,0.4768242171421873,0.34449585049018455,-0.22737188422714233,0.07189630762039102,-0.116084284695324,-0.11672667894684373,-0.1988493596102607,-0.30234466302081464,0.07855702538093728,0.15525289170358772,0.33468494568674423,-0.16676594414827545,0.2846721380102235,-0.2490702093434124,-0.12987365639075948,-0.22559997217187325,-0.42881299997776773,-0.41254407630422857,0.12016815288871094,-0.4035795564398795,-0.35631329777393883,-0.2817972838301565,-0.2113143482385133,0.1474132175607934,-0.45526145235089865,0.1691865781288001,-0.45866839229063483,-0.16471597025371332,-0.2081897424871727,0.15533491054440696,-0.31975240853613995,0.20519175839598247,-0.010287332613886797,0.46035458576610316,-0.03391115052580171,-0.14043486886032025,0.20750504119459423,-0.26537711735937036,-0.4869854850585121,0.2672313445650539,-0.17605196654827687,0.1733383099876611,0.24519416882945877,-0.465679084662138,0.2336090080233879,-0.31471528449390423,0.01356459851484679,-0.16278293706708313,0.37590270995322883,0.4118982200395096,0.41822643819882943,0.4275562073504955,-0.3926554195668981,-0.14472529668128203,0.14461925094993489,-0.3798794508627781,0.22304850022638945,-0.08609418759809728,-0.014172638551516611,0.2981229083184417,0.08093260740612489,-0.1825089192343048,-0.4931489979433507,0.21712126012326027,0.19269967091259144,0.38969348805576126,-0.33340371177480926,0.3104124409191881,0.39060100736190645,0.4247206293603105,0.40681557963307713,-0.3899193014374931,-0.0914094790228007,0.38032815804572284,-0.313131971734195,-0.3882327296710564,0.14928567697112405,-0.000009291437639980109,0.2731783013379741,0.3752903189263846,-0.04368887568009976,0.04563262192265672,0.2595751060510409,0.45911522998425297,0.2948000684430609,-0.35843008333640647,-0.34492869339576676,0.11602497442940161,-0.23652549336423268,-0.2632150902440179,-0.29336030579774375,-0.2047232246569797,0.3127536252305515,-0.37784651860924523,0.37706070045055995,0.4706484583946704,0.42771075309339845,0.09519366687415055,-0.34316734511329355,0.021292912733064346,0.3867393232184087,-0.23113916883261093,-0.3738085673898415,-0.25672971649462534,0.4485859461910345,-0.0562627579593923,0.49909749566911044,-0.45951047314997867,0.48784871125540574,0.2992542506240212,-0.2925109908847481,0.3259737554831703,-0.22219128031166252,-0.3847751234447311,-0.19464083448898323,0.3423484916051869,0.21904873156084642,0.29292993890366115,0.306750752519006,-0.46131759421355795,-0.25208327835285665,-0.36295057619445226,-0.13650327440645785,0.09433097293444336,0.32929231939570636,0.2751433913313116,-0.4985796170359078,0.3445270744367174,0.1585333844864612,-0.09874513854072613,-0.3833675737485396,-0.41043104925577656,0.1844715061740263,-0.17426097202134058,-0.010538250711479622,0.19433934246431114,0.3737308891453738,-0.32474125103055634,-0.3399261489617891,-0.3750681362897773,-0.3415741313443251,0.2150060087063092,0.40057496384087005,0.07024086613856582,-0.13492128820579818,-0.3841558717955879,0.017105143111279624,0.18577261830162844,0.11892132524722884,0.4922372512351461,-0.4745143266723773,-0.246376529730577,-0.08788234410948,-0.15023119728140122,-0.3697462476524241,-0.17907159171664902,-0.24416772019138872,-0.3716217013220901,0.30662577317071676,-0.4635685610335116,-0.07811190181612107,-0.12474612307197856,0.3660725392165137,-0.08262412538851333,-0.023684026441640322,-0.05987403756195461,0.3104083460352203,0.13157920183814797,0.01228861040671867,-0.1923719007532948,-0.49238863363509444,0.0602481841704268,-0.18610779485549891,0.47158300955657684,0.11039211255322304,-0.05554545456136508,-0.06201426935778755,-0.24698731074336389,-0.23879596496452735,0.48608374509719726,0.40686405834084644,0.4692270933215289,0.38194493912429106,0.3755024091824374,0.21209250381890088,0.059465004188525586,-0.39833833472027097,0.03139639219819882,-0.010787538039325749,0.4357058892963121,-0.05786370439572595,-0.3053654184672364,0.3212111972900241,0.4175854814457295,-0.043810649559318106,0.37060724913102394,-0.13496159475370095,0.2708232496017914,-0.0096525119804119,0.33370516253347143,0.17007168088525318,-0.25607484919876994,0.11623146478835178,-0.2598305827606966,0.40171780800440515,-0.20204599790686584,-0.15416164093957185,-0.06497765132685253,0.4296789649249384,0.41697653513604044,0.49590203232459207,0.1323192102008767,0.4951522058106984,0.06282476344827966,-0.04031348571915742,-0.2628767320574345,0.14352913524636612,0.3932202991398138,-0.47733194238985294,0.31203123964229396,0.16035763029457561,0.21954224763315255,0.02109921218458004,-0.4314460565670439,-0.3279125154971928,-0.17828334822329295,-0.11310618870878172,-0.17538651102903066,-0.2558146011999284,-0.40083130417762813,-0.38316080158776705,-0.0810827908092218,0.2926638426882854,0.07243484999791996,-0.44086157653369457,-0.01270005473299066,0.1276059874091019,0.37796712708380165,0.478749653369846,0.2718163800569365,0.058803918007870194,0.031786267114271724,-0.2076992961929752,0.3011198572727125,-0.36521481593331195,0.4810021770046332,0.401330804304752,-0.001930041921342129,0.2592131085393824,-0.1308475544547652,-0.3247763761140502,0.041738372545510403,-0.38621477710082974,0.35887669790897936,-0.30137908757559523,-0.26113515835051215,0.048358805063696976,-0.4542208901976697,-0.28639505718131186,0.06940245100554421,0.10569823854637594,0.35437269545263833,0.3617554693924904,0.07451518017641977,0.494191518143125,-0.14482050112054098,0.10426841275367706,0.36495585235032235,0.12841357290492916,-0.08926517994808651,-0.04264353680200732,0.2137299422385978,-0.10452918079497758,-0.02506378992833209,-0.1714065616204733,0.3089425332256708,-0.16108667451078473,-0.3205628388117427,-0.23004677994299447,0.31606920094504,0.15092840823141443,-0.3571464729862752,0.499367899769409,-0.16585947143270838,-0.35514643761738673,-0.18841297052930067,0.24543852620867398,0.25104167812068545,-0.08517215245867998,-0.4044976036892512,-0.4337560072195603,-0.3835460448420125,-0.19804259281363645,0.27345203842346194,-0.3333486632809075,0.31910287566580453,-0.14253892180570768,-0.005216039415527136,-0.16286841222237597,-0.36147396023303546,-0.01710303128688917,-0.3708844290446452,-0.35574223008659767,0.19734405876025274,-0.16130572644907024,-0.063998737212656,0.05142999979711467,0.09852764306957668,0.10500829883220805,0.2050988367596248,-0.222792128985688,-0.21195148929871854,0.12184481057361914,0.10429866408202951,0.12132127159167445,0.4498002371226448,-0.13062196370899232,0.49743987118614846,0.1276768907482152,0.054339254262375764,0.4449822025699413,-0.028979024690872882,0.17340953908757517,-0.363685895791563,0.016549615022001637,0.39343968010316316,0.14486319731841013,0.2897351649507149,-0.4673670179592779,-0.3543641570960799,-0.48481882060357917,-0.002235147603315064,0.09300545654720943,-0.2096135100932247,-0.2778145166735128,-0.10866182853580836,0.11905819832901668,0.002027625700607917,0.16097714535421137,0.03442629246135482,0.2265803329187362,0.02751640571647383,0.2859666202734485,0.011772098758361701,0.4729535453086033,0.4770336631619346,-0.1403250252946474,0.27311574266598454,0.10483393396694156,0.10212793357756164,0.1255390911538799,-0.07410063808127235,-0.12279592948035362,0.3268953226243825,0.2763064987533717,0.010520015491434465,-0.30200165415569835,-0.05077012820575561,-0.17250678040327797,-0.09188617511095207,0.09772483252337563,0.3388754061778894,-0.2423576160259288,-0.09752442269140027,0.10999581474581083,0.257194344420026,-0.10030254707916436,-0.2432573115431474,-0.4284591453527135,-0.27043060674614694,-0.3771145394681221,-0.37165243352651395,-0.20670951494823525,-0.14312426630365022,0.18683513722456802,0.11278149937294629,-0.012914850915749855,-0.4834097335030645,-0.45744413540373324,-0.22489261736834393,-0.05900401170392667,-0.4102682291748129,0.03938856882172292,-0.4930988126866615,-0.43998225994536944,0.28133625278041696,0.22246807130776314,-0.17570624491137282,0.4188397796899188,-0.25847237948396273,-0.22293714102526996,0.01087265069788288,0.4425080456917004,-0.17541884054869136,0.3688506542136731,-0.025656576507409865,0.16949765063805616,0.4579040223392685,0.46644041343246834,0.18093878300999156,0.00525927901211984,-0.39614107911807034,-0.1218418803161058,0.2978201453332037,-0.00859368810404223,-0.12287913578881722,0.45186399904778785,-0.08699478506320481,-0.03877583707187588,0.09564629786850391,0.1678414188461409,-0.39677688736911,-0.006568955612707009,-0.2473059274566875,-0.39246221652868135,-0.06887156771925225,0.2543962906055601,0.18803217449755183,0.4026617450099479,0.0794468684387624,-0.483625366717422,-0.017973191452960103,-0.07044127552092153,-0.44254919247823865,-0.2080253752006912,0.3050966702699467,0.2767339224115821,-0.3884388531641881,0.010016764091200857,0.08041318994752161,0.28647928816753143,0.09943730163222779,0.20609320054698121,0.38026771178680907,0.3741499799057981,-0.03531402619350677,0.18691447608440234,-0.13516412816784845,-0.41350881298332764,0.07807054188146771,0.42532858402131635,0.4835782324191935,-0.3795256859132486,0.2827073746808547,-0.40392199142460244,0.16279898905625145,0.17552024541385014,-0.08459358988507694,-0.18923680602970283,-0.179470372261686,-0.061463337871256865,0.32388625128473914,0.430788261613746,0.27931459137810083,0.051538263158801806,0.08302338554602981,0.44239212431907954,0.10831980622610621,-0.3974392979517258,0.46170503772956917,-0.41121698115774274,-0.40615897464911915,0.3075516584576948,0.4260378121737475,-0.1291464998607309,0.03041280211343232,0.15187461232759414,-0.1416256790366464,-0.45963077010627695,0.15190550807276915,-0.3596304680967369,-0.02907973536408906,0.389962589702991,0.03392833185780623,-0.31985371407320096,-0.27543267703158536,-0.1227653405713652,-0.11485580187822562,0.3538008643712507,-0.21036829139923044,-0.07375175308763605,0.40881171019285,0.21555968846866247,0.2705879687385323,0.12333844923995763,0.1552800831963601,-0.25720315058270576,-0.33804200132288037,-0.05280137807880394,0.24974448772505842,0.2130803965294248,-0.3537143642838009,0.1002909501091925,-0.17334360060840326,0.023759453044016075,0.42189626121135027,-0.3451718412915832,-0.09051665412135901,0.41952091801409286,-0.013515864833929825,-0.3991447734793996,0.38498212387731423,0.46401008976293656,-0.36576283407909926,0.4610765292682066,-0.34200613963435406,-0.3366084709194896,0.24568607889680813,-0.22204307486446773,0.4805316918913951,-0.12680291553019324,-0.3323740083123512,-0.4588048587998563,-0.3374700721967221,-0.10217768926895644,0.2871874299038,0.4797459714374329,-0.045915141515499365,0.14242251541565776,0.1589658476566237,0.28641221400750616,0.15850869338302975,0.3728018029347202,0.32380343677233203,0.1726542941477833,-0.2647599811950661,-0.39264933688662,-0.12801442388151335,-0.41420843803063634,0.02956045231233282,0.3507245534868467,-0.1837376603618909,-0.47505870041601195,0.3733940253638082,0.15733813727539744,0.24305155404816292,0.3782097075881615,-0.34132198871032654,-0.2302274350627639,0.3159391466362904,0.43712273586003847,0.2582987246451759,-0.30806869359284794,0.23431181562214057,0.12174705662064803,-0.15872212848478923,-0.17721608270870332,-0.21346395273125568,0.24779841381772982,-0.24463951748457646,0.15912901341921615,-0.47669340939929344,0.15586048164832778,0.4154082910076539,0.25227871572337984,0.4923483026698377,-0.25024213420463887,-0.18414832822899035,0.41167742649855826,0.2818501807918294,-0.4549985014891797,-0.03376557037947571,0.028038412844390816,-0.397963626772139,-0.08901896345665405,0.3084147103491562,-0.3649490893315342,0.12776233795576486,-0.4155040871672345,-0.3280083972768606,-0.322444714258139,0.15072883424966205,-0.4490308771739888,-0.2571689868710639,-0.0038537775189180475,-0.08593977420897154,-0.30323978571725674,0.42333146855217635,-0.05096332298957785,-0.42681127063806695,0.020053668541142936,-0.16750153663835352,-0.4850947920666751,0.4030926366133004,0.4935812323927165,0.10397713835406916,-0.4172463078139779,0.36579465875072326,0.2818345597675318,-0.4343831367550523,-0.3742610368263007,0.22633340758968312,-0.08429405006441577,0.07362138979999704,-0.04542814168606297,0.4000901693587622,0.17589024612836712,-0.3868053276120124,0.19755316570287185,0.28986227038166235,0.3319530299505926,0.08673162374586248,0.1141846544427297,-0.29756042080236195,0.14042760676208765,0.4130319862470505,-0.04127929644884732,-0.3009903831824863,-0.2641660617608225,0.3916862732719649,-0.4260761085222115,-0.4551071830639334,0.4176995704526367,-0.4722691345663679,0.22517165890182633,-0.13547643841953946,-0.3329750958992527,0.3076383877485288,-0.1897323403611855,-0.3556529466981001,-0.4759545254285517,0.47496015387704904,0.3765278608735283,0.19672598966653684,0.013355185188779655,0.4973722327864631,0.42331572676651824,0.4199930758078837,0.2287225805617571,-0.013316198462029713,-0.40335701556569303,-0.1277683636739205,-0.42269977158749095,0.13905638274271576,-0.32584060543053217,0.04945260013219027,-0.4421895535017016,0.2902433207781041,-0.03761402688507127,0.38940996920742776,-0.28290278579351624,0.037629529323237036,0.0891343969927391,0.3303903738158417,-0.13702967891039905,-0.19369512803126218,-0.3758930497631113,-0.4892169573870551,-0.21388031804018653,-0.26772081260860037,-0.44908894683093525,0.27616474540481806,-0.03960802912135132,0.45456050675636195,-0.07305124995709457,-0.08470880494024693,0.4187993236376494,0.4782440932555595,0.2088923751970499,0.32981256808970427,0.17956837469214637,0.06345894880426532,-0.13835191284327567,-0.49988872256882527,0.4247783792464675,-0.07166467474007371,-0.37729601282780506,-0.05021682021257864,0.29183442308685525,0.17634850341236258,0.1750251562803989,0.15913995816292992,0.07063214488362272,0.1718554390458883,0.41427127592265356,-0.23124095404782227,0.22254073282152603,-0.10177821396805514,-0.012798521538726458,-0.13954556447405878,-0.20666671195134456,0.14809210813967677,0.20741348448224883,-0.18287298789793383,0.10321373935766172,-0.23339073683530556,-0.37201569230953935,0.0638488246977758,0.47676097170686943,0.013971314160066445,0.14714732198527014,0.19746173095647424,0.2210167026058213,-0.328554140700701,-0.40194829819498873,0.19303314806380534,-0.20576436511235052,-0.0013856773478783928,-0.3996265512036526,0.08948754757809566,-0.2662853671542755,-0.11292253311372749,0.05106164946803967,0.21419004307257117,-0.3053690781905006,0.3629258365190927,-0.09843939439472156,0.2608892823300014,0.23354678484062352,0.31310588915821047,0.10810613642293118,-0.4649228875864984,-0.4781922357013469,0.4244260588539207,-0.4759322594888349,-0.3916769928568726,0.08196160650278149,-0.19643299862519806,-0.011227273021290392,0.4533289456324527,0.030631267784375246,0.11612234059549703,-0.337121899542316,-0.3424146239135255,0.11681612213311668,0.23753897455011144,0.3179969564010755,0.29945494722456173,0.22007274902683832,-0.19411119598538334,-0.29734926527843736,0.431852976195537,0.23684838595704183,-0.40979664207232036,0.4383680540293182,-0.033915002089139515,-0.17270737018161042,-0.012514118109695913,0.11998166315651441,-0.16365401351665898,0.18411326214917623,0.02983089580848157,-0.1537552587335062,-0.485899708165959,0.14617892399455723,-0.4499636422066096,0.15886011195927108,-0.16142792774358208,0.43957324996306324,-0.2221904598507509,0.45538497859952765,-0.28112050810942935,-0.0945242462510363,0.44335330628163205,0.09458424415555891,-0.16551900195600414,0.2628251833334569,0.14882404061437934,0.4089034503549309,0.15491444223919623,0.01172669396634292,0.07745229219866048,-0.4293271900674484,0.4689125939333455,-0.22533614741206698,-0.09308336111947697,-0.1369121790850144,0.44564751008606834,-0.20284990297304256,-0.4790993393512346,0.3268591818920696,-0.10416314702560543,0.42661005883557895,0.4112635312435154,0.016561285749896616,-0.02370133857724639,-0.05813477161261352,0.4686878562640954,0.21824200756654644,-0.02271630208196258,0.21726905077726155,0.3883489996836648,-0.0750138013744688,0.3111827764075204,-0.07936142876695192,-0.197600913623314,-0.3513864630772808,-0.1953137633943594,0.25641439344002404,0.36169077934064187,-0.1704127938301079,-0.14548506326197624,-0.28156920269346297,0.38807384562168845,-0.3100949499639285,-0.13798576998881606,0.2595092220165086,-0.38520949524584325,-0.07012546564461497,0.42856175337496855,-0.21042902543510308,0.04198082609322254,-0.09983238359076417,-0.28423719374933537,-0.41291453604939893,0.015288636109900916,0.20709903506909264,-0.17259028879553961,0.48697664491440174,-0.005558841984730831,-0.101152587266079,-0.3285096439452039,-0.38610690642800605,-0.2170389413952895,-0.3066789629974329,-0.37838976498366556,0.15128824834340449,0.11764900964527251,0.4735970024161197,-0.18206395619797267,0.3493607301786208,-0.29251515179633825,-0.007516328666064802,-0.19734193116011298,0.41652673884078656,0.17852841070662656,0.227439402889793,-0.08736378267853075,0.21189042364017108,0.27085695057914705,-0.11559451091412636,-0.4162352151807647,-0.3964332683988768,-0.06810477144675459,0.29084783546309,0.27222372917700544,-0.29879501124789626,0.027820151860529777,-0.272668161134247,0.42771467024393883,-0.299802963923614,-0.35636579172544414,0.1592914185958602,0.305161144531505,0.028695766108015195,-0.47028140057495194,-0.4853527829639637,-0.44505003564539564,0.44584641945026987,-0.010939164680320839,0.2244512019006067,0.08382171284730605,-0.4458092906518235,-0.07861563578868348,0.330568286806713,0.2741181381535206,-0.22775504067876545,-0.33119520496764115,-0.35428455034672796,-0.3034611461611151,0.2246712956211423,0.4804553623508092,-0.1955184465995452,0.17409768167707618,0.27211234443136734,0.1293107615331902,-0.35697628917710555,-0.4397300337658263,0.25446273555503485,0.03764558548966106,0.18770972049146634,0.19174455273135546,-0.35495836447712426,-0.06377869157242606,-0.04831265626404469,-0.25740190439428523,0.11317429479714058,-0.40221601354223696,0.12676184498333118,0.3541914392538579,0.1739457434409427,0.0644272916848417,0.200628722846475,-0.08716286674819503,-0.2756701036818522,-0.3123472913243403,0.3437999838821372,-0.12390001635221408,0.007377004498132825,-0.33360727658432465,-0.3582211635922769,-0.044878860031273976,-0.0440660675027174,0.26948387077770414,0.22600170199531627,-0.2086444215875699,0.2922282552482772,0.07959904822849644,-0.3861738987223105,-0.27472693099492146,0.1934450119782209,0.3953738353792575,-0.19421340657742733,-0.045896021001493155,0.3670155136764123,-0.08556826693012254,0.27758233938942456,0.15705628204193334,0.17856808844994385,-0.2979318661291003,-0.012412701721707982,0.30108016613404004,-0.17458884931187707,0.26852713269694944,-0.3638429089138353,-0.305857385481702,0.03548907943479019,0.14017808950289734,0.09435330227581393,0.2459516744936847,0.11508171176500641,0.40744095779139744,-0.3179205749379661,-0.07971090497812497,0.2736046201829204,-0.4119311359998463,0.008899764077821164,-0.12806911111548375,0.3863121303392766,0.09220882269562118,-0.38544184444521723,-0.27455805102921593,0.22325220754150868,-0.1755684680190467,-0.14680592815423327,-0.10571897205082073,-0.3542529216397625,0.43995951875140427,0.4261001377010891,0.21570940189726226,0.24016962910687564,-0.4859801348349249,-0.43231336637171314,-0.2059166866388517,-0.33883245738472956,-0.2683907510104333,-0.29371830845832236,0.14085150014476233,0.2962753659619235,0.00850726690522286,0.40999380238301625,-0.03984507830157297,-0.16251195895686235,0.15300820580484178,-0.07879220816257557,-0.1877526372036593,0.41925488936583155,-0.27124722768186466,0.19250856761500001,0.005188383148800477,-0.10925589282402283,0.25306734587261026,-0.47550882144802004,0.3451455391460758,-0.35330845848441705,-0.45149016503160533,0.07955955326860335,0.19577642855219501,0.03190847108100164,0.05187793504008115,0.40108981742178373,0.21036918156550344,-0.15331819049841292,0.1334120007294685,0.14382007169196442,0.12260242168282945,0.44375935320813387,-0.18248370137382125,0.4912733879444042,0.19485105184610352,-0.38223508828930003,-0.07961820289827465,-0.0741126753607126,-0.4048087818859984,-0.4483326835757727,-0.4356363908289312,-0.3004666454461501,-0.03493625593169101,-0.301945308821209,-0.3786498422544485,-0.18953185266656764,0.0487904243959302,0.23466515774852026,-0.24690070215612908,0.4404160544358569,-0.4182821592210541,-0.1008870447097935,0.3938789411422812,-0.2515884134989074,0.26050496585180544,-0.37596393333110195,0.08892336707817526,0.28023219082561496,0.37214834589390383,0.3897569592800329,0.20328875935990687,0.27114210090806773,-0.05637270899745759,0.06994387632585906,0.20508545139023648,-0.21581546011248393,-0.38998110228403193,0.21256729922393028,0.135826496767783,0.4428360767592277,0.307468842426285,0.10974648773109803,-0.1859797166441367,-0.34674058953364856,-0.3477088829695534,0.09126610890725863,-0.4528889855957327,0.208937933683095,0.20978123105509472,0.40691162757718297,-0.1930882344054235,0.021287732847208488,0.1094464634729864,0.31499536706053843,-0.30912853373680627,0.20476245379562735,-0.3006342999259957,-0.04150130571517231,-0.21305180414580846,0.18750101761906687,0.07917715595252256,0.04781336448774431,-0.44036927987609387,-0.49515848071375035,-0.4323314672801949,0.3244027589740472,-0.3302123861459623,-0.01592582862345939,0.012261193615051921,0.2591602605091641,-0.4884112198149046,-0.01217839235125979,-0.059622597640240464,-0.041635572321796634,0.06082721067504309,0.24988280428473025,0.3128075932238605,-0.36142973737212836,-0.10835791464718011,-0.19700088475480762,0.2349930973028519,-0.36904389172302515,0.3584189369287851,-0.37447095818766274,-0.42135444941771866,-0.4167554228546466,-0.19280359294547586,-0.056042085430854906,-0.22877699098056492,0.4620784433717825,-0.17976474151715013,0.34902258246321755,-0.22206823013010096,-0.04490104618692168,0.06507930904012112,-0.4614401480530932,0.2984595497406915,-0.0432938881926257,0.4399074576619447,0.3995989150356991,-0.06021938700061993,0.36691214846821485,-0.2733011953283962,0.48545266580092794,0.09630541680408675,0.3605818559456488,-0.33363310510785454,0.21825235950888378,0.2753259533402313,0.055878432635766924,0.46571214149132817,0.07032431071173645,0.11730082673539405,-0.47184651256726085,-0.13469001100893255,-0.11251914138382924,0.0961793337680536,0.4724600084494173,-0.40859854330363715,-0.13131327521773936,0.43892617226536373,-0.4483535643841272,0.12823803528829875,0.3233016913464155,-0.1737820040941605,0.23778025919932844,-0.26549722978515694,0.1919970234646347,0.0384774612053656,-0.007508057705014946,-0.47766853885568694,0.4176231766026978,0.3909468754639811,0.1564496672204035,-0.33554110614447824,0.16130113241277552,-0.31234782146952983,-0.41504765415578276,-0.13716761756575466,0.3885641016884554,0.43649215979617983,0.28493665101344834,0.40150185154670476,-0.3026554919787806,-0.4441577248552975,-0.2825201909335952,-0.1563313516274622,-0.22375181664933463,0.2041970914652258,-0.46209351054100706,0.19661314168338165,-0.4196498706285945,0.11698041831768462,-0.06737325095998416,-0.3549533196844685,0.49260815041293565,0.3183696617503191,-0.06822120929660434,0.3320218757969125,-0.14755914074907686,-0.1097269659278239,-0.29634194790317636,0.12283681713272598,0.4455730205171494,-0.33203514015272684,0.4336638654446301,-0.08819918714623615,-0.2193028998680584,0.06591939400192685,0.35042252910445904,-0.08518583750551023,-0.24783957882521923,-0.11118995499126172,-0.4991032155727915,0.30510556492476815,0.3320956995984893,-0.25149117717870817,-0.3045307680136188,0.4967295800405291,0.3509632588457939,-0.051572943515068755,0.1681975362757139,0.3834588291520948,-0.2890407807249848,-0.0003396132324506106,-0.20849180298721787,-0.24034435722081343,-0.3412590531063331,-0.10846335145914465,0.27097275412588034,-0.13238869381816945,0.051333970973239405,0.27100312058181397,0.25758992792516244,-0.17973341128853365,0.18163534089006775,0.02480705192792962,-0.4663123070778108,0.32849583709569025,0.023136022142984825,-0.10971762095454307,0.12609545483068887,-0.45542932856483276,-0.43483955812461556,0.32855133537075326,0.3998871658706935,-0.32528581635811404,0.11612830705897631,0.18434743017497326,0.22441151054905287,0.27444772632312436,0.3417157541035888,0.15621069570592472,0.02664099435964354,0.05039418345582453,0.04327062169291699,0.08793445293938276,-0.15007126954234012,0.19783532160520104,0.2732355352875928,0.4639139028891425,-0.014094126799681167,0.39934349956960596,0.3144021883883469,0.4246056302325626,0.44555219419448383,-0.15911602597947583,-0.007701044306041629,0.29044832455483954,-0.16136347767129322,-0.07919466817115377,-0.38570624283859223,-0.3148529406279114,0.48101265394220294,0.25993162354307553,-0.35760085166167016,0.06652770080818252,0.12874137177103367,-0.30110970747801585,-0.2869705594361571,-0.19647946948724368,-0.31423045527770643,-0.2649086071552084,-0.2234979734430237,-0.376018779317991,0.16858232561282904,0.0214469861168483,0.37303079084552665,-0.4229813348249704,-0.2322067286681898,0.14775566205090018,0.2973552191563971,-0.05474677218495359,-0.21279252229920126,0.29578271403004475,0.4254787250487667,-0.29413628473064024,0.00222459431503564,-0.18733874293948247,0.1712409342965471,0.2518455725089541,-0.16864733414371874,-0.2569838037116372,-0.07957688206578005,0.15654131495065474,-0.16548560573780702,0.2057494709049059,-0.3989878158876969,0.45858193297585315,0.0002941490473911613,0.3087494305389633,0.02250361845625233,0.36059893375685803,-0.34143255594686023,0.03076858221531446,-0.3542184690346886,-0.14788145731024835,-0.5009692452336981,-0.26025326045412306,-0.07096026266134144,0.2098818406093295,-0.17465476066229238,-0.3995467977451848,0.33840314526500104,0.1578001832852224,-0.08250099302332889,0.12287829559880155,0.03451613671077198,-0.2728577187414947,0.02490932776099117,-0.05856765624552011,-0.41921332454021715,0.1178592387182493,0.1430516509864399,0.2586358507120718,0.39186502611200685,-0.3289352246305158,-0.3132846925423698,-0.2553849983590184,-0.463418503551026,0.06994156414094614,0.0465367800002017,0.06340114514980713,-0.13895225298458794,-0.15960672719572275,-0.3858981033826538,-0.017165766124398515,0.4728288351244555,-0.49353420017108746,0.008228749014221456,-0.30071268070788515,0.4950506849901455,-0.26521161619208394,-0.04581965340657622,-0.18422074958614026,0.12976653117183035,0.25509238413139795,-0.08382630359401322,0.21606306529278643,0.10777247139059513,0.1825115562785153,-0.2789339733562565,0.05267811724909788,-0.4957816414089089,-0.2575639937980789,0.2810238682487541,0.4131785712549374,0.38403614437760614,-0.5008703617515684,0.19811177198542687,0.05900381944315328,0.37656742360612944,0.4213473274132649,0.4650400830433872,-0.40280005683040393,0.2721456929629314,-0.3022026291397626,0.4294203083394368,-0.27390495726098074,0.4308085764032309,-0.2822473642245905,-0.17450113930272496,-0.13260191884239134,-0.45320241992650534,0.00976105857043158,-0.1356542961030001,-0.018180497879119215,0.16853741827797716,-0.16876829625650863,-0.3840731195005633,0.12747449203333508,-0.15526267769339694,0.33300575619938194,-0.149509188789164,-0.20679041671602463,-0.48462031315397935,0.24172053853903677,0.3155599009446393,0.4006169099555839,-0.39397327378792935,-0.33659395985317064,0.07648719177631792,-0.33589544627010054,-0.2485364475959884,0.08524634538713231,-0.1321536296035606,-0.10609522086159977,-0.4671726511429344,-0.1321975815630406,-0.21210462955242798,-0.4213622850260775,-0.22252695372736891,0.08414988475910896,0.47004921638209524,-0.2864054026910576,-0.25876319659209274,0.1320692967747757,0.14677948285946954,0.019879676102874326,0.005376522896253458,0.1582632520921216,-0.446426865237085,0.011701055113324099,-0.3137450284899049,0.477750042630723,0.0626041118728427,0.12468771104102286,0.20101038786531816,-0.34925636151071776,-0.2545589616935902,0.3818011427151931,0.24675354277181,0.3808510614558502,0.016816104997878386,-0.3772431105735458,0.09820125224923912,-0.4008405788244596,0.2343285113555827,-0.3979381105173188,-0.3190211376763879,0.4895847843708116,0.05981578644351881,-0.18021121074447452,-0.08139402074480963,0.34467089922047417,0.30281568533227887,-0.32623306981041056,0.14151353254183108,-0.39607766063023747,-0.3429038598198215,0.3039503210063478,0.34087201481711316,0.10658912903165556,0.32559715858425403,-0.2893211742927858,0.21307541819279324,0.11798295485924064,-0.14175876284713468,-0.13390673239351797,0.14835480301254844,-0.4673375051109025,0.06588778702466554,-0.13250645721540705,-0.4488720522157587,-0.20121920454313952,0.00505413143558905,0.12253167039556197,0.007060779704147659,0.2521172400395447,0.4331600349032394,0.3616531781141043,0.2605835267078424,0.1420117047972448,0.43225379884680565,0.10382558412287334,0.3385995398367558,-0.4673416446383866,0.18325338867015367,0.1407627952861985,0.23921044155066437,-0.23232633804513425,-0.4396395310742818,-0.25073013988332393,0.08630443723518348,-0.13394656763587576,0.17177102133366765,-0.3057822604585168,0.4267157179004099,-0.016616137019775306,0.36615774927124567,-0.33093384997364406,-0.18533445796361947,0.20032390979663306,0.1559118640478896,-0.3393188343615941,-0.31388314152291913,-0.3725140358293008,-0.32181131007496844,-0.4810523498586131,0.17229181717645767,0.3706313544674827,-0.3376064666537804,-0.34462181989310453,-0.04862397683959946,0.15490066114620743,-0.2971016921902366,0.04843772412603622,-0.4075097227612811,0.38284028912049445,-0.4473728354081131,-0.23898050746463345,0.2562104678494969,0.22333301701537,0.033916547279384444,-0.21461316633806032,0.34973177651938087,0.09385612347768639,0.3582698741056058,0.41453432279241736,-0.2703359134038737,0.06163871034557836,-0.32799030995578,-0.05295677541176456,-0.14309879439517675,0.3949818494630415,-0.42378579856251886,-0.14417160741222568,-0.176868703633046,0.31413463247695367,0.25535832172169803,-0.005736702453516644,0.3929933142338119,-0.003474054535454035,0.4429883811018077,0.28900654364506173,0.07206029773646437,0.08454455444081205,0.05179134729552369,-0.41354911457999516,-0.10097110487092754,-0.2553633586159472,-0.17403111791043877,-0.4757787625241846,-0.3895751810531278,-0.24278967299308354,0.119243301461349,-0.06942511207606722,-0.49959527848009666,0.253448287726662,0.16218662201086004,-0.24662187526318005,-0.4490433344214054,0.3848501707200872,0.3658227559657248,0.3842732006103051,0.1458034585396192,-0.0012929876001527853,-0.19049106382225556,0.01025731755347748,0.39542197894340275,-0.12171727024860093,-0.25871367921377986,-0.09255295981744391,-0.399248266093463,-0.24900675839909733,-0.2877062067202293,-0.48923412660497084,-0.415305018621451,0.21526387806449598,0.28301958842229424,0.11394350336453604,0.03688968974264954,-0.13593792176217784,0.14614425179186233,0.135172590694789,0.19499515518890898,-0.2146859443887577,-0.4311515501235028,-0.3900279141901573,-0.1393189190616996,0.2768665064235262,-0.34221879099675984,0.4850126123730979,0.10696075866872742,0.34521079703197166,0.12700131391022232,-0.20605406259294426,0.22459326003399563,0.18095264766264016,0.4919786264321446,0.09306607962827262,0.48538045670226654,-0.4561964330285828,0.11700486847159028,0.007106735753306811,0.020424366686607253,0.11110053454773805,0.2448069004651118,0.4253366242750244,0.49374703884548543,-0.08006887411107362,0.3190331733278114,0.13914955474699156,0.16655636279612712,0.30372114228943203,0.4419729467748239,0.4959278489744554,-0.3474009427193588,-0.4625382430461359,-0.3889753482601156,-0.3871844037547221,0.4603246219667449,0.2765802084266768,0.08364322483205772,0.11374022918274525,0.3564221738870699,0.02115300450668902,0.0709402398107852,-0.18067883466306534,-0.3773766025131593,0.26804186577151956,0.013910732016184455,-0.08283973148988046,0.15837995776860642,-0.1685235550700592,0.386734310340509,0.374325511932525,0.12696414330616362,0.048294812550167356,0.4838450826882336,-0.38997191156060107,-0.27694206311190617,-0.4996769328206476,-0.06261460683499792,-0.25313713433043183,-0.10217636938904387,-0.3490901256775438,-0.2090541846139021,-0.13941660499345057,0.10895497269781038,-0.08405541036801234,0.05100754739785462,0.09920136253970405,-0.2306271516147871,-0.2767509958632411,0.05475910177637086,0.11020614445192396,0.2216088855597778,0.21771156756421078,0.01712019147647031,0.42199914040215897,0.42094582126244656,-0.4514267178244233,0.13813424692564863,0.2513858361884917,-0.03741095691360094,-0.4015353608582724,0.07412436841309701,0.06446827083401675,0.44762726718077733,0.3673362286249015,-0.046674089794689906,-0.07302589329187457,-0.32373522103798885,-0.4205976566673748,-0.41389508204003606,-0.2090932698396878,-0.12507271208440573,-0.08517149135808422,0.13666187444352834,-0.4349661177920575,0.16218427056959978,-0.26870691576844935,0.25371004925552465,-0.14190000578280315,-0.4623665157829906,-0.3573988824381928,-0.21008431311275674,-0.3599668115247243,0.33785025805845675,0.10308941376299084,-0.42642868594762184,0.07351954305762486,-0.30965616142635455,0.4912580441631009,-0.2795547069250095,0.4132034742462892,-0.47861835137752246,0.3513015389466674,0.4464077873953378,0.3003570990559278,0.1724889770669901,-0.4030391888394847,0.205692431597236,0.2628292570477116,-0.2781995272375659,-0.406515148118423,-0.21379426652315092,-0.41427758751005356,-0.26403530374116774,0.017836298489796436,-0.15655434893975567,0.45203405858529944,-0.41700259072754053,-0.29291719646009995,-0.3303701736775338,-0.2938523096523505,0.20376461310968075,-0.352154816088424,-0.33937928965438535,0.24100060020591474,-0.3284390086119296,-0.492787812548111,-0.3387970359240572,-0.45427947563848814,0.33388055265137057,-0.3204031506565536,0.35809029041847323,-0.20769971037862878,0.11565667789814539,-0.39860980708451027,0.16626180667541318,0.4084910745305078,0.11827020690044118,0.48095457828651095,0.499378259770825,-0.37064761960757114,0.44642805009942027,0.34478765502211467,-0.02284198040152603,-0.01547359383477085,-0.054505054611209997,0.23235550735792843,-0.1593849721504379,-0.4893981698474139,0.13947268040324068,-0.48603748172097816,0.11977212234232236,-0.14516715639980088,0.4012194776382427,0.46291579699121466,-0.1808221156176014,0.473988115506074,0.16204506930702686,-0.28184060242310083,0.08163767122719184,0.33124056583537553,-0.4571516362388654,0.20414273540433311,-0.24201179780896756,0.1673369178310099,-0.26430085181426616,0.09842325587891611,-0.06732859225235308,0.2772437862594233,-0.4767732524169984,-0.3591861960029553,-0.16837779638235592,-0.25776139765850387,0.31166225375841794,0.4550126801799254,0.3481068446001793,-0.24773018561781676,0.263876665002952,-0.21424328970410053,0.29035652561175673,-0.4767702932081362,-0.4017615441985543,-0.26360558867031675,0.2549680523520872,-0.4991221987987254,-0.1554470918682021,-0.09054057055766151,-0.39584380006132425,0.35302173904461226,0.19248701208071492,0.44249925562496434,0.17586341389788523,-0.3808472261092907,-0.06198391987911362,0.2475713417557361,-0.454069419683104,0.21255969565158736,-0.05269688079686251,0.33979411038397056,-0.41520330511837306,-0.07888805562169625,-0.2802465290436662,0.1322372918264725,-0.007438303484609206,-0.44757283651800917,0.4671897402801448,-0.05604312035021149,0.40245629634003277,-0.053530629632395875,-0.3501274208616698,-0.10701135663898535,0.0893323491960702,-0.34524204824666593,0.47100253098979883,0.2539519118184605,0.4573751289501242,0.2461602654564503,-0.18917282064493338,-0.17703393555281388,-0.17325819334116732,-0.20637677921907224,-0.322555696608793,0.27391223958625616,-0.29383564427876635,-0.0036975821860830327,-0.2466462321002645,-0.16836925970460476,0.155375461634199,0.10560400977146189,0.08907860732295488,0.45978536295204364,0.17096250558455023,0.37034173765072637,0.3183229473235464,-0.4997604784255855,0.05749186804712465,-0.006779660947776297,0.0007957125371807207,-0.2546360888940422,0.3805177132980718,0.2157240297122304,-0.1683614050062752,-0.187060843512964,-0.11889615276430042,0.019406243257246422,-0.49080834233403675,-0.3130693382153749,0.13793893209646654,-0.09997217255374814,0.29822704263383154,0.37066234719514873,0.11771324457898708,0.2628838828090487,0.28102511119509554,0.3415410293659436,-0.4652136227197736,-0.03608908721228404,-0.36199345990707665,0.06983336864772902,-0.30818595543965605,-0.3314636118558681,-0.47528891280662594,-0.17965326804820125,-0.1708595703290844,-0.36673527076810436,0.43811512438453043,-0.23911351570902198,0.4524879774309153,0.2749718751067909,0.17042240034487893,-0.16756536975579922,0.12055597142237914,-0.030964677255101828,0.45047491125851635,-0.24844747386091942,-0.2683349203908683,0.035567522960629656,-0.31868119131407485,-0.16437253678584157,0.24195708938153593,-0.10944134817419822,-0.0286612468741473,-0.49335161733911775,0.011351476646895101,0.0602714479362306,0.3510046141697115,0.4403615934112804,0.26171238660926394,-0.18834977569168856,-0.07008398276413219,-0.4944889557003215,-0.27515561729790566,-0.44341530488918895,-0.31860720836324496,-0.36607044890285684,0.29754385863434774,-0.24657658538912472,0.17934300471388168,0.08906567345393235,0.4756413394365856,0.296990789922571,0.4175790374171923,-0.45749008806340713,0.25656259061306563,0.34776045896840024,-0.05604342060701229,0.2925864453911822,-0.20913042582011923,-0.11167775484677595,-0.004104138901477865,0.4286164037830186,0.4816750353206223,0.18653245001601268,-0.17797831839284958,0.4166145361555038,-0.15381542282914498,0.4107043239258436,-0.18272767990702182,0.22699903167315683,-0.1842366199895215,-0.3881737050194031,-0.49854289438280996,0.23103345206484904,-0.10437511895780689,0.213067767450419,-0.4811763438251932,0.4451682654235144,-0.376607065294436,0.15371856083860705,0.0594821028486569,0.27136582912537743,-0.46630265606532706,-0.42103837251611237,-0.02749594643064705,0.38322143730476205,-0.24801414768650348,0.16640737895068058,-0.2223766385800739,0.4234822577860342,-0.20817427578376624,-0.4293203132409126,-0.03522662070739887,0.29143998491888656,-0.2975764561086771,-0.08396678382712172,-0.27422584526559124,-0.13136802379557866,-0.006279770739354263,0.4913477531914598,0.15762208892536417,0.20467980803758007,0.024340387124785593,-0.32960270273676784,0.41227171249093303,-0.4785153693115675,-0.32336589774300806,0.03097015739930778,-0.26145812392481665,0.35134267661700275,-0.021816713366478398,0.29241639228274524,0.43016641573057274,0.08613016632470173,0.2073830503935333,0.15234428773219796,-0.018192709406161762,0.45333286563168307,-0.41269555241990613,-0.45221910275036936,0.08136609372261049,0.19995339403723433,-0.30807383359441026,-0.2831232169995525,-0.3506273344197794,-0.0230575465032285,-0.33153859304583777,0.07755493104355492,0.056830054837395776,-0.4086108554785771,0.31621101140016095,-0.18429672625067695,-0.05362668271583179,-0.05702274340719285,0.14541927997203877,-0.2101000355790373,-0.17273663461152228,-0.4836084780951095,-0.07009482788682742,-0.2740185201535483,0.4496633427709946,0.28021412713822064,0.2655099031916475,-0.454403540788334,-0.3732492727228212,0.16940662313819854,-0.25389241316814243,0.4338293269545631,0.4398605283263916,-0.39845712570811614,-0.26743689187612907,-0.4085683751035184,-0.23749294397908965,-0.3421210297902214,0.04549454057333272,0.40399322241949276,0.30131724743090577,0.4798476835938481,0.08320994301400295,-0.16520079922840075,-0.26027707481815265,0.23403221281233696,0.10768500569311637,-0.15662825203121755,0.4616141753346388,-0.2038250695800776,-0.3627466740391559,-0.008038288571865754,-0.27417852645888474,-0.23937077507160942,0.13254682452056904,-0.05378356669985281,-0.32641756601010036,-0.28446556746435414,-0.32235836924545924,0.3698781175912259,0.4382728509870533,-0.23307622453149496,-0.1460480449879276,-0.15086324652449642,-0.16107804366117495,0.447407748956839,-0.20467299585996168,0.35806162360895694,-0.08611015425921968,-0.48845731767318695,0.41699362052500727,-0.0015188169766019483,-0.20133746884175327,0.3817348966172231,-0.3824408246693065,0.43730467924918903,-0.0652364378416208,-0.4239435683081024,0.15177140522999877,0.01713404479617859,-0.2807547024688757,-0.12647755057958368,0.07895670740879114,0.04837352549986577,-0.09773028869538627,-0.49142601179043904,-0.333185841351214,0.03636657218892751,0.40333699012609786,0.11431078267770783,-0.14159247736547875,-0.1475745288265167,-0.4007065958022067,-0.42186239998572755,0.010777502036734455,-0.21560848780546163,0.34186278476791937,-0.24844112788897352,-0.23845580030070215,-0.40627418301219875,0.4630799622620248,-0.26007975129119904,0.42027613984071005,0.18635286385755395,0.31572626504681384,0.1036431636759731,0.14298864005032605,0.42476141560809166,-0.473361298603306,-0.45495494575919737,0.3429161777480569,-0.29436285018095726,0.17041017042414683,-0.17456933149843737,0.3100499966805905,0.05081108244512185,-0.02086824526157278,0.21576040382317296,0.26048223656942665,0.14046047781350737,-0.046461160365827064,-0.023943318637125614,-0.12351643393255589,-0.03522823433858178,-0.0017815067009670739,-0.25631986415653635,-0.31521806936845953,-0.4115921925441105,0.43701554287284067,-0.3888920812927811,-0.12088172067917918,-0.45439551612827767,0.029266959451390684,0.43691327871081037,0.47347614883082606,-0.10420785184739853,0.37433985761593397,0.1505014882242893,-0.2898823639537583,-0.24150302984975366,-0.2623952567620084,-0.009209027282459368,-0.30523664960524294,-0.015486324065093307,0.47691029427824394,-0.13271119576757848,-0.08526384588230991,-0.30451077991930237,-0.08364601127998328,0.4878561442454716,-0.02607381713167405,0.06752643291474976,0.14719791547136257,-0.3126496970828965,-0.2948784236987539,-0.19052582887147038,-0.23009750070779894,0.460621096370012,-0.47365345305256773,-0.4302392990968619,-0.08115318234439521,0.48498569389705865,-0.10895897245665431,-0.37205557861078115,-0.15202348345686784,-0.30760674566004437,0.3318562423899468,0.44875123777339704,0.3927882306416969,0.05954635788334164,0.10665220862831241,-0.32020940203481335,0.22803930854994878,0.296967565051563,-0.32472316065425316,-0.3179916296780721,-0.16319749234878955,0.3436865732444774,0.28115338600976997,0.4790465399784462,-0.13346805646454069,-0.46980561305077356,0.11088621667881086,0.058301786115812756,-0.14679248305188203,0.44018246897202296,0.3333960544670573,0.1384557232902068,0.39058991412812044,-0.0821674140453069,0.2991603509248562,-0.4130827559178304,-0.3510894493758337,-0.09295446790103765,-0.4689379988696383,-0.33500920082979013,0.0605363885419526,0.26013444291251203,-0.4660181746374226,-0.1604812537069377,-0.18195541053792008,0.3048857883076904,0.06875413893700959,0.3021982269350165,-0.4888786483760103,-0.1542207188501706,0.34669345272388646,-0.46915234558705793,0.18609055711488043,0.28765128910617094,0.4310326972021346,-0.09338432396318454,-0.14928305866175243,0.25737906988119247,-0.19396921473251238,-0.3105214233090238,0.2697920734730885,0.24003307537017934,-0.1618119388833192,-0.4154482927078932,0.43982143194704415,0.03675847632429429,0.4298235517754764,-0.06667729809863435,0.1284111803721231,-0.3972650190568651,-0.15661446221905329,0.355096074796668,-0.02166847761305003,0.15004449199120307,-0.13135082051370223,-0.4069368214694109,-0.4991754550386953,-0.40988503525150216,-0.44241679095608544,-0.013483123057318113,-0.06638301905081433,0.22045029766087254,0.2584724342771591,0.14138397809087086,0.42431256538606055,-0.40048245584184095,-0.32263013087919185,0.47659135453078777,-0.1515955691830114,-0.23041620561600584,0.015804054560128088,-0.22353811540646848,-0.3855041054022171,-0.4171466531311086,-0.20082920671534188,0.22316622788043,-0.4719586309417996,0.47164359255545973,-0.2049687043477474,-0.01147031747654356,-0.08782368489331617,-0.02302646846549563,-0.1551803865334945,-0.30881541907596527,0.47337393252553245,0.35350019452763165,-0.4825746036318353,-0.1704484110629789,0.0685828490914815,-0.1504332953210322,0.4641582645987666,-0.061492062907179026,0.06916776656821105,0.014128111306457521,-0.29981090025034085,0.06412377309761513,-0.32618417466144634,-0.4469338671383677,-0.22686198823287773,-0.2890091650639651,0.316885553892149,-0.4036604506418609,-0.3818234372233488,0.35136899096110413,0.04941609399070616,-0.4628301586174668,-0.14901550388220505,0.2946816215409095,-0.37522993664521453,0.03886902210212757,-0.30038917396985826,-0.4625374617355264,-0.18483130592526417,0.384106931474773,0.19060944745383313,-0.4564391515434609,-0.05909176177988609,0.11867857141239455,-0.12285376495974787,-0.4604559761722186,0.14300058821015357,0.0017454474359389965,-0.12011524499281984,-0.46496631444221703,-0.2309794542757518,0.18182840670850348,-0.2200682545099874,0.468035296413907,0.15185904386235066,-0.0427008271874913,-0.4761396379404314,-0.34617282133630645,-0.359841049651887,0.40118153409498636,0.4103396882196713,-0.490841680182175,-0.4970731441999717,-0.1242399378897132,0.044634317385949855,0.031155621419006334,-0.29754604747432456,0.19336728016724689,-0.33867485219582344,0.2842684537172168,-0.07690747188670166,-0.45196234081878595,0.08740021692012784,0.012499164823340642,0.40660485103505123,0.36142092683991345,-0.17539890395513238,-0.20633111268241686,0.1762789336103787,0.4259116024579397,0.07225370955418653,-0.2861056669259008,-0.4879694521282469,-0.27181134482425506,-0.09304330169317185,-0.30819797287916734,0.45222583927266363,-0.08750695973437984,0.020927251673652912,-0.014329280294918046,0.3493194426839425,0.13433512340444054,0.4247463297498831,0.43837536047308295,-0.1502170507869665,-0.25492948059885034,0.18242806576936835,0.28971224204914114,-0.46649188142149256,-0.35984987457194734,0.33980730409267873,0.3753785093187305,0.11242519659834886,0.007257302507182754,-0.03987360072632605,0.3149213315664813,-0.43379031646173016,0.24680815632344105,0.4622816819427521,-0.24912621688644596,0.24451150044466638,-0.42597066968519914,0.32185704840471246,-0.43603884800830456,0.000997195690411435,-0.24008588821489266,0.31913819882161715,0.18233849247203351,-0.2083965677560358,-0.4969343308539464,-0.20272081808968298,-0.4045754396124846,-0.22667783444612236,0.3211698865229748,0.03222009151066596,0.03593229627209377,0.2877717656869279,-0.01831885685789763,0.01182752227043424,-0.23904804376658628,0.4055606613193396,-0.4739833352565738,-0.3252665782534314,0.2904066263852135,-0.44851277079903923,-0.35136940221770196,0.31059856813586767,-0.24369826646030485,-0.21504460984246584,0.320473145048808,0.22636196503072628,-0.10004539773855778,0.15442254908285652,-0.4266893921971929,0.3308889780321464,-0.2222975299009567,-0.07264893417580043,0.31745474953722663,-0.2820254986871969,0.34699924716976366,-0.19311780550428997,0.01909111621919364,0.442671007742161,-0.07574552366563561,0.2542183129277553,0.2922607004598732,0.10925584872947428,-0.2865955693388868,0.4983208836704107,-0.18873923960498973,-0.06800535970283793,-0.2624062871904904,-0.09660751102543291,0.07332911579028266,0.23764428635159598,-0.4885692068023827,-0.05546824169798873,0.33002251454671033,0.12456395067432448,-0.3163818229857277,-0.013748563555784573,-0.28828406650061306,-0.4839087557669216,0.07717006215777093,0.3089264224179429,-0.09282841733017042,-0.3067663459472823,0.05468001204434935,0.22393906796270535,-0.12093575728329234,0.3186483762596293,0.22383891085937338,-0.48310002509463534,-0.40104058541281407,-0.3916123088804434,0.3333061401873252,0.3801593879500157,-0.10200682910754942,0.40850479032563464,-0.21653267793247352,0.2931301141270108,0.48197749895842396,0.48505111636883863,0.3315553742059964,0.3174833573679227,-0.27394350656638194,0.3548502449521305,-0.35207822066088706,0.13142035540661148,-0.2552858212450644,-0.20438867932393961,0.43648135182512654,-0.12287454969591612,0.4595855560865449,-0.31186062853588015,0.08507570498900395,-0.18455937651984777,-0.18623047402350804,0.18952963695893868,-0.352590333456747,0.4646084134779083,-0.28057459195716855,0.2121813737920659,0.47693860881966255,0.3615855530945788,-0.14397871202459286,0.4041040567249697,-0.21379595849691932,-0.00265275915911457,-0.284088335572557,-0.13426164353318368,0.12381728791063418,-0.19887672107740598,0.4903750856659565,0.17628980677492573,-0.11186063762928182,0.3035000777547614,0.06967567595495083,0.3400618701030276,-0.15141930752169694,-0.2227261111198745,0.06834257721589372,0.004407205872947115,-0.23732929142835338,0.21955438167690028,0.23257751345657704,-0.22215236949424427,-0.1840510807710763,-0.12359091004034295,-0.09226910547140052,-0.3599392973722873,-0.36282788938383614,0.45627648840739216,0.058597220836128956,-0.19929503980403443,0.211911175426664,-0.22407371250132338,0.1640895111445206,0.06739030546947035,-0.017863692514309505,-0.07432642682868737,0.17088975566137135,0.3193250393994924,-0.1058955740561708,-0.08584593025345483,-0.1698801744617917,-0.27662030109654356,0.4953625795335783,0.24634112836367883,-0.11495743495590326,-0.005640280814045679,-0.07107462509854633,0.47521726758565236,0.046688085957601114,0.06992110423371922,-0.37097727632169314,-0.270487858300743,0.08040568211528806,0.30654993447973367,0.1992475915223439,0.11421408961880852,0.3578209196005138,-0.02628254650283893,0.2712661626633807,0.230876952996461,0.04045541795726674,0.032977553104447624,-0.352901944227975,-0.07004636101934007,-0.3250488998623145,0.28968603742532645,0.27512593070635644,-0.30221165575443804,-0.29965661117222003,0.41220989943863867,-0.29981407640187424,-0.03545663769827476,-0.13281103768304564,0.10405237901936372,0.14456362703397893,-0.47136400123073424,0.0458715691552042,-0.18781863868785523,-0.3811697890372937,0.10769599601681543,0.43144057402542085,0.40188879307062764,0.21765539264399134,-0.49716746088331154,-0.3929888504634405,-0.01608238857584958,0.1129916515272434,0.27817834683509507,0.029284549007201628,0.22189566688440476,0.1725458666436368,0.21129633167704384,-0.02904539641431936,-0.05042695709135681,0.016883134315593806,0.26446156122320563,0.13093208781182056,0.49593325055853554,0.19206638795691258,0.2745942174011323,0.3365332240766261,-0.16825363829151574,-0.10403000348314234,0.484712420090987,0.26672952628066093,-0.3448719704688167,0.4386097595990081,0.3060937870458632,-0.1966963607439751,0.26153427547283375,0.253179630328954,0.352000473918876,0.4044208763949215,-0.3762933804590744,-0.19851619460237283,-0.4215974837352344,-0.06634140443130605,0.47292372190283666,-0.12382473880557483,0.30166075143693194,-0.2932510920953099,0.29358222736464185,0.27113497017881716,0.3997875961165535,0.1965394343690393,0.18547119969148235,0.31970302286604335,-0.010295795605554303,0.4481887230133194,-0.2808092131812497,0.0004277030426510824,0.03473955390753299,-0.41661808172882564,-0.10760940048272348,0.06314226593274515,-0.3549890610637228,-0.34553819092480226,0.21832759530967843,0.0024196083017279904,0.30002407628452105,0.21974925002315485,0.38159504119875204,0.38982645699850144,-0.3538027438868884,-0.4598282687835955,-0.038969268251158366,-0.39591791036580476,-0.3136495908564405,-0.45875454988804015,0.3512116383879446,-0.42588146062141446,-0.08468256071439931,0.018243974950049126,0.3226247999518709,-0.2610783688230656,0.38143684246568427,0.3504755874818507,-0.04289297358484099,-0.21258742056090763,-0.1808762329456464,-0.24150295626315893,0.2994099482379043,0.2919705310694799,0.33647723702158283,0.0017918281272927543,0.4777643291867908,0.4163389150126734,-0.46451227913093246,0.014102861530755918,-0.376268784132485,0.4525206402766269,0.2368901988564908,0.2516897403866007,-0.3009455648435406,0.2643100887449019,0.2891927024258357,0.029477832955921,-0.40035562024001314,0.06531964474363304,-0.24062885333949263,0.3248843435052135,0.23062498170092854,-0.1611512535081791,0.02109142894128377,-0.12370675913104871,0.32179196482791556,0.25686202254795093,-0.49970412648263407,0.018557369511011175,-0.12530011775763808,-0.35867709043145096,-0.4091695621359365,-0.3070105456347343,0.14467329029754616,-0.45922858462511895,0.021167181062457772,0.42070626742988254,-0.2290441094262426,0.40493745819930976,0.12048201001028365,0.33705731605209976,0.4491139743255116,0.27553602615330636,0.05100047252299488,0.28767731709664895,-0.3270342966563353,0.06327049287351379,0.300781324741184,0.10858358431260039,-0.11647311820777652,-0.13740072402380593,-0.059983800803758855,0.17439883085151786,-0.20607108503197308,0.4111053856146775,-0.4016737573796699,-0.38093300028067933,-0.24824816857956503,0.3699447310700662,-0.18425622792794946,-0.4441105983710751,-0.4092325235384017,0.4576454669258913,-0.11410040702965842,-0.47575552141988464,-0.11981580737725897,-0.47244072611078125,-0.3078077926890263,0.15306550783040315,0.24883925565553855,0.4212476580995634,-0.3071510434907134,-0.3316036557684603,0.26065944599919966,-0.2064104999303828,0.1338800730270655,-0.2642210357554927,0.16451790781888517,0.1615735461251157,0.47713215402747033,-0.22052387348420718,-0.3073152318414126,-0.4285327176157075,-0.42601701780188933,0.3014977779183462,-0.41456257381938555,0.22498687537147963,0.3878666312092363,-0.06312520436172336,0.4076465821038577,-0.48724761443027503,0.3776629231659137,0.16146207878874513,-0.067243801332347,0.026322971607644866,-0.02634149072301373,-0.05852944905333041,0.2955251826554215,0.27474298965116156,0.15224179561052403,-0.3623924055839145,0.1000458091441798,0.14167807917840475,-0.43886790809314363,0.19192411446228863,0.27820549574636527,-0.3121927607964083,-0.10860357749869345,-0.3507725629637647,-0.19215651251864196,0.15027716933521962,-0.41045248874565166,-0.25824626183196764,-0.09697468362924652,-0.06450470010258624,-0.2757903475648246,-0.02779829868214055,0.1136844006810111,-0.25779722826970314,-0.22431353607423896,0.011546137496896106,-0.25053918047421253,0.4148094558706192,0.38035788435748924,-0.49991815397690437,-0.4439925666833421,0.31879038842734087,0.21768790228668472,0.19382833199085658,0.2649782304390918,0.4226099598640843,-0.24659223814070688,-0.30363852581569084,-0.19777218700677382,0.4268637920485669,0.005117636633219794,0.08334908924038227,0.21902338965007226,-0.08821830891500419,-0.4003885815414815,0.48444132230285925,0.12981073068828644,0.22061380625913024,0.19795861112884597,0.16802912529426073,0.2936608090206713,0.4165836710899967,0.17521331689015646,-0.2410305696212809,0.12135699757945774,0.21363714178290252,0.45517480525808107,-0.47766976753463436,0.012023937191756158,0.45368734745829575,0.2945984891699168,0.4238862442048024,0.06931909829489072,0.3334307890251412,-0.22511961946881132,0.25863897368778943,0.02763779171823921,0.4369872008878091,-0.34078278333948364,0.3403983805259363,-0.361292561528848,-0.3402424935177121,0.13976599015565178,-0.052725906940451456,-0.004480574120844034,-0.13599845110919304,-0.31059590021612604,0.03003723130930747,0.12737237289389564,0.18188762374893444,0.054479715955228214,-0.03898431679809113,-0.1600581577944376,-0.1486846164755167,0.03693417236538126,-0.26716745160093186,0.0409244097387061,-0.2686830875613876,-0.4935298236849835,-0.4649135981902739,-0.3298864422683547,0.11517365439285353,0.49101483935256623,0.3771480738777653,0.07853777469961325,-0.4999095299017833,0.4082999175440452,0.04054713375679153,-0.16012522471902274,-0.2455758273923423,-0.024516674625449392,-0.1911368262115174,-0.20351093742127413,-0.2462907097114504,-0.14697559768595952,-0.38363379948855475,0.11383575212880817,0.1617166929897908,-0.2903600802419188,0.14218189828329078,0.4053394265233023,-0.42095348994621135,0.12025946634270793,-0.39139618222602074,-0.012183000810611194,-0.025008932354654043,-0.15788909751481864,-0.3567566862040477,0.42959613158116206,-0.16742928238761565,-0.01391509380868253,-0.457704706828494,-0.24709001742268275,0.08908056553865175,0.15981652467118693,0.06596403072984014,0.4465620146001247,0.18798375923802393,0.35471864018551136,-0.46697883264116397,0.38605355047793266,-0.023303778571936176,0.07671530235625118,0.09948746536683623,0.21482054698564867,-0.4080259091176678,-0.03747948196539249,-0.39522560230142234,0.4338276825589541,0.32514570232853846,0.2473632517710192,-0.29987007872465576,-0.30998482943792816,-0.39779737185721065,-0.19876837405734377,0.338406905800385,-0.3560410566792551,-0.30181752393264855,-0.1404542769505877,0.05702536903888865,-0.08189883943123562,0.4662844674328604,0.41802013170623614,-0.38551956516090635,0.09828106959234975,-0.20719326115017306,-0.47814090348391486,-0.4944756821970387,-0.21115176538045277,-0.44034043426857855,0.4471412837994453,-0.076581438318388,-0.2449122383287466,-0.21827356754944102,-0.29680029101724437,-0.1916326031948411,0.3971813537792172,-0.0948052506362255,-0.3841445729958821,0.2722153147372858,-0.18070057916074517,0.45376884810836265,0.2841645740271643,-0.4125780360858696,0.3943123774530947,0.27865021724564176,-0.3221059590253866,-0.4838925849694939,-0.19190375365963763,-0.25546284207076353,-0.08616406859929744,-0.2831896185084633,0.04452278942242861,0.12395176289253704,-0.07872878745522299,-0.08144088172697045,0.052323243003433426,-0.10540197379762066,0.13524567248783467,-0.48270603394326494,0.2206242411114436,0.3517058335162018,-0.27749126576553657,0.3142589798637519,0.18420219433260965,-0.2600530306265115,-0.033498450909292946,-0.329532414312577,0.33586235009456333,0.2349199655896141,0.2156712841688169,-0.43321174967389564,0.4085113953305213,-0.47469162048871366,-0.04870830192751037,-0.3373169402288699,-0.19611193852301628,0.2984308731269456,-0.3101418599140558,0.17823029880572894,0.20545896266097305,0.05178715711490042,0.40325452939290163,0.34683025021066577,-0.2845627697598391,0.44829726712800316,0.3319115026210504,-0.3062018424551358,-0.44798597844209365,0.46184155144413,-0.4953637456295275,0.4591671446196992,0.4801766623900475,-0.37465297461044167,0.4757637893953797,-0.17829147528166978,-0.4057457036391697,-0.267153416776296,-0.5030656206132689,-0.13523772991412322,0.11277406062720385,0.14371164596941954,-0.3438243059129959,0.2804184265455916,0.40911537370188533,-0.2139830855251708,-0.4895994717821775,-0.34427781360372783,0.4319221276582454,0.2042677742894046,-0.03447338287025288,0.34738459939427396,0.3415963842256829,-0.052207622252467056,0.275735448753271,-0.34401336159381546,0.4060635900215783,-0.005281888733335279,0.4955818021646685,-0.4848739593119341,-0.26730721971963317,-0.2369452236154296,0.05562807629685556,-0.04485756018737632,0.42024168979889476,0.4582458606820152,0.16676344965320705,-0.22413628020790688,-0.12294453797190898,-0.030805596511068935,0.3958240447316426,0.10863325918075152,-0.1604455148829901,0.37533402045933445,-0.2912072884693962,-0.09818131841885251,0.1999515546917638,0.315331833831675,-0.4591060726626907,-0.4458152168595236,-0.04706950933011892,-0.014694338568250984,0.1760152146508351,-0.21350385084378676,0.2002023497159195,-0.4181209412948357,0.09767695798760205,-0.11820912157007397,0.040749423532515455,-0.24234420688019892,0.21817602948285278,0.39520875134175354,0.4728142892518087,-0.2912561599851316,-0.4915506826522707,0.11255805009174431,-0.5005858250207392,0.11791330250012494,-0.32744436991884524,-0.46492993702614316,0.1670403534729032,-0.342756237262176,-0.272243899466788,0.33346540911776307,0.18560612198390916,0.1119760216680629,0.053298368643686395,0.20709137216531154,0.2489772171127751,0.15257003542673364,-0.012299520106888472,0.11756408639657753,-0.48892564667609195,0.0002664712531466423,0.14881292902604332,-0.1577775616546313,0.37756128400715333,-0.24738103961187763,-0.36429346672020957,-0.22912039518545407,0.27491223951981175,-0.38729999970482665,-0.16417564529891693,0.19907758294708605,-0.3619710235576741,-0.05673100612658977,0.29221460999581894,0.41962874988967014,0.20964911140483156,0.14807957922884735,0.32094197531263585,0.30771537638171603,0.0027042676554446467,0.17444851428640676,-0.1851047232896229,0.08403565142589713,0.04275470293631434,-0.0851948079980868,0.19593281323603134,0.44054390807916183,0.3542037586541172,-0.1698384651620789,-0.3188754921512095,0.15082926599412552,-0.4268114764499032,-0.298304420820888,-0.4206294415755932,0.0715243814552114,0.19545570264883694,0.40493091389814473,0.396891107982453,-0.1523252801167526,-0.07420769208290726,-0.04536593578720875,-0.026007454058775723,-0.17089326093726614,0.09501938563903484,-0.0391156721660717,0.08482476009363356,0.40374017405105067,0.009856976710706818,-0.008641644036113852,-0.4584522143374118,-0.036285780279026666,0.2514396416103817,0.342689191086514,0.07250773824330997,0.4073722884027212,0.36120411609829706,0.3455395021418651,-0.2743651595843935,0.1866724538236967,-0.07325220553368103,0.4781982408091797,-0.30983968633871406,0.33571588735852304,-0.2707787755288307,0.3593040797982819,0.07125350422808882,-0.08376984629271196,0.30777299399058966,-0.43601569462050827,0.49079965864724007,0.2581928832561334,0.1301230160575112,0.1782091627676689,0.16675114061498797,-0.0016037131945717035,-0.2411505334180521,0.07542339525811079,-0.2743749972048692,0.01532015584969027,-0.14165822709593048,-0.31448558938850063,0.24755527506504962,-0.3073625402722774,0.09561276576671852,0.4173311685609247,-0.34921610797574065,-0.3329346877850698,0.042977215698581796,-0.15062032271349257,0.1689093293471722,0.21583810318607688,-0.45596845791818735,-0.49437506639257145,0.480497121337866,-0.33944970508406785,-0.49873619417715725,0.42815373713931054,-0.25895386262787906,-0.06932190132150953,-0.33373713749163875,-0.38124747890398214,-0.43971132074998887,-0.11354790139881801,-0.19807815338040363,-0.16777858900153592,0.45298157866948174,0.43942465637529027,0.37771347922118903,0.165766253069255,-0.13333746587028816,-0.21859772582296286,-0.15171029575026443,0.12103057485765664,-0.22178456777942804,-0.4080202122886114,0.11383836711795613,-0.15808157585044705,-0.1005742674292538,-0.22684359280627647,0.2584284841708898,0.3837068015086995,-0.16546421868741018,0.023134953939076306,0.2601064509390171,0.12797939004323747,0.3397405813252667,-0.1648972271927512,-0.3753400945758533,0.3965439725875887,0.49109996333631195,0.349029750242969,-0.35859019175813556,-0.24101738668984107,-0.11020061572410332,0.1881793904909403,0.42242125591985136,0.17642195502764574,0.4355413355560383,0.3388131532478848,-0.05459774859014335,-0.4686478883583122,-0.07348793958651813,-0.265536078456686,0.10430533916878316,0.1587739259658369,-0.0904179403081876,-0.32617298737160444,0.20817398688675195,-0.41730959729878253,-0.41892992241232335,0.24558193542881013,0.11278003754372806,0.029234994492679953,-0.10965464368423226,0.0767354698530949,-0.14207413139041464,-0.14127742159951126,0.19865616272033004,-0.10167440413139893,0.2724435220681976,0.07416774917123142,0.25794479603294435,-0.1514974872644927,-0.38227617196105873,0.2638014409333367,0.17497499840575415,-0.05845060291930436,0.04801027981888861,0.1378275506744491,0.4420888415780282,0.009588689591459663,0.3393208884882883,0.31042317707294226,0.22360685282357035,-0.3618688562736953,0.48375422358512543,0.2949603438330793,0.2484115861798637,-0.08901821977754983,-0.3189112680443316,-0.25734140597775335,0.13770334682135651,-0.20223033169017118,-0.08790243097080974,-0.1374271146260455,-0.39511620530892183,0.0523637381476621,0.19834256565899247,0.3541628098000803,0.183744942955823,0.38744466505868524,0.34990859063121243,-0.3721982705561259,-0.3320906949192537,-0.0607756923708887,-0.0728112349330003,-0.21693502466876255,-0.22272153383825374,0.35133283691182804,-0.057932013479579214,-0.46872157126221875,-0.3348573492786021,0.4819880275132438,-0.4774726615315374,0.2937392847487361,-0.36032044271816066,-0.029305106034861635,-0.05367778427254874,-0.24576678261773907,0.4656161359307592,-0.2340312967954488,0.13935480936799147,0.17807316696382916,0.4495836807046018,0.25349934432466537,-0.42767467459115244,0.4415510147521889,-0.49117954307970463,-0.38068743275162836,0.4676698983029544,0.4695947783229452,-0.48524402353843166,0.2546939289575765,-0.2807356601552905,0.20943435469704325,-0.012276847851524022,0.2664075067119209,0.3416842430630293,0.13823314839293385,-0.20411528536560017,0.12825561132208282,0.44928826146507694,0.3620364704180657,-0.24747576184092132,-0.4692648673825431,-0.3409835923412295,0.2013095972281654,-0.1650484158055111,-0.08334409850666877,-0.3034299681725737,0.04482336437800786,0.17935714272048417,-0.17824881661605282,-0.17166989700227434,-0.277568434549231,-0.4963529903090078,0.36969482475558163,-0.21220947475884844,-0.33770617831246236,-0.40422487054021206,0.16835211967132824,0.1719719374471479,0.025621056503642055,0.4982277468698303,-0.3167785391502813,-0.3223651724010044,0.3015858975111154,-0.2726060341882442,0.05623289546223573,-0.10199510137672506,-0.3918812042648081,0.33270480685761183,0.02274731952322843,0.24596902135664758,0.28572120813435287,0.23179837018592073,0.30521489632790605,0.07762499071373379,-0.4340245577783006,0.2112025973988773,0.0817869468416069,0.07807708974335534,-0.09925568615258189,0.030095334686589884,-0.46675371008519184,-0.12496226520102165,-0.42398811867646524,0.4106684693542626,0.38878140680764384,-0.3046994192045772,0.47138566034001095,-0.215138583324053,-0.39999440141626963,0.4972514423778791,0.277219932853741,0.18405224449663374,-0.039325362991653866,0.08514432618557984,0.19005135986367985,0.4315282688087731,-0.48136841166682814,0.38418737842492917,0.08093489770743696,-0.01937100964308989,-0.09467469107391653,-0.1859847993892211,-0.0643861871789488,0.35667262932346133,0.10857209944905202,0.4582889958144019,0.23685947164541457,0.4962804493112759,0.1178110524289427,-0.3189174184219355,0.0515338260704542,0.14858311708077715,0.38004354475453855,-0.14839168812994996,-0.14626440798337464,-0.4512555602487566,0.00299216943136891,0.49540808268130127,-0.007020159582055878,-0.3475543793307065,-0.24189409206750045,0.023140290909648142,0.49278967121036615,0.11648567791054952,0.39904250961679727,0.06039166019006017,0.10577879420614598,0.2395157022879949,-0.050451757940705035,0.4025470465756105,0.47920118607652223,-0.18167479196059952,-0.31062116602411516,-0.3472382662724016,-0.3599229506434287,-0.13972781633631776,-0.023231580026029014,0.10254338980330076,-0.19183289106066506,0.47934156666359473,-0.2527705258603754,0.15556804113962056,0.4479706865283623,0.05419439180069043,-0.1628499841959284,-0.16043292015785598,-0.4377570920339588,-0.23876278072230106,-0.20606100689399462,0.18611892969049826,-0.36369717728039236,-0.23737943458502123,-0.11316322000862483,0.4112401602324163,-0.14047662713355888,0.06092716912820821,0.3557412445026789,-0.2640661613083724,-0.4436994627542026,0.35354353332323885,0.041552151366528324,-0.3897163150328299,-0.22811225117094114,-0.32263732926915634,0.27320314360151154,0.38176474887141537,-0.00078573178733877,-0.127227695255717,-0.31842519903725935,0.17028219590610724,0.34041881036082117,0.4302374359518746,0.04981622783980159,0.49398100022587477,-0.22385602475695535,0.18679243070368243,0.26868396231141345,-0.13233474245015756,-0.1745202368488148,0.4591507207565998,-0.30100414852102964,0.04620936217834667,0.44135180169438853,0.2798315223835556,-0.0507418430970644,-0.196268127309872,-0.4316741814386147,-0.30207154745261966,0.49615969560272416,0.46541514327398836,0.404558154559762,-0.4158289314061351,0.12028240066667853,-0.0556731640939946,-0.34802004245389734,0.07670420764734083,0.4415743862272513,0.005196547863402097,0.26546944281547624,0.4191285024004658,0.00604729377926578,-0.35956734201316864,0.2525734884200788,0.00543327682487359,-0.08141594954141147,-0.16450129115783282,-0.4659776398866058,-0.06154074397585537,-0.16765737120665666,-0.3951776232069799,0.11929494175794934,0.06997050896729594,0.18841285656802859,0.44401288323212057,-0.22242966897687583,0.2949130391491783,0.0515026528468662,0.0026541865869785827,0.15725198521896877,0.17490251515930183,-0.16781174686200187,-0.18509161151229414,-0.27288984091613394,0.26980804514334056,0.3987974836768896,0.15127860042280036,-0.44652879051040784,-0.27087964551952143,-0.4861465876152827,-0.4186603578655441,-0.3979483325958956,0.07471709550657975,0.14644242230691706,-0.33099714010425935,-0.4790706267497868,0.4278740732355859,0.14840561900956756,-0.41050331937473766,0.13001342874022057,0.10822093404895358,0.14399834515100238,0.32519844787592617,0.19443860150269754,-0.13671144948297906,-0.11020460587766244,0.03352326735649157,-0.4894695895807165,0.24260160447149604,0.3765882629359868,-0.1634469685506024,0.08850277514992849,-0.4876284348036094,0.414070873580238,-0.2596664482055303,-0.21501448322873953,0.13336691356913674,0.3925353897251243,0.10990825072863968,0.04137841229549137,0.30042784292501573,-0.4434517734844231,-0.23503438569683466,-0.1688206226146565,-0.022028585434113773,0.20389123097599396,0.34623265068832093,0.22126367489932852,0.3607492284176216,0.47365511632817964,0.44816574187281355,0.2981118190789478,0.052282042662749086,-0.07594129115737837,0.22201299602292074,0.1314504098187554,0.09249475662535388,-0.32447776858559624,-0.24240999621650017,0.058985494787523664,0.30455602775586144,-0.014666633386374743,0.4365006194570764,0.30743583232864025,0.38190531268424366,-0.465264172032513,-0.24974330723971336,0.12527850157957782,-0.22874120668032216,-0.22556113137662637,0.011568116868414873,-0.4457466819941948,0.3959462763130742,-0.004494879756273252,-0.12075962281683289,-0.005677125674895264,-0.13989001628601874,0.06114344750950878,0.015250417637859294,0.10518131191918091,0.489590251074607,0.23765463562443562,0.10987438371942797,-0.05287039837666379,0.02852496058055447,-0.3230189614966386,-0.4874153498707985,-0.18594196406561755,0.31251052498795295,-0.36550595514903056,-0.13362586291805523,0.16846388854761685,0.43274492367053646,-0.33455103917204654,-0.4387962936310636,0.11528314140516537,0.3682411380859225,0.1430880390743667,-0.28024100399812957,-0.10875867413674858,-0.2716350643879745,-0.1098435089457835,0.3783398794836705,-0.26416689948159555,-0.4264896580882446,-0.276667192765487,0.32224047780219833,-0.37604952474329734,-0.13965957154717162,-0.3479624009601093,0.1348074636268374,0.18084246034135038,-0.011854753479315916,0.48227401917189466,-0.18702011335362898,-0.34203464337844763,-0.3717226964001011,-0.17287557796462005,0.2953022019469785,-0.0990228935519083,-0.021807740843179997,-0.04921009329844108,-0.3282299639357512,0.4071198565520811,0.07072414134682997,0.14656091576895836,-0.402394384114569,0.0943994219449814,-0.2719281192568705,0.14949903207560367,-0.20757118614125258,-0.45002192481129605,-0.24658967556750944,-0.12481596894050562,-0.015438701298173228,-0.34561918104663125,-0.2648147592859759,0.31991877988199596,-0.11331396132427575,-0.30593102683737217,0.4881844559146986,0.018615653975591027,-0.13587846490597721,0.05394092410279181,-0.26657590429462036,0.10535563793079025,-0.08001811095762448,-0.24703019519271244,0.4673136528608162,-0.19021366468940512,-0.011477676393151337,0.28017357606927895,-0.3100962045254015,0.3212457459831035,-0.21827877684989827,0.02387011276204357,0.3384946583261841,0.05768622113800819,-0.07503378948419209,-0.4997550449768488,0.2913495869720179,-0.050789028586186794,-0.39688369359100706,0.3570978986654248,0.338365968073927,-0.15015245916225353,0.46298432892486246,0.450347287300142,0.23658869906829946,0.09055616102503733,0.2617100522546711,0.21464629425877976,-0.11116993558477323,-0.37398352845138005,-0.031361201553535153,0.0323160206766554,0.10534760681199934,0.11589973698137629,0.01695536402217041,0.2329469319493975,0.14084862614687915,-0.0934439856646043,0.10679178892638092,-0.3696970251728848,0.3126663914571124,-0.496068877106624,0.3013838101930285,0.20622493821047055,0.3477581004015239,-0.3905881766865931,-0.36886467498779396,-0.4071931600327555,0.42829362468238125,0.4929792378265143,0.24989377663921186,-0.1934943964193195,-0.20765245054023004,-0.0662346219653764,0.09064783480837434,-0.023647578738009073,-0.1661339433646172,-0.46293634220736546,-0.09263197168961995,-0.47772166715135655,0.3367784633971715,-0.09722613663368403,0.33192333520461853,0.2042101310310697,-0.2200927512752573,-0.22866862197905108,0.005332851699631928,-0.4413064178507704,0.3658346429135421,-0.1419335688803288,-0.2817770995853533,-0.07301422945167137,0.3577316975279133,0.2219246963033339,-0.3101840702838286,0.07950495055154298,-0.05843391154591873,-0.27121684031781323,0.013627306214771491,0.3524558018647759,-0.008734557101350137,-0.49549497872592113,0.2537414625850031,-0.42468678257496606,0.34982354884873523,-0.11490030053660469,0.17663362506996372,-0.23257554023263388,0.1760232046014217,-0.112188492140513,0.15633058665861368,-0.47707684407185835,-0.22650198717784176,-0.12196216139239212,0.4133292522194186,0.39174393702836063,0.47525341452656106,0.2109726411492524,-0.009265310002671856,-0.4912491292757276,-0.13157716434776995,0.3359758375320797,-0.036781246147209984,-0.48316565462115607,-0.44064777038370556,-0.062091758529224175,0.28711375432443365,0.23083126497355247,-0.04755134870439504,-0.15275470408822567,-0.01438572601593531,-0.16803812190273895,0.08874982641595433,0.23465418475988814,-0.22211228538194547,0.4067519335630613,-0.04977684334841426,-0.25376794540261627,-0.10367295516236585,-0.4043783946760394,-0.12251267537800116,-0.2999364255476361,-0.1324664243561545,0.1121884322155099,0.2771721303009293,-0.445175525301203,-0.37201266503598635,0.2293417033954722,-0.32636569684298067,-0.4656942547686418,0.018763780249180313,-0.43647377124810227,-0.07919035765277067,-0.13351725574032033,0.3171905761804405,0.3031248971603229,-0.27840106346551724,0.27316001831004033,-0.13570497198703096,0.25131125729721737,0.3181952504052701,0.11874857612361488,0.152067166344459,-0.3505001237119482,-0.3185205768547116,0.4291084171259176,0.0774710554697244,-0.16803293911924067,-0.43810291092468784,0.27554619303977534,0.2638133129273753,0.3865497814765767,-0.4177107283822356,0.16699957135562837,0.22274306811848543,-0.013495377645696473,0.44995474014057085,0.1218281486293487,0.04380674775357798,0.2035210117150564,0.3702103981604707,-0.13794034873962766,0.0396585149757759,0.023524677325429028,-0.11814407179334917,-0.24672656212797023,-0.2595088280868837,-0.48593673044364905,0.3187631874303537,0.06326831157556756,0.44482210324647775,0.10390059517252256,0.3585626654355117,-0.25752970587555285,-0.16354525719286092,0.1902217117155869,-0.43938515905809855,0.4904145168014928,0.37551014973526337,0.4445770193837258,0.15245277515037603,0.19866670217887203,0.187289816329457,-0.38393902500952887,-0.1761216283033887,0.01916463249513138,0.35619281929105695,-0.302620027615769,-0.09795271832299007,-0.2453720980594479,0.021410833292921618,-0.13314679153781425,-0.4531971444411005,-0.008160229438207956,0.19913921567633977,0.165300827522206,0.30441693735318986,0.48488781104290196,-0.13722377415130588,0.09794943129387976,0.30514651952789773,0.014037505792713468,-0.4702847390238064,0.27417029131464404,-0.42329455728669,0.22440965364227006,0.4262400747896031,-0.27971902161811324,-0.4901186376879918,0.268407955667701,-0.18180322517620928,-0.12689921773787435,0.2991245258208583,0.14977134215997034,0.44439012168616027,0.19074639496321333,0.25879420009758486,-0.13629263295537664,0.2755081705445788,-0.18969665978775513,-0.32056763467821947,0.2734456461042448,0.4772520244026242,0.2860156343097665,0.25447580814236864,0.3530571020871141,-0.0608895352367324,0.469203922541334,0.30359207087528145,-0.08964918790003377,0.13313335006332308,0.016330187497559535,0.03390859816523725,-0.013481225561226483,0.08713544355809887,0.4283295696590054,0.17737628102593073,-0.4402551158975493,-0.49273757053167566,-0.1809750058164245,0.06860452380640972,-0.16162835397294845,-0.3896067440086114,-0.018628358102492363,0.09825199175580766,0.05652807846132038,0.11125185522004992,-0.42635684856175127,-0.2466275684149856,0.42132242691529825,-0.016869281987206157,-0.16244557575439433,0.3898644834715292,0.095040380383556,-0.05897324062266571,-0.26271471508082517,-0.4349056528407091,0.1743939479103911,0.4037319931744049,-0.24195535772508742,-0.18405339023828182,0.3927652872951506,-0.44674249841551394,-0.06585473271060929,0.40788045935196315,-0.1924895319308456,0.2614698771266405,-0.10449302764676313,-0.18661824465812119,0.4573448160267849,-0.00967631058967956,-0.11867456598544672,-0.18878592249527498,-0.044850781912293095,-0.18308500883926968,0.40999809725947994,-0.4781793810719629,0.31060358503077967,0.44851539199334467,0.28523422097162576,-0.09035276443800294,-0.3597625110071696,0.1840166420086215,0.035472877207542775,0.05657969897456743,-0.5007001335362372,-0.23994124606668832,0.26097993485770365,-0.08203724636192236,0.4897389619266481,0.4961611297365537,0.2847702450303893,-0.3188694122771615,-0.33187037507305056,0.0725988384376074,0.4676886204378752,0.3214425895961294,-0.4742180838505775,0.2542573304980801,0.3588930778044535,-0.1155940037785626,-0.43753552782047583,0.15260669857207174,-0.0335257698698937,0.21621208702402953,0.28438085287563686,-0.08070974184148864,0.24664204784074806,-0.20778459750648465,-0.4582928999679419,0.01679986717631402,-0.0583783227622765,0.15517649452713167,0.06042347055021628,0.291050016510453,0.03564295875408182,0.014627325705645981,-0.0714294819667429,-0.3214253743579717,0.3455259630300713,0.1777807562081117,0.009558552567940347,-0.10418220843528793,-0.21970550512395257,-0.15991176188608,0.16780646492977594,0.009777290287291488,0.0013167584683623007,-0.1348655378809037,0.0291665765673629,-0.4915502586041867,0.1927372007727122,-0.37633497425608964,0.33541084053885745,-0.31862535658248403,0.016424380172452846,-0.33511521891929064,0.3650519125602542,0.4613830570222548,-0.06313884504350151,-0.4226748023042096,0.250020932999062,0.43900041601089684,0.19901975453356086,0.3326281023450079,-0.3273553410938259,-0.34125631276455454,-0.45253579656209203,-0.3110125202769752,-0.09893689498587786,0.4663388700801834,0.01098703475819056,-0.02852333994331771,0.17304473885566907,0.05634561895234444,-0.09700333441075201,0.45641833861619585,-0.2975068017839567,0.23989757835554734,0.22660823763635524,0.2717974775227747,0.17281162565641717,0.382171869127059,0.30939992464923166,-0.21865289938851704,0.2969566065770336,-0.12885423474626978,0.02995822347477339,0.2907570572492787,0.03578891356214326,-0.18279822757444228,-0.2685154571479598,-0.040320194634790675,-0.22764931927917184,0.31655788582453587,0.28228096006254905,-0.2931741367444142,-0.28755064135035524,0.07798480656781898,-0.35261458878993945,-0.2908871481863176,-0.4431906646304555,0.15616750927698117,-0.03411806839032834,0.08081750789915473,-0.25189274862163447,0.1877715628212185,0.3369693470765684,-0.2506428146666496,0.2954658300100077,-0.1862138012335763,0.16304625997154823,-0.10497753275030179,-0.4310824271320705,-0.15829327532856738,0.13455322260595426,-0.49708827693159896,0.1925174771611244,-0.08140366840334964,0.19316296238619293,0.09008830678354864,-0.08512081739433974,-0.40408246507564716,-0.1223815393792801,0.11005330619112293,0.03534177713427323,0.14261907088886866,0.49880188352452853,0.08057663656273323,-0.3923876985513015,-0.22337709804243253,0.24131592537099503,0.43755551100246565,-0.0062113951813829215,-0.03624798005429384,0.08795180789341375,0.20568955972157082,-0.31816589433352654,-0.288344447148999,-0.2302743921279755,-0.39439973505009823,-0.06526965032808107,-0.39366279533911963,0.22827512498514213,-0.40914324797869533,0.13347380826837785,0.11293601116371875,0.008221894513428613,0.44213641498387785,-0.23993946133784907,0.1965282416350641,0.24810953001710967,0.2060549927242544,0.34199967126868586,-0.228100831256372,0.1273220257936347,-0.352670406538053,0.3297903818313912,-0.0915598715655307,0.3203821521458124,0.45882439202749864,-0.17285363435094944,-0.16900016606772464,0.3657563729835959,-0.38824657702714044,-0.49919876349130626,0.4962605249759779,0.34294944489697926,-0.39013257490875536,-0.10282421859750274,-0.4745003868778648,-0.18496815425886545,-0.22201800737734742,0.25833766788454593,-0.18173289267042605,-0.24256946763217552,0.3053735674130754,-0.23070811357550716,0.2979520818535158,0.15216771708460483,0.24994380341889483,0.40576387151164073,0.4129420079705713,-0.30262506678153867,0.20010263842697454,-0.13722628046006694,0.22001185839308096,-0.029990872613043236,0.06516017097856966,-0.04324212222256733,-0.46057867868392016,0.09295891705404032,0.11286467238900426,0.38754833847814,0.11673091479137689,0.1051892260647507,-0.07759840010079953,-0.2535652598600779,0.24533911186786017,0.354114145327421,0.36868667248005715,-0.4006219056689607,-0.10157877428417673,0.42641767136508946,-0.4829009061558435,0.12432326952968797,-0.15578969444487592,-0.1923212179117803,-0.4194583791543197,-0.20768256754706999,-0.1257618444300083,0.018109766727252553,-0.312434270185807,0.015973406500126464,-0.13739182447540277,0.4914008018954783,0.2023456706629401,-0.5030657095117445,-0.3596669468579099,-0.4246533298314858,0.364471689611034,-0.08468198498760471,0.45343000607809764,-0.06431334507387727,0.07503506939494561,0.3008440922200244,0.3189116726708288,-0.43385297720929517,0.133476996236788,0.024675320832689068,0.28207565455124334,0.36908367226559546,-0.2056546751922166,0.018601346683796805,-0.36134147041314785,0.16524558266523243,0.4067814551590749,-0.17969029148910032,-0.31147514553591565,-0.2944011148550931,-0.24897848310503384,0.012821539905671551,-0.018593175463974074,-0.21151810278279332,0.324274953511426,0.32778346440485545,-0.09696730690833624,-0.17529924144112477,-0.22548561742573434,-0.1823219315964245,-0.19815771028345733,-0.32270061134804123,0.03498359083369568,0.32967663582212153,0.4491761037742723,0.4513572841186223,0.4314642345279456,-0.21146632959458783,0.30430581686747904,-0.37522267684156757,0.4598478177130064,0.3318294382389709,0.06572202930847569,-0.016894476285828672,-0.3781628735836466,0.4227183780356172,0.4024364264820209,0.3457757543079418,-0.4127672585370685,-0.46591243378353536,-0.3756559084571185,0.26070770814784355,0.41958517221361735,0.27602137937086363,0.30920132015827245,0.11856723023935264,0.20272788196748126,0.11958920376644254,0.11504267867979132,-0.3717014462040706,-0.09593238539426178,0.1377217587877,-0.11902033634846537,-0.27547647726062274,-0.3252461251631685,-0.4406871771599544,-0.09551764216390703,0.14759509127367035,-0.308230080010712,0.14408849271822524,-0.3501175698509143,-0.38499115832571523,-0.4876265390900889,-0.480405864688943,0.24393945911677262,-0.35780527943741414,-0.05054220653965101,-0.4708293976136423,0.44266355413059477,0.04862125643712813,-0.42517443174485253,-0.4114192798333853,-0.05609081944553629,0.4967978672349372,0.39421723069369524,0.3287509889271559,-0.031239261838442757,-0.13716349627657007,-0.31673403535803085,0.11329491268481034,-0.47672533484497315,-0.0933537870283053,-0.004976087244857347,0.4702094363669711,0.06003714077649498,0.15103455979858932,0.1572849795347068,0.3264560122364718,0.32264697479402277,0.24496207699540276,-0.17876514791191628,0.25181928693536126,0.22323497577893492,-0.5018530923031411,-0.28703067807010824,-0.01147040144705147,-0.10956963458843988,-0.08339586702555152,-0.3747254175645085,0.08987268263013694,-0.3766670739571248,0.43367128005374733,0.2518182462362326,0.07152397500277899,0.03640585815776616,-0.36505816767079674,0.02540884094086369,-0.3806577726730209,0.20092543631998952,-0.4986573542008758,0.10948408824878453,0.11835280811444433,-0.09459091256395676,0.26305900612533106,0.46549209301130534,0.07975667922649925,0.03581904744201219,-0.09955721972458195,0.25748354343650515,0.4236511610660878,-0.3429108857029392,-0.019265141253199006,-0.1787546972116328,0.037437807765743694,-0.10861184437695388,-0.22464710785103914,0.44040905710210876,0.2542520363727647,-0.16539866415143248,0.48254860878580136,-0.3479118486168209,-0.18588445399941764,-0.22503427614767507,0.46397372350975136,0.14317987724760867,-0.428535598122428,-0.09235365309324448,0.1342169437757892,0.2918486079626323,-0.4860293558515086,0.4247124073136778,-0.0678835836327646,-0.23682896708456913,-0.15337791732229272,-0.3440096424137519,0.09083569514977971,-0.03493598075033171,-0.16378569115660604,0.05886159876765434,0.4834705188452188,-0.2256543201479622,0.3431917766846996,-0.22499497828042303,0.1508391894915333,0.20329664370891287,0.30389579533288286,-0.40806074972143686,-0.32077204216573657,-0.4619299459833227,0.33574605648270944,-0.10221070504798348,0.1995656134015707,0.46555668033189596,-0.40351589432163,-0.02536457293779396,0.46281333819111714,0.23674679917228159,0.3291949902858927,0.46305336491350124,0.0014106607651895224,0.2216164359611073,0.27130263387515613,0.18817827226358505,0.21924948503072322,0.4711604171974516,-0.04775485745498362,-0.1526930695442072,0.4560795713996795,0.0935197327438426,-0.03950601392990888,-0.24179110496944484,-0.4374595626959862,0.15588759225392695,0.28329633692941847,0.20321730661038614,0.2834223997485986,-0.38285119363542236,0.2478290517747108,0.15715374278543104,0.3882232135721361,0.3869863430901068,0.35546574488418603,-0.34819543889735827,0.17178167874324193,-0.04091773732307803,-0.30321033459221314,0.3507504596237405,0.14032197479333636,-0.03670212612230207,0.11054869300999313,0.3466248041561182,-0.03220800902807186,-0.24170998824561576,0.2459380955481115,-0.4420226399585904,0.2840659861569618,-0.28698664038177407,0.09805136887600949,-0.16543570219565687,0.08724649966997491,0.07972875666155749,-0.11029062831998232,-0.19426570617682587,-0.02244241748462771,0.06307047456001401,0.17628411051099313,0.3560861729918663,0.1986398705912024,-0.03945303260960535,-0.32570635375806645,0.38185653591875907,0.07590640436575131,0.2080777175373733,0.37902258504632913,0.13620334301894535,-0.4123233297070584,-0.2672156295770666,-0.27968899400236275,-0.07186225373068754,-0.35839766999047384,0.33654931427618723,-0.11743188943203185,-0.23932538381996613,-0.23818640777009484,-0.13308368513582053,0.4775351167153417,0.1392162639465687,-0.06353505725471656,-0.2743381141866911,-0.4246606943063889,-0.10154468273365028,0.43006381585853565,0.2864948962097355,-0.05151213249158808,-0.06683544278617667,-0.0376487634887403,0.20413660249088644,0.28308468343502813,0.013045066082343133,-0.07166496609521933,0.4761232495254437,0.3057948733397687,0.28205235108592674,-0.1725817981769961,-0.3568424887487332,0.23458372519880577,-0.2772967689221693,-0.2646436514572777,-0.14621620202401492,-0.2584022274149332,0.02080284694881268,0.022450176675999516,-0.17212389828827687,-0.3957821291225944,-0.0713636362893581,0.2720378808319427,-0.5010457682521284,0.020021260844114777,-0.0945123236255206,0.17821765756857968,-0.19064071423383788,0.4700843535504215,-0.2851080014062079,0.3426849415388134,0.3594876516929174,-0.33015880732203157,-0.03684675967682314,0.29074187966173703,-0.13685247288333696,0.0941899940442456,-0.06293095651861945,0.01260007090858913,0.22365458167469804,-0.39372733677790206,0.21016080100002532,0.38520584627379145,0.04410286820171941,-0.15307049905183978,-0.3033072253694172,-0.04934118339723887,0.316487595356014,0.4739384494005963,0.48398897771582533,-0.3927240759372544,-0.3367907028245682,0.39861152966461333,-0.07166743301870276,0.25503331756749653,-0.033890639208857126,0.46206543545829,-0.4362489171660234,0.3820616482190505,0.3502388179176263,0.38638264009731277,-0.44789977767015154,0.07559437143999945,-0.24849142152665313,-0.05980609128490061,-0.20343830842066452,0.20230516241871774,-0.003708784582189471,-0.46822316348379883,0.22483271323090487,0.38313686113150713,-0.37558597647682634,0.19509145523517185,-0.41233011195963026,0.48993841862352094,-0.1079878365178442,0.180314811284251,-0.0931590158835896,-0.1269983102508013,0.4863616707589806,0.3484892671431497,0.11226534504621347,-0.3104241814100783,0.1403504742029232,0.31394240148013514,0.08172944036034939,0.44429326001299424,-0.3611683954608808,0.28330455485595124,0.07684149728756659,0.3320786731430648,-0.3206920128164754,-0.4768420764019789,-0.1562071649223149,-0.18237837790540556,-0.015167420685071629,0.0651797708506701,0.016432524190292393,0.045890727078861514,-0.39060206348769344,0.19032607043406766,-0.33352750487218163,0.20136507415660942,0.42162462999395084,-0.11914775814368296,-0.3297696576995169,-0.1369756511271757,0.4613987904784634,0.128877203619446,0.3558911288345811,-0.40556310445638794,-0.41258615091410217,-0.09487015039386082,-0.26537194162699446,0.38185661123560766,0.04836674454641863,0.21510921573411676,-0.23483202684437995,0.23644042273951046,-0.44115364043848737,-0.4109217603044268,-0.34630027442070693,-0.45700934375064095,0.46186555887429,