{"network":{"layers":[{"layer_type":"conv","input_size":{"X":448,"Y":448,"Z":1},"parameters":{"stride":1,"kernel_size":3,"pooling_type":"","zero_padding_type":""},"weights":[{"data":[4.4096496495716275,3.649045971166238,3.346892681733467,4.113453733749265,3.9642350578351033,2.244670682546997,4.930058897219741,3.776235453971703,2.316330973779734]}],"output_size":null},{"layer_type":"relu","input_size":{"X":446,"Y":446,"Z":1},"parameters":null,"weights":null,"output_size":null},{"layer_type":"pool","input_size":{"X":446,"Y":446,"Z":1},"parameters":{"stride":2,"kernel_size":2,"pooling_type":"max","zero_padding_type":"valid"},"weights":null,"output_size":null},{"layer_type":"fc","input_size":{"X":223,"Y":223,"Z":1},"parameters":null,"weights":[{"data":[0.07871063137479323,0.3912539175535941,-0.17902932460876755,0.38605406660936775,0.45977629799601116,0.045699534428261954,-0.08211364188752997,0.1454410941281204,-0.3131870923403607,-0.2780628115674462,0.4817992535532937,0.08077681706177901,-0.14772463572408331,-0.22039806885960508,-0.015008604019467601,0.17018899415822084,0.44025924638402264,0.23561318491550037,-0.10396926254931242,-0.47024300874614644,-0.44085660440481605,0.39439774285355667,0.15553688452237283,0.032248015172071334,0.3912185566316001,0.39624121264583656,-0.12580897938156643,0.2803009466556269,0.3594576313549861,-0.16265819279124813,-0.012191833747466707,0.22120015668131876,-0.47489110166907467,-0.34219815735436876,-0.399760044609989,0.011629788200233564,-0.3073958429982071,-0.3205175596591951,-0.22367405319578448,0.26457697965342386,0.051090497664905525,0.44942655807722914,-0.4614830379133887,-0.09139526875695562,0.11503710516230214,0.14241269733631995,0.48427243417423954,-0.2274900203145469,0.3303900408904749,0.2908443509105064,0.40853915294535875,0.2573550049934214,-0.4605544368596958,-0.043210254423033674,0.4743143575823306,-0.38637540508589185,-0.2616906946350192,0.31744621638141246,-0.42235135672727325,0.011316067957835425,0.052714975048630604,-0.20687044018779793,0.20921465602955344,-0.03745320260773263,-0.14077958833898216,-0.1296853787806506,0.3081556798965609,0.16729355633132273,0.20433493238551298,0.477006784588424,0.13768946139334864,-0.13451875449092698,0.25560660851156486,-0.44702179092415606,-0.4757573711694409,-0.1188460920838138,-0.050564082191441186,-0.44151537819522496,-0.4902262629909845,-0.2874555673367253,0.25164102190976745,0.1883652333015661,-0.1213111696974653,-0.4473845520786709,-0.26640525272724586,0.214615995883275,-0.07807142842665798,-0.2137558282431902,0.424393168861146,0.08256863446803783,-0.11334072727555994,0.005043741080008754,-0.26611325718707557,-0.39858033549233407,0.3707556710059051,0.3994439102931663,-0.34221165814372334,-0.16496411028336327,0.34977105078587256,0.4550618382723149,0.15586183770575912,0.09849213039958551,0.26910158918759175,-0.24247406490806803,0.02799249312311266,-0.148658040475971,-0.09006612960592036,-0.19849871800492902,0.40317354069931893,0.0033912444445018046,0.4676963172063825,-0.30679463868061674,-0.03962417702866162,-0.009755200471398958,0.13388753791455513,-0.017506469314529705,0.22707185688423398,-0.10836170373936707,-0.4047084465537043,-0.06139534626053247,-0.38663720990252937,0.32753027812894303,0.06930873891942722,-0.3237400193066918,0.45315056559485734,0.2642918581200998,0.35845408171487186,-0.508496351179273,0.007125554096056428,0.11858706293394017,0.4186378264932433,-0.16480140098208224,0.237281632516134,-0.18307552273530114,-0.1688344505282199,0.18200186294048015,-0.06586239107511078,0.37428269703389894,0.301343313025817,-0.48399877873438296,0.20124458795627706,0.468275292285544,0.1155944739658553,-0.05508126577513629,0.3428717802201111,0.21868141912532432,0.27884237565906617,0.2088914227826905,0.4516937044509827,0.36884025008085786,0.08900194979555838,0.4806993904290471,-0.1264259466303071,-0.17365604379881208,-0.40961472509421437,0.3811116703740636,-0.0008588782493483325,0.15762632522873155,-0.46564645993347104,0.09227030836149815,0.3624961986913971,0.3576210535524458,-0.055563546413565194,0.2927670458407424,-0.4029650897159818,0.027924894497930924,-0.10445037014760238,0.13378281851467672,0.07833722485783014,0.25981802810771387,-0.47138473801716985,0.29014352017066813,0.17377389211467367,-0.37156715602091894,-0.262601999341667,0.1373311525918812,-0.1310300284400239,0.33212621033622924,0.04807410192609811,0.47914033833329395,0.46751726006949934,-0.0869516345994853,-0.061455631502707594,0.4808944698799815,0.41027862673826504,0.26554472361535,0.3466182990240265,-0.11234054551336176,-0.12691605525895153,-0.025879193685065773,-0.48240125560653485,-0.3749740706226191,0.28815204676352446,-0.275661572811696,-0.3203805931228787,-0.3469328630090848,0.14273484922761406,-0.43154546962261664,-0.2811857020781456,0.1348049320667644,-0.04878712486262804,0.4402811664868067,-0.4289606460940016,-0.06168121491619043,-0.391940459804159,0.05154249840989306,-0.36532929516990026,0.005068489697680385,0.37428368135623025,0.35925734522913405,-0.4293044077660422,0.21235641867828678,-0.21365001103347434,-0.3974194035650908,0.08602828689120562,0.06907615856697565,0.37316357579578147,0.4426674576228426,0.04366461206389031,-0.2444850463438037,-0.028893537742898472,0.2769198034107216,-0.43857101950940786,0.29230927482379676,-0.2293381546037035,-0.29371861079801964,-0.3548202062685516,0.40957060180850746,0.40295998810664296,-0.17047783689358292,-0.3349587185757782,0.1203640312021673,-0.3308608889283215,0.14780745128255232,-0.09933927892927055,0.04119283103054557,-0.20855830410857112,0.1584879449373749,-0.2521535545558059,0.4161699153222875,-0.36600765805734886,0.3026331915733807,0.1663460636052662,0.06431596614348778,-0.17816025334372926,0.2318435368075863,0.22453935648465934,-0.10852489813127066,-0.31217990955545544,0.11121524152763644,0.2473248047822195,-0.34842722898059836,-0.035194210929644906,-0.20179854629258562,-0.08748913794882945,-0.39022423976296616,0.36194070595434036,0.2974357621736716,0.24034052985334656,-0.2845359945693274,-0.1770789153669619,-0.1891877710377003,0.038167776502376516,0.08055409680537651,-0.06020482237291506,0.18417952230399956,0.0011937863814927173,-0.35570709616984575,0.1380194359332045,-0.27904734819637467,-0.11316392854638184,0.2278373108903695,-0.04624829419744891,0.2123556704886985,0.34939926408459393,-0.0016607224092534529,0.1938378354307592,-0.1852877656886633,0.1608389209200015,-0.15115897105057666,0.2574042099901075,0.42010279707115056,-0.46355312877369503,0.06701262972965581,0.3820154900990411,0.02739733426389056,-0.36164455184822814,-0.28248007725382507,0.2881351971922196,-0.3295525242796233,-0.3264330221555217,0.14587060658337322,-0.3874656101911842,-0.2775390306244668,-0.34537681465471237,-0.20964522108198935,-0.48137088470576656,0.09482892162445279,0.2594569938330961,0.16511500214211966,0.21650893303944713,0.024877884865037437,0.02102329843658512,-0.037870963187543134,-0.13455564231006378,-0.25303548485984423,0.1469764372008433,0.19096114908747971,-0.4189308612499407,-0.41848867555097075,-0.19539838696237738,-0.18731345481759334,-0.20353933295991633,0.31730196639245,-0.38584643894754056,-0.31056912242764745,0.3321434750248312,-0.5023175091105878,-0.26660390652915483,-0.22281434877908543,0.3861734822705162,-0.2006365817960754,-0.4960019421072268,-0.04882883163547168,-0.43596972688193664,-0.07699182733110115,-0.4111463844652355,-0.3399813409280873,-0.0652943856469507,-0.305801557547944,-0.09802008346519715,0.16560305193372493,-0.23350740881634074,0.37436739932326535,0.27795604225556936,0.28082230323803875,-0.397576693204596,0.0682442892780703,0.12695007254058788,-0.13295528377713345,0.16843965828010082,-0.4046008461619367,-0.004029449379065585,-0.03256448491137605,-0.5090621847636975,0.2027126044501057,-0.4945072905420621,0.07350290086972482,-0.5045050851717598,0.2648678849955233,-0.3570469240284116,-0.3176442719861083,0.2281331278535674,-0.021134847635743113,-0.44768356698090034,0.11274800805299315,0.32871579194632317,0.2530420740627025,0.08000119897211953,-0.277970744603324,-0.4785531289222443,-0.5151124611696942,-0.21524262843082087,0.22120737700154508,-0.17051871637686447,-0.1350897008596212,0.466213741580401,-0.09198152589446121,0.04328857631503449,0.29780606238833557,-0.20280567733514754,0.3683490236481375,-0.2800524558886254,-0.2513474314977615,-0.4303655942310771,-0.15268549188737524,-0.3053791558104912,-0.25860022601434124,0.25072456879920796,0.3947314390096848,0.09496848479666437,0.3823226976454272,0.10269630142644627,0.12107720285625302,0.10290095844021159,0.19821484810745715,-0.08214580561100075,0.00014796735376472296,0.39413967034825714,-0.10248787425230023,-0.3004598830029422,-0.45937197733316476,-0.3288954697383844,-0.2419029822799505,-0.25112866485906704,0.1407125424090753,-0.019465374091602296,0.26858169365826173,0.3127682532532842,0.35755695015990885,-0.26234271872434267,-0.21150836900282602,-0.3390781528260395,0.3891258630233161,-0.21172425739324888,0.0637609975260172,-0.296351975599227,-0.4421326224936876,0.33166235176658704,0.01811006937729873,0.18827595519184578,0.02096574803360728,-0.06851640775281405,-0.1630959761434639,-0.12653235290302897,0.34581088694036627,0.38617733853436004,-0.03994454207871492,-0.37421830786345955,0.38997924214824703,0.053154470517037,0.4582984064085081,-0.0571612155665757,-0.08945623891573268,0.23446689476925922,0.02199128770082207,0.37055007832889336,0.016993181975423686,0.03624868374597005,0.16323494433997024,0.4696124728866742,-0.13018543226113452,-0.12236016166021574,-0.40947580946056367,-0.3806647727120884,-0.39308494485596235,-0.16381440331517833,0.21153382965489775,-0.4635028549058908,-0.04736630517789008,0.3850993796714398,-0.3573562838147708,-0.09521604189590369,0.049991745615505866,0.31946430868606196,0.04352843537911651,0.4285087127010948,-0.007008239200304633,-0.4014593935460634,0.4534320912249696,-0.34759244505880776,-0.4535507389456565,-0.3250091937088225,0.36393684962337763,0.39565081344056,-0.44518964467642635,-0.42950442740820416,-0.03628340068550585,0.41037324708400436,-0.044231669904436714,0.05510669424846116,-0.468272919391254,0.3033226665854139,-0.2792851096697389,0.08403715758758583,0.2364083938423972,0.20045899812995355,0.4664504430188077,0.21785894160645675,0.01119164856295681,0.49058482669396947,-0.12313446196167972,0.172293771126477,-0.3466674569743432,0.2084461144038039,-0.33544155087375793,-0.30858994308261034,-0.28345523809611406,-0.49746925844126166,0.41538414655725986,0.1729840811495087,-0.20209992235278712,-0.2732801212370524,-0.49751160954781193,-0.0642590756954932,0.1025580540510267,-0.04489894731094412,0.42502165336257164,-0.3331868491413315,0.2225202073422693,0.2182672196331966,0.20108209793991302,0.2037691792339019,-0.36203647582238213,-0.2961514708224208,0.09056188395678884,0.28171968130359143,0.26483085784144317,-0.4346493690058016,0.32709389917335596,-0.07985934861955592,-0.22065715510418726,0.45062114222646993,-0.3841057028552529,0.2127907250218881,-0.08615964558111418,0.268823896979261,0.2809366983432999,0.42945961155322543,0.46301511472009343,-0.0896119852828551,-0.14002541642464345,0.28659165107599344,0.0972315087574337,0.2051448487546791,-0.3087276685475373,0.1954854552622185,0.1896802949843428,-0.21737601252127967,0.2564031907573846,0.015721434831841262,0.3343072216356439,-0.043386683433215216,0.3848081822260312,0.3650875027278027,-0.386242934394287,0.3419407352304986,-0.34267704671511523,-0.03971214393586317,-0.4587952019319887,0.323006144155412,0.10142870486428904,0.13146708774059293,-0.12218426306514768,-0.10446003498156707,-0.3828045148881587,-0.2946167512775972,0.28281196143024867,-0.22691600966445977,0.23228002820847765,-0.05780927336771409,0.24871358310679856,-0.05288691387414626,-0.40203083436962267,-0.12873229369774927,-0.12383578922922191,-0.17257044936877697,-0.15147387869171525,0.49061589508778214,0.42133918878882465,0.3380245699156215,-0.47416199936314785,-0.38519706467473663,-0.3117119619137133,-0.03964983127605055,-0.11438329036005139,-0.45765857937909327,0.37972602333542643,0.11595466331173586,-0.4783002807421198,-0.25522207401224506,-0.5244517430796027,0.24097274235793795,0.017420877930015753,-0.45748107660269216,-0.31944890802188597,-0.11899235490523519,0.3978926577983932,-0.3238947557230442,-0.47597947748173514,0.41968448424734367,-0.28025091109667155,0.2503365445058726,0.36078512965524573,0.06810957179289134,0.3317387490621474,0.08215273779316089,0.44098586966156633,0.1126368113838371,-0.0945552797623456,0.23535008784787204,0.4712525256912095,0.3590373503888675,-0.2371827262319365,-0.11611603353316131,-0.011472085987453891,0.05567797148264554,0.05648442293971261,-0.25262559878901386,0.273771214485178,-0.004477499485204747,0.02708491903957171,-0.25794365018621407,0.0043056089371474445,-0.41430671000144315,-0.007873454776502859,-0.2082502989269263,0.10060840837660769,-0.023049783449926975,-0.25473248469417464,-0.4507993919032027,-0.011998258400861744,0.43790239424048677,0.004456466963151221,-0.10822154055948349,0.4203847609473519,-0.3277780405242462,-0.13532461852845318,0.18178084922291504,-0.064835789260276,-0.03166796332803826,0.1027924317054936,0.43025561362731035,-0.39499296150077845,0.2605012788108681,0.2030006047428096,0.2109904345808488,0.4962855119527529,-0.19260911319071897,-0.11853103189594213,0.37678030134179247,0.004432037567717826,-0.040579033627605864,-0.39243259691122745,0.4427188350654714,-0.35079664148429446,0.03364852614720653,-0.3642978799858259,0.03064725982604,0.007337055206810882,-0.19305272512691796,-0.008652641955636432,-0.3628894504894252,-0.08757050113791479,0.2798036514467417,-0.3429837291608723,-0.4322445772902727,0.323215478359664,-0.40981171585410614,0.4944321904821682,0.06883406497422133,0.14657284432275705,-0.1877272784337343,-0.00821980176431988,-0.44939428125194913,-0.0008138302343209615,-0.4845423727499134,0.12318426128139093,-0.20105707579762616,-0.26485089940473017,0.1516924404907997,-0.1327599469295115,0.038377248707535026,0.0804740314152632,-0.3439626184403088,-0.06583318958027164,-0.08724321099985717,0.012275346802155227,-0.0435949125657429,-0.04202118997019396,0.45712623118044965,0.3686425670103317,0.011306582675855752,-0.06198071496997676,0.3582442510835589,-0.25106768282860753,0.26962124942968285,0.3016381474385747,0.43394628698483345,-0.3096796370314862,-0.26852202400967534,-0.3274305479250922,-0.2717692294699325,-0.4548631811264611,0.45601806621512436,0.3651080986050041,0.3664452114544528,0.4263145130466379,0.4295501162155141,0.4596405895540355,-0.3884815485470491,0.35632948453097474,0.39954656017347784,-0.36193140616532377,0.08020503822197189,-0.05735944047862748,0.05099941340443584,-0.373200119313113,0.03618393358494138,-0.232898857674354,0.014763723863074047,-0.13818619345347802,0.10761833005931663,0.4780769952374426,-0.2525299465477685,-0.12977805238711823,0.49591462136975606,-0.3759635017987809,-0.4697784489843084,-0.3922272595135255,0.12163216868922706,-0.09019458255612976,0.06533638560660655,-0.36923834891096696,0.20870261007867535,-0.26868633546054843,-0.4506308640136599,0.27876500463467435,0.20884422753400822,-0.39108065803730474,0.47292100077345367,0.06807461986839894,0.30718892989167107,-0.20126417741292402,-0.05193400345619916,-0.18829323411098092,-0.4436248974601725,0.2900828602849674,0.23959257681730045,-0.10780248558992574,0.4868334825900112,0.23619880402189722,-0.05985184878209609,0.38456721083980977,-0.05562597903448844,-0.22218113239295392,-0.18881567265859253,-0.48085632247842974,0.3937963150062632,0.15174790433445223,0.15221405348620268,0.3770909044138175,-0.26515315320148936,-0.07174135053985956,-0.4623064245370446,-0.17525507721125114,0.35267646848137246,0.015402892626388926,-0.4160028416675468,-0.05021419007045147,-0.2053025050656172,-0.4410302402283042,-0.29834011287082957,-0.06795341457344888,-0.2434253209094089,-0.022294200346481448,-0.32719020726921416,-0.08798151312060973,-0.36429662158807874,0.3099920691176341,0.16257000060322674,0.347216959037074,0.13533613610907483,-0.04746300345400209,-0.4924758219547962,-0.3212155587761708,0.37091854547760084,-0.475923872686806,0.08367302509806751,0.32912821716069546,-0.2487421868898908,-0.24331407728193333,0.10296941183892827,-0.28349498886294044,-0.14256854332577404,0.235756674254779,0.22922052641713386,-0.4352623054929439,-0.05427581919743328,-0.275126887505008,0.05380365214605516,-0.34571837076682876,-0.1570704565023935,0.29774110049339564,0.3919513943193891,0.006106654366464733,0.3525554431395493,0.2176271916288957,-0.3198130980372382,-0.08095772607907213,0.38527217205637665,-0.3579157400851314,0.07588668713568675,0.25449231521973775,-0.33290466663265944,-0.18984808728769648,0.05271186898309117,0.1491100186839776,0.08077508711403977,-0.3894773862775122,0.14822760243791558,-0.3288211743872113,0.0005963378973656823,-0.15864297856256654,-0.2986069726071728,0.3089615822777253,-0.16154804269128578,0.3618718056722612,-0.2824791026181401,0.1081642667638578,-0.13997762470453412,0.11882695256389895,-0.3270859961295643,-0.05619290692086533,0.14686955275062127,0.3262603295049043,-0.5116719250172785,0.3230040329729044,-0.46621571311770155,-0.24726512337741405,-0.30237560636223054,-0.14029130878688567,-0.23276470606856275,0.06410646305366208,-0.2525176227371818,-0.18156368225772992,0.45673091962136814,-0.05877936749804669,-0.41104211906725907,0.11430738032492913,-0.047914785127587754,0.07746146511402716,-0.008707227139446739,0.21430220680780415,0.4743681189233223,0.16755248735306932,-0.04404061871216413,0.44632002179386193,-0.320380509954532,-0.3765187893152001,0.19341932878754495,0.4088379999739864,-0.24834542561300166,-0.08481102723306193,0.41078028282960205,0.16934347512111347,0.3719524814193193,-0.26748954317583507,0.3256929829754065,0.0753741310096626,0.07193068905268778,0.10365765971456949,0.09220092826125717,-0.2623465029835732,0.4036210223351663,-0.476197526849726,0.30269300430398804,0.22849549062472588,0.1613443890937461,-0.22420134247947998,0.03212736246545098,0.46054337592115463,-0.33687413682410594,-0.014232564981307236,-0.11042610100058263,-0.4258411918535479,0.4009869838779344,-0.34274269478192076,0.16453795498111884,-0.458902794144903,0.3720816576513648,0.17311465500609036,0.3924149570688906,-0.13741890738856521,-0.17156419012020271,0.48600640131624406,0.22347931253796216,-0.08759224051895724,0.30607828176747676,0.33273022954444714,-0.31601988385684704,0.41935491273427145,0.4318564520537663,0.05247641145058884,0.13417694109065006,0.07756627216327812,0.22702732084986507,0.28025397506588756,0.14978342330595207,0.12779872028368588,-0.42111226817698694,0.033017688914039986,0.4351848815214726,-0.3366392692454033,0.41866520787489936,0.09230156567001545,-0.044955807045503414,0.019105144724087055,0.12432485945353741,0.2486665997884875,0.06437125362757065,-0.3094971217035028,0.40996833990641934,-0.4839840640028546,0.2230196429509345,-0.25152355821531563,-0.2210968554937842,-0.38264776714051696,0.296208171821105,0.1470830651161614,-0.1409469215219903,0.18616043413813171,0.29865991451847834,-0.17313965080419286,-0.41229977066006895,0.39815155242810346,-0.42072781193437875,-0.0017945473996458462,0.1840151695967245,0.09096907446780403,-0.2124403172223723,-0.04205361047463133,-0.25658484704664725,-0.282088824497824,-0.160013223302452,-0.10401524248262375,0.07581877122828973,-0.14234934995518492,0.3145381127462528,-0.1854169200508017,-0.05687756166907447,-0.0841877607226624,-0.07260138056295704,-0.01332042309684048,-0.13222932548200925,0.2747594076340829,0.36096553105517576,-0.4541062594460552,0.23718849966664204,-0.07989903947450824,0.46634988584316434,0.023586760400517496,0.38433799403794805,-0.45046228141892236,-0.4683737543842037,0.4488039906354229,0.13557967097064824,-0.23670114086807373,0.41827641868341614,-0.4581583887794384,0.18379780473137824,0.22141185574966482,0.48173707139402566,-0.15346253098662596,0.25529454971069054,0.37164899319579714,-0.06886967163443856,0.14392558722594156,0.4813045796559634,-0.1169994337841694,-0.08424037712735587,0.44427995094641726,0.18652001288315184,-0.35900819911256965,-0.04595545667479038,0.41961170722338825,0.42763164309421314,0.24767098921259653,0.14946554225710937,-0.19622425129337437,0.1299974186085536,0.11204084053651336,0.40274004249577106,-0.13442515011067624,-0.36439685034696373,-0.29349612161046534,-0.2825358574196274,-0.21591309890721944,-0.1310542710278012,-0.20757889819276137,0.35304458329929606,-0.1362136818318242,-0.02431982107501088,0.08965091086296316,0.31935283139000475,-0.3900468418419743,0.4293994554583481,-0.49437699002163654,-0.400035517297714,-0.23080445282145462,-0.473806862270181,0.277917038087744,-0.043936137247561985,-0.33275086661047376,0.308117214115425,0.05627129981795423,-0.3077039303205186,-0.4583687906488862,-0.3080279882625411,0.15729679375838088,-0.09189088402389228,-0.16542514958348994,-0.42319349867709777,-0.1134553791732292,-0.2856166156897497,-0.19051678168540112,-0.24254118306000524,0.11921863538787378,-0.20602105238153923,-0.042853203513748224,-0.24618735637427508,-0.3801260904321699,-0.22938805456085457,-0.38854150205567467,0.12412265552082745,-0.4738549040162429,-0.23480804811523714,-0.24536034150704103,0.09193735135763428,-0.5079495717318835,-0.11770103473480681,-0.15085427344660332,-0.5091407006726567,-0.024745696741211843,-0.4055405772786238,-0.48890500209632504,0.4281678250851556,0.4233041323442626,-0.5224509127687422,0.08419935664218371,0.22817971084219943,-0.011855189379873279,0.13487883385039867,0.028954417855774236,-0.21305676893069875,0.24077391121851785,-0.17688689723649803,0.041723090686556205,-0.3823476620991152,-0.20540438929926222,-0.08605781671644486,-0.20481349964745527,-0.17259239237121254,-0.4021976477732088,0.24987543404136817,-0.3852945735317958,0.35629701775380634,-0.19260863063691033,-0.406166436787695,-0.3988848335463096,-0.345280226151893,0.06552029287730737,-0.16804300992687254,0.39284820012892396,0.37292692055963156,-0.10936652800223835,-0.23245781774104832,0.29749242572841533,0.17097079045416472,-0.22014086878425557,-0.2092592398184258,-0.47733614603016183,0.4853072262746165,0.33722673901879274,0.1592993035285858,0.19843421544996814,0.23186101323558483,-0.156081575972339,-0.11974356577114861,0.25066031618771745,0.03639624786162493,0.000023659483710224847,-0.3111076717275061,0.24097964741856298,0.15648740881710327,-0.06727299308702304,0.31908253521110214,0.2785062479630747,0.3626590468619063,-0.3366822647792369,-0.3953089198747254,0.32418214419936997,-0.1320099996518694,-0.41606743833888815,0.10841515619718727,0.41447761145168505,0.479619090800586,0.1633708982372263,-0.2702774970212928,0.18724391972208004,-0.496764903833062,0.2690993682660306,-0.05584376262748041,-0.08448889866257143,0.10059838921017773,-0.21025347236097824,-0.004192116486298762,0.430440980307281,0.12304900813729569,-0.31225590560101246,-0.05255339824423393,0.027344136479880887,-0.2802936133823056,0.40959311254976344,0.004639437436444589,0.16012540758507368,-0.06137531856562857,0.19442289064498192,-0.12975840552054088,-0.3386644103312636,-0.41410209316197083,-0.11438498973217887,0.21554475278124602,-0.023477418230473626,0.17485124242812655,-0.1819679271765885,-0.2569708036115017,-0.1685466841562885,0.449339772726506,0.3232038321531585,-0.15119925285921323,0.03893869002977947,0.48970576642258545,-0.15882036386339732,-0.11500284510842293,0.02276088862189992,-0.29852131357201983,-0.1850078667601376,-0.11525767320748839,0.0902323085924772,-0.17314878872923586,-0.13231975818357788,-0.03204820572929825,-0.271503656311193,0.1509643572034691,-0.05340764293379876,-0.2566621544766888,0.4067129275115432,0.41042678180316317,-0.1406713685831468,-0.4564420493249688,0.03153202077990353,-0.34324056686774623,0.21583571371114094,0.3319458969965443,-0.14497788279851595,-0.09362684972335428,-0.3455658142436677,0.09066135156789143,-0.14216250400686328,0.29283954074498436,-0.29504992440249006,0.45329113668031573,-0.10725663603804117,0.2053700747792381,-0.29189693964798386,-0.21159374107463222,-0.41982870379111603,-0.1698398287881445,-0.3218862764073338,0.38221534749804553,-0.4757594555984202,-0.4927599841932696,-0.09015104722184522,0.38511113411144837,0.4289563604804557,-0.41221485858450574,0.26182732246169516,0.12595817529818756,0.08072314322874577,0.22133827037026269,-0.3987310036541987,-0.34633822860978186,0.12807543224879492,-0.4068855519405018,0.04940646180198565,-0.4373836894891763,0.49396058755716804,-0.24958895148349228,-0.45379008244631525,0.16069321052759952,0.3643247883416392,0.35305957482583966,0.2659653548574171,0.110902588921692,-0.49774647964016455,-0.12160927064145172,-0.4658509902917062,-0.3565072562356541,0.35528914019684094,-0.11517328978867522,-0.22139180622201693,-0.050469546620648724,0.39642648402191116,-0.0746364620464887,0.382265101864699,0.14933982136634408,-0.3987169184503315,-0.10617211815246236,-0.03834314373098021,0.14692443158721794,-0.2760479852115063,0.32670691950664665,-0.48164418126049946,0.48859816448478843,0.18662654848902197,-0.23223055513378527,0.3666123412453735,-0.1964126762861052,-0.3952060095255383,0.05212071217921062,0.3248176474284778,0.4128934727691607,-0.2417840487210527,-0.3758021558379547,-0.1384343080739121,-0.2051173492788536,-0.42022271357001395,-0.06508710263124257,0.0721372359684586,0.2659749528653513,-0.19218779526994081,0.45352231219795286,0.3418669328373306,-0.4337206274033034,0.14188937920490327,0.2593554248357691,-0.30025737380724016,-0.050108964948258346,-0.16179883122531108,0.227276837665985,0.22063133521437192,-0.4343835745379713,-0.3934599590256821,0.4196364772771009,0.47329594981241974,0.0023170704403260127,-0.19031468629691473,-0.0973425863476735,-0.13528775554783712,0.3321856810487723,0.06854631786712491,-0.07205226923061397,-0.3626208383189344,0.2201736578986304,-0.09466181140355628,0.34493484581885053,-0.08581613943243507,0.16969405606833837,-0.17310579274006174,0.16811486597657185,-0.3807162938002557,-0.07947908974000471,0.3911043769042379,-0.3424898445259761,0.0367743959735138,0.057216342125128786,-0.1375978482303012,0.23097803185036234,-0.2834605872234409,-0.027137546258881883,-0.3732424307434695,0.2465723477826266,-0.477595655922885,-0.11765167676026934,0.23536542427142462,-0.1178626895938582,-0.061747811408900545,0.39947866786447844,0.2052319814878003,0.09757486157958209,-0.17411813384468616,-0.42524556934803964,0.31176929188671443,0.3484587474014555,0.04423265906663662,0.360413046090907,-0.3079179936847479,-0.2982692978573097,0.2925147518421534,-0.4186655862554382,-0.32393955757875376,0.23057398224821532,-0.45382327711981313,0.4434294606142074,-0.27444312764920153,-0.1781039293725067,0.37607934064791304,-0.280920457177526,0.013629731373103379,-0.1785702632262627,0.06928876116799859,0.3792540579085423,-0.22901277414649832,-0.20139434005237694,0.4431151696287652,-0.041995644969417434,-0.2715118989804445,0.39079188520802094,0.3514988650749765,-0.41529492538393686,0.08050926664460299,-0.4515800129234696,-0.1983467659827373,0.13767476690895428,-0.3063394768628139,0.3178635804826182,0.32438338021644453,-0.3744597630214753,0.4530926179289623,0.04177346968503953,-0.11211370518079883,0.18761383169485552,-0.06579000497873551,-0.05479240326621404,-0.11581660765938602,-0.2673039704877955,-0.10145045019308792,0.05215933516578186,-0.05171966711306114,-0.038587997357408546,0.31894467145057853,-0.15858333401672584,-0.29177763610134183,-0.15173252176070576,-0.4561002730008855,-0.4954958016945914,0.34810505718930457,0.46086255709790896,-0.4232100462673126,-0.4017772293595708,-0.37898501397236617,0.09354458923269439,-0.15088632779693653,0.31474452321182383,0.2268976108184478,-0.2687720722946468,0.14765655459976199,-0.06376273661671522,-0.32605704991682527,-0.26990758189413194,0.3266014791395505,-0.46962642125605375,0.3491246288921972,0.02073880721460412,-0.41575020515064437,-0.10573715990301355,-0.1897632507345841,-0.18883739304659466,-0.4449243087197824,-0.2919388514573932,0.40177034443075005,-0.010526157388939705,0.4589594078621648,-0.15881915621284232,-0.04664841654462673,0.03512844915340824,0.40452272844229614,0.47499346203219645,-0.31749955208694947,-0.4025354547855289,-0.011586566160826327,-0.33280984220656396,-0.32142284917073494,-0.3161046151600409,0.08253624596334369,-0.2720732960622686,-0.23405576651648527,-0.3600154024720211,-0.36555258797495416,-0.11348199313853352,0.13415890567557937,-0.12957517679216504,-0.17741063394682102,0.05573562437010822,0.3071618556397428,0.24230014540686065,0.25977338330279665,0.4208166722141615,-0.45450043162145104,0.4148952155258935,0.23201876494970156,0.40252703724115846,0.3191151066227035,-0.045301915678660515,-0.3335339642214093,0.20541377746219683,-0.2650082169476693,-0.01757641944932264,0.10005395625477478,-0.3508471516582846,0.3645204698589004,-0.14567175013940983,-0.2733287413442582,-0.2175561251147823,-0.304374816812498,0.28567829846140047,-0.20375554143392532,0.19049468894065813,0.3028883416231222,-0.4047190103484206,0.07778531490010246,0.4258578726449596,0.4042980806869481,-0.45868594120227696,-0.4267373858057402,-0.13646721144343457,-0.17758920554359414,0.14046836927474862,0.26658116004867793,-0.22941177802461718,-0.36575669593687754,-0.3095434796702544,-0.09596677874962145,-0.08420182474578425,-0.10335714441644939,-0.15327138862254047,-0.28470350018691,0.49629812148413704,0.10229131212540048,0.12245573829188977,-0.23727049836228434,-0.2902608355082735,0.30681275362950244,-0.44617797486691757,-0.48741421203793645,0.17072270513510684,0.4278341340025872,0.09049047757045901,0.07369815380905052,0.1584513530838264,0.08493936680881302,0.0006641828458639518,0.3408341565303062,-0.03303514032577077,-0.4037780031971529,-0.4758937199966456,-0.16284572206093587,0.005819322948377278,0.07815002872787216,-0.025027679587792586,0.09978794360360081,-0.2558490956765784,-0.3330206781306551,-0.4688510262300021,-0.1891414886462934,0.22611826808032337,0.2623191753215048,-0.06538965335883493,-0.20793960870584094,-0.11289306802677722,-0.36115025030900616,0.193362320992992,0.0102416346978588,-0.42630216579100066,0.15532331508713595,-0.18300719158042167,-0.3431319160382349,0.07851680241048722,0.4422015074098036,-0.2588331501729121,-0.4851943443917977,0.34632792733837753,-0.34646999546546947,-0.5282144398889715,-0.4255363280767282,-0.36466602166578993,0.41985375576682266,0.30206482890351716,0.2731258634785516,0.04711284156125624,0.24332031289905412,-0.0044128750874280216,0.006543171002985259,-0.1604416910093776,-0.04948436528436157,-0.4808642405932927,0.32016235092446016,-0.180112938102265,-0.3784310099918897,-0.30835356112766704,0.09696242846049062,-0.4440203587328068,-0.2594328668905443,-0.2972833803791465,0.18665540167207298,-0.43803016733208694,-0.21894507943922953,-0.24477938687344433,-0.29666506808901616,0.11165795134764432,-0.44957773568495607,-0.37218922329772136,-0.030574950867408867,-0.4354743352411561,0.08597558614304,-0.03754996895781991,-0.3502325870592804,-0.3132665904124403,0.21330480218797157,-0.1140768043871987,-0.10750422395702518,0.45349770418174135,-0.2958968157806838,-0.2389582698731534,0.21042363208778872,0.375487205364574,0.004843186111426674,-0.31565636625490007,-0.06750278333173793,-0.15297311907683067,-0.35224486947599654,0.1364338608908748,-0.36459828254071763,0.21054038706190942,-0.24981904275482125,0.31187639550040736,-0.3920460960407525,-0.3792943986093347,0.173153309055657,0.27088787384516555,0.28754748655308887,-0.24470910956469927,0.27843490773536095,0.14866453189480736,-0.36452269349856453,0.01403911146486714,-0.022662665758307225,-0.4737448346054462,0.3307029955875117,0.1094830715603782,-0.3998709135656072,0.1414758754649513,-0.42278329029821443,0.012434986714039841,0.08769531618213891,-0.13865081067888196,0.3490883426902701,-0.3249654765060542,0.3339445117448636,0.45140696057548313,-0.20375507235308413,0.009692370710128673,-0.012479472662974509,-0.1009929306747433,0.33339507272388963,-0.2532590621959488,0.3238418922471071,-0.4268726661875804,0.2496467199820974,-0.25484692545778725,-0.2633433232073044,0.2442859023162019,0.2197466323385139,-0.05781399682942724,0.15165841695303617,-0.409204136782187,0.13003374483985317,0.44977520721168357,-0.19376226665294555,-0.27512143875296713,0.4770514353241362,-0.11280024450420897,0.2541528506384978,-0.2849181054603403,0.36239980632876384,0.15548904939157993,0.21588308439102136,0.3889176499879102,-0.3539531014150392,-0.12899756746715257,-0.15381508920996026,0.27232107160094815,-0.48632744826770385,-0.17055700887542966,0.19941780715350113,0.10697780383630898,-0.23093036423310961,0.3066366040972983,0.22182259193739098,-0.30839196345059666,-0.23731007481344008,-0.3385274289087757,0.26136842416617345,0.17424367628184437,-0.44201123080780025,0.22838363894958547,-0.19975001131055922,0.2503998934573484,0.21002995770341146,0.49007807063221787,-0.12642996466344406,0.0605226678246052,-0.10669618980051959,0.32723551516979615,-0.05573161237307536,-0.019133498708607307,-0.12175154825754184,0.3253252866353409,-0.03657252512208428,-0.48185423479189404,0.27250514203177434,0.1366557069340168,-0.2065873312707249,-0.3342115703650531,0.2893125217778577,-0.49017369747740924,-0.27269942082775134,-0.4292128618977566,-0.17696014901896936,-0.44636315099699575,0.1733767666528693,0.008986508886666151,0.012931135618282814,-0.028616363835680943,-0.1503419699632497,-0.16777077499951518,0.29875007334250625,-0.2725897517750281,0.187304602405884,-0.05645664539557971,0.45717155557380706,-0.39663161548228615,-0.005697150747717925,-0.32236254292293776,-0.3966928219161126,0.4732690753253568,0.2463542700943066,0.32632092803650237,0.0493351590175368,-0.09647380379840836,-0.4074341256410525,-0.28254505202713326,-0.45109148496249035,-0.06569810816083843,-0.3331666911045057,0.28413396284835657,0.4343265894534367,-0.4071605900925156,0.38483835922019255,0.31599273355841206,-0.05136223932576232,0.39722826811027295,0.23103053133997314,-0.3034283169127083,0.009317099506088628,0.1383006071113779,0.49224372474307276,-0.37328470951860415,-0.40627559129042107,0.38165912205898267,0.19531209174286643,-0.3147976094341686,0.29484593789433067,-0.44052634746039093,-0.4909059541214005,0.425766127761201,0.11120145693168174,0.23312109004457726,-0.4625543572802707,-0.37219834975860194,-0.145556460594608,0.48982700597842865,-0.0854655824824711,0.15438311461068588,-0.4902913935057709,-0.015171943137885679,0.04565996811590973,-0.3091818825497639,0.24412108004891903,-0.3909754531678633,-0.1716200426046828,-0.020040560237343484,0.3044192489292396,0.3970411123077151,-0.2199660312684548,0.12765096443446722,0.048342882187864956,0.04206083351129373,0.020091465386489316,-0.46960670658664644,-0.23860634640590125,-0.33794478716118076,-0.44990583081195373,0.3718629432636953,-0.48771671858953364,0.023992747588311363,-0.02511934043631968,-0.3248432602151134,0.1694685810650243,-0.24596783901776656,0.05881043148854909,-0.030374957001895152,0.05369204468514441,0.3779787992343065,-0.10834379106687007,-0.05431535434940869,-0.4912118597311979,0.23470640350629127,-0.4315304709858292,-0.2031614673445183,-0.3553903102502592,0.3167991083561673,-0.3914239099073548,-0.02709563354475152,-0.41858759296262615,-0.5152493392368799,0.3698847118628296,0.07995962056383969,-0.29664737231567634,-0.29113125247636684,-0.5241393944511586,-0.29174899998019654,0.3856786237745078,-0.2315446545716528,0.09664740114338582,-0.1828813447121136,-0.3902785006436267,0.1914770107198417,-0.05945691844636644,-0.26236332703172544,-0.38832882782969547,0.12052230876423704,0.14677289854513675,-0.009213335937134226,0.16344261003250185,-0.14513169530664455,-0.055659274080117595,-0.2834673711932615,-0.1698378545475531,0.023100800559925232,0.48983811285962037,-0.00831205297278789,-0.027856153478092005,-0.13882900148127975,-0.23664564946620673,0.27752412386774045,-0.16618545879407012,-0.021486851417769,0.13988011949462648,-0.31419092036585233,-0.006194671962386219,-0.24079737133441284,0.33069560553422933,0.19087070683605462,-0.05260297256150854,0.4083662758615689,-0.07386257907553502,-0.47571983315531136,-0.2820390039011966,0.07843239341147298,-0.3054287262777596,0.017727369901547833,0.13830786521038965,0.28958503071171915,0.18427066962549402,0.1361684184734672,-0.467134962978192,0.4272800294724223,-0.45215729982498526,0.2046885559316011,0.48960396444517007,-0.06182551013428747,0.42479994790297737,-0.3459735862570437,-0.0161468392797609,0.17556458978242898,0.47509508954674873,0.13873509401556736,-0.006137832844097931,0.07750746345779032,-0.4155543671302376,0.14846625975702168,-0.023121947599773013,-0.34293139765183656,0.08173442337781936,0.28682154923307557,0.4843819201637638,0.31373260232855826,-0.46886155481636915,-0.3650835755224724,-0.22058110432172376,0.4837031679614695,-0.0888870324278033,-0.35695376339297635,0.3879765923523653,-0.3175782381468657,-0.12766571561924528,-0.3844195734931808,0.1656757734757558,0.3746649614390597,0.23235100093581218,0.17614964036505398,-0.3499785865615291,0.3221545763765982,-0.1007855854644681,0.1343532810924181,-0.4657517563743901,-0.08515830144455862,0.46449343555533035,-0.12529825769676226,-0.04770889597723607,0.21364049812690972,-0.24049559453618774,-0.2978103645266311,-0.46359041787711364,0.040224657604052444,-0.33929216157037984,0.3130639950213271,-0.310203868470397,0.36942945136330246,-0.33431878726250924,0.02283852753215429,-0.2783537014772865,-0.3344524075299542,0.3163564482938785,0.0950322086332494,0.45375955027588694,0.1609136807690076,-0.3370775671408452,-0.41443126167023414,-0.29898750096338644,-0.3855542136885372,0.0432786007285679,-0.17951421978836576,-0.3161129521332189,-0.2041986685431601,-0.2874801895043932,0.4642686252745626,-0.4445440269075544,-0.011220098632841274,-0.4614111640753913,0.4724933715319619,-0.49084191944251926,-0.29725203590114824,0.3637111227891452,-0.382386378037986,0.4661058946525868,0.10629549136495511,0.2435395706104875,0.3446275102815123,0.33130078032512544,-0.3582011463321775,0.39528086939267226,0.17862211444231538,-0.3016500095268287,-0.09720864851394181,-0.313046532485039,-0.20639527398738677,-0.4380601286782792,-0.0653685581124532,0.05651236865664014,-0.34294103026754735,-0.43328131498115585,0.20726819244235273,0.36168804749289074,-0.3814728138223157,-0.12684095891277983,-0.29191278002297066,-0.3205065345521633,-0.277032284525537,0.4398024255383849,-0.22252643524835802,0.07573631620901455,0.2633320755189687,-0.18117074044908854,0.13696758075373205,-0.173517557767249,0.09665644613450797,-0.24857640403794484,-0.07763385447162524,-0.27120610566906644,-0.28043691067928656,-0.07854977398525757,-0.2659710932400921,0.061827840046325064,-0.47519779481369867,0.28877470439665415,-0.3611465548591092,-0.3972264792873071,-0.44907986591419785,0.4252712060904079,0.36810195455082956,0.4140419779505129,0.3654115306984965,0.2054644333109469,-0.20776001144047768,0.03196278040223651,0.0026705141802605406,-0.46071646681422235,0.3207780329082409,-0.3528208236501945,0.39095645565602877,0.24262013817622435,0.3091904182721175,-0.20394384763248685,-0.5221084363116022,-0.03424973015213113,0.13695503620103233,0.3161019941376191,-0.5209744527918122,-0.41439352520352907,-0.04649468817379273,0.3203162228145063,-0.22257138893267953,-0.435786513697306,0.35454965833707397,-0.02741458240239388,0.19906171546981616,0.2820655446977277,-0.31501174298788825,0.17997287194898862,-0.4716028035508083,0.08408620920088694,-0.2776935542545678,-0.5296654636571209,0.1316112568489727,0.18673475373695067,0.3458832063190708,-0.22538447943428339,-0.12462717658941203,0.021301660235850915,-0.07181638121199051,-0.4362134175521034,-0.45811690424252843,0.18596506155522674,-0.3069871698022419,-0.02935365086048806,0.2778726850412985,-0.28313208863151895,0.26688221450904387,-0.47104620783165724,-0.46846090915753813,-0.4133552096428209,-0.3395152948405009,0.4114828973050897,-0.043982085350856084,0.22583364221552285,-0.3846952218862398,-0.42664676414938885,0.39982874776955957,-0.4897656682838363,-0.025802506418004655,-0.16127387136591456,0.4708976700654396,0.41371240885088223,-0.513060020745045,-0.3534342430344431,-0.36879951912633,0.18508186274413757,-0.07412646319423388,-0.4067546391488013,0.1362193031492533,-0.04300164036856368,0.1063158785562882,0.009575470034688565,-0.35629354091848,-0.37959659265347234,0.4550019776631432,-0.44287531746739695,-0.020025119167224482,0.06288727903932807,-0.3311688534861085,0.33526337312719906,0.010465227308030131,-0.006669865181808226,0.28648103769336364,-0.47478626188680306,0.429769161948236,0.16310462638641765,-0.2624542647831861,0.46781536195269485,0.19989527658292383,0.07384865682059924,-0.04005778672340196,-0.4934039269027505,-0.20790269630578542,0.40576105725203426,0.26165199700043407,-0.0974129832845543,-0.25958674051135916,-0.3168984751933682,-0.44495922173241276,0.49266223218775307,0.2741527455525432,-0.3367820808536316,0.4632396624356323,-0.2873970945746015,-0.14667651990670597,-0.2560568903659135,0.4553999481599785,-0.323112090684225,0.13623161790694271,0.4710388199209538,-0.12957528124988907,-0.38311096548306495,-0.24589991064697972,0.14346213999661156,0.03130448212637246,0.21207608275518555,0.17396351045681516,0.0017210679295394102,0.02820086306322856,-0.18885248591058637,-0.21141315725389717,-0.3156536667169445,-0.22355186593372342,-0.04197460319331695,0.34239064999339547,0.20440552953937893,-0.26094198735552443,0.02090663870801942,0.21432607621201358,0.05039251239112385,0.31704821866536137,0.40039100041826436,0.09791084717036923,0.46176231714685645,0.08219248387101641,-0.4004586861095256,0.33092458060776797,-0.05917001202780051,0.11582639721784402,0.4265107498031249,-0.0890419096880456,0.01511302777604953,-0.2582415976745317,-0.08717676700533986,0.44810599251706407,0.347258671833948,0.3410215668389993,0.4824994981996378,-0.4378506069378874,-0.12262266912378457,0.4194227060834386,-0.4692922485343673,0.0007985669174994536,0.31500209316746025,-0.4281821463219681,-0.3208337866491509,0.318720900155756,-0.3917088529091132,0.09303643440339118,0.10492428779535348,-0.07562787659675166,-0.34262851880020906,-0.4416772951070777,0.13535150383528086,-0.3158075387366002,-0.4629574710762578,-0.3363817760905081,0.3632962061523245,-0.13309655924128141,0.38829011943053554,-0.43230164392201964,-0.05654658154300715,0.2267404799911156,0.05327834368554227,-0.44995191509914756,0.3990198609697002,0.4060118740507328,-0.28679642645232933,-0.1548292806511065,-0.2832975024985624,0.41580320412637883,-0.21734250729756513,-0.37887239594652566,-0.40572452091291195,-0.05307267888485143,0.01417822357628552,-0.2774936860343684,-0.07731545797368597,-0.42372823912082286,0.047700632889257744,-0.08942399033152314,0.05724298113951409,-0.4275023219238385,0.28964529447699416,0.3205540809003512,-0.4229876591524435,0.2094548445765083,-0.3048701306747594,0.18222091890956732,0.4303076552082456,-0.47218361684384363,0.3840482796750415,-0.11670075096197677,-0.10379042527770525,-0.04974530080775902,0.18758203434840232,-0.26930026996377443,0.39930316686608297,0.38358030038620994,-0.32165524813045543,0.010891006427896623,-0.10353282590575826,0.2711285365935245,0.45474836183963935,-0.24463561163712474,-0.05315776716117522,0.20711952008221599,-0.44576018421649516,0.1672808907464522,0.47291400063845423,-0.296324061307642,-0.3317690749556298,0.2218576213200113,0.07825699057533256,-0.2620724852609393,-0.4512070861059902,-0.3535595079397814,0.34366958258872127,-0.06793344664714965,0.1986105586608127,-0.1866643640247352,-0.2003776684722105,-0.2024765855937066,-0.5085054841896314,-0.19043755678792323,-0.4977597516039084,-0.216982325304908,-0.5374901729554283,-0.23025130162838753,-0.2975293495723006,0.11926025141610844,-0.26748021116794807,0.1930106131018883,-0.07017764190760879,0.10017421941125453,-0.1760353741391213,-0.39854116359756575,0.30474105208934626,-0.23900612810737076,0.1830556622386446,-0.13632462029556236,-0.24982573010583678,-0.14714006087781592,-0.1823572524228093,-0.1373221167695374,-0.27753566752099657,-0.15061651905133366,-0.44428061847543165,0.28630856318747294,0.23115930499946719,-0.4745987658817425,-0.15681698827123144,-0.2973117900211037,-0.36799269429619746,0.3055213195488068,-0.019707706423607516,-0.2794436073768601,-0.01755175111499723,0.3825230409739843,-0.25586618602045647,0.19514853094961634,0.39020546950045754,0.11444551399751081,-0.439538578035603,0.399038802161874,-0.49452988323025227,-0.2690894785843536,0.4301163210346558,0.1806293653912662,0.4071306815000016,0.2759823498142808,0.34070085514127774,-0.4513443647386517,-0.46781620678237135,-0.22754212185503878,-0.12973244269585693,-0.264113491546361,0.38119501905399894,0.21254938658131603,0.17162676755017828,0.339482791379744,-0.12004194997821922,-0.4939698461776323,0.1907183300236714,-0.047198153225025186,0.1704561770488766,0.031527882396570846,-0.42365273324755603,0.03147629200044691,0.34270103996439377,-0.5003613615571298,0.3848336284878614,-0.14458522002467872,-0.03515312151747348,-0.2141218586876738,0.34633261177126495,0.0007643573856170574,0.07274289201266299,-0.1146440914949488,-0.3436720629782602,0.3735986641365627,-0.2693560740314848,0.32729940477849045,-0.4135163135585851,-0.3862951311402413,0.30676417577473025,0.4174779895856402,0.15906718437000347,0.21501847452299397,-0.19724450973002225,-0.037400247788768076,0.40980960340820294,0.09862362542587869,-0.2760262277885509,0.22631027848655996,-0.36770988039497116,-0.4442352591162845,-0.1857648107280582,0.39151509994950573,0.4342185128110813,-0.23757195768722042,0.0707801417458515,0.18969100583695814,-0.4472923656595059,0.11262743408113109,0.012114268135239057,0.16645502427363762,0.10611691216636146,-0.4630236583654959,0.2606860392322402,0.3943494137069567,0.36567762403384324,-0.35351957960718117,-0.4477415817475452,-0.031022997215592804,-0.25086903420742657,0.11652921187671689,-0.3658678576996379,-0.33832780085377295,-0.04570978928070443,-0.18957609299039618,0.4965632358625234,-0.11419028889382778,0.41488409084434635,0.0865785559759917,-0.4956392559456594,-0.4256432907113219,-0.13537577856992736,0.3309106203245373,-0.4773589416483426,0.40310006005855287,0.29397589523375245,-0.040407942621839416,-0.22328957671346292,-0.043833507425672116,-0.3097518757944989,0.1377847118926351,0.4595401628307153,0.41346586675469343,0.38043229483642993,-0.3228984708714686,-0.31655221511073295,-0.41101142543241587,0.15891377323173145,0.36101632763316593,-0.3488424962416978,-0.4894935763614028,-0.08397199985396464,-0.2432229081299548,0.3846949306850416,0.29051609706630444,-0.12773896446779523,-0.4884601494669666,0.0010444373598845356,-0.02544103089625704,-0.252988456442398,-0.43772411664155003,-0.3046271582882919,0.23943058910428075,-0.31745063372407173,-0.42303883238371265,0.24854536546682784,-0.4158114978853543,-0.07607705907672699,0.03575498675546837,0.279405345492301,-0.21281640205036054,0.265799851003803,-0.4875126687343359,0.39596744820276497,-0.39984815765007087,-0.2108877691469684,-0.39570960140605516,0.3819035394065877,-0.3011883431553302,0.2984933290244347,-0.4474157806324255,-0.003847352305006108,-0.3458590215398658,-0.10023227620734068,0.4628137226250689,0.3385437603695096,0.1432086326179875,0.21218058393122435,-0.3781774820112987,0.26026140131028697,-0.48410775500167935,0.3755431513063753,-0.21171360045497498,-0.1633952165691402,-0.4588552765612201,0.3457459087104417,-0.005586997625810464,-0.23524735494356297,-0.27630931949994536,-0.1338626894479019,0.4711553917667509,0.08964380425530644,-0.19439661898615745,0.34949881177836395,-0.475514509991295,-0.28118224098707,0.3509414060488281,0.17239430064546912,-0.3305569778836426,-0.20153952554293517,0.05031813728163639,-0.021123341959076874,0.15511762992027842,0.002022981044008663,0.4969375077210782,-0.41385410545765744,-0.14523987706275432,-0.17174848402776716,0.06893831155227931,-0.15814183731381312,-0.31691677650531785,0.01921960220648969,0.04079205329060905,-0.26044496621061225,0.1372445220143889,0.0396043071152321,0.02222299360986438,-0.09000711854043422,-0.2615867121842536,0.07452640762425887,0.025231665138829608,0.26727592488846735,0.23785590666410636,-0.5418309085945902,0.21113662689106893,0.006588902581333921,-0.361315182931228,0.04551567707434369,-0.501978547060038,-0.22228258931257597,0.06630929868767907,-0.04458396704169379,-0.033003031902077366,0.06088549958020561,0.06580429050137046,0.1504401428814553,-0.40776522936972087,0.051339843501217536,-0.4759357181764249,0.3477338886657389,-0.5189283205031237,-0.3137801544784339,-0.18081622738255743,0.31656241488764,0.38340968866712216,0.2627928819348767,-0.32165454718620207,-0.3324573288503915,-0.1606790846556857,-0.33769810709834414,0.33173891662380717,-0.13985673052675351,0.37844929622636175,-0.17119339403823408,-0.5237611579874212,-0.24458763183901172,-0.08208416258849388,0.231871429015663,-0.29687076732179163,-0.17777085162175923,-0.4913073153266117,-0.14385085654331417,0.09989877535114501,0.4076305621317575,0.30808359732526086,-0.2720957648372028,0.21402368353818904,-0.0615207368786826,0.07788302241259931,-0.21318068676331978,-0.08657052860951822,-0.0380555781434259,0.3991885158390416,-0.021270649419119356,-0.140255465616158,-0.07963205121952129,0.40982735722289554,0.03703739530004475,-0.4916206412059278,-0.08541328042534659,0.1271990789443945,-0.02997200171122374,0.2710039181649389,0.28433290185002874,0.39018396502049457,0.22921368862401326,0.20117399980431053,0.2915118000698091,0.25549970299265673,-0.3800258966648216,0.13270835177724122,0.12175566717045402,-0.18439294283580515,0.44508729260296753,-0.2287919791474283,0.15377574062673716,0.475171739827665,0.4487922676509562,0.062348778226045176,0.2805360711959115,-0.09043653442899094,-0.4737708784871533,-0.1463119261242046,0.3742317550870815,-0.005471937139456744,0.09967722154189065,-0.03706048041683077,0.33702536755221424,-0.3539441502888784,0.2823447220115376,0.156730438655609,-0.22952333036927472,-0.2640886296919257,0.07038202751928405,-0.3174538515711044,0.18084523772696817,0.4932725352205241,-0.20819070573970713,0.40333538721890955,-0.4538696831798708,-0.4310794667056685,0.004294057189310175,-0.2397278804307679,-0.1281303351613245,0.3550341904169366,-0.17757650176640818,-0.08280670987467606,0.1862168394649451,-0.2865733189577605,-0.3498638206997399,0.08809791852874688,-0.3663812423001654,0.3713426696053797,0.43617204738488186,-0.23501337333016947,0.32654260322633577,0.40588959967815724,-0.06441577689207312,-0.057249897558816314,0.013684039349363197,0.032527130703291655,0.493946894011429,0.20855673480218426,0.11979177640088083,0.4465532861466872,0.09424564123724168,-0.16310149078198402,-0.402357704286841,-0.3285235436499345,-0.3942429286419584,0.16305861912769876,0.37775029377781744,-0.37368766755115546,0.05515295747834551,0.4865120163128218,-0.18666314934471523,0.05604484658096857,0.386879352624254,-0.3596600681531272,0.32052259554902807,0.1479144131165822,0.4627628269378394,0.19666906387894934,-0.41665366147336896,-0.39414344892452174,-0.46677647312241805,-0.460451458001387,-0.18433424609665447,-0.001659525883024855,0.06152346353737867,0.47088761642569066,-0.019126817761271172,-0.2745952737741224,0.47414099969485823,-0.33910957361841065,0.06475027964075099,0.325544711837026,0.24133167421854343,-0.46136516543798345,-0.4386026403244916,0.31956274550301267,-0.196233230743848,0.07354586910688707,0.12583822534918968,0.1341864438254238,0.33545101339846484,-0.19205434037435032,-0.17149524128378205,-0.37779821363572164,0.37896319689618574,0.27711555025065465,0.40833551559335896,-0.38689252200983015,0.4751507054088474,0.3843942244115666,0.07916822958100889,0.35612136737544015,-0.3599905063477783,0.02547914838175812,0.03851507108973667,0.4111369594000481,0.22993203639002313,-0.28639241297930934,-0.17758434662569975,0.1987255791782532,0.3117473952144472,-0.29248022834816645,0.10472246910123231,0.2564728752107638,0.06890924904399501,0.2755911118430216,0.4563954739451384,0.3900843550790293,-0.24460900244186043,0.43888897406933997,-0.41265006478090277,-0.34613716638992226,0.11057763654164189,-0.04503853565948046,-0.40577715528223307,0.13361549717330676,0.17787012698870908,-0.3014238959788291,0.05478217951105988,0.45435422427717637,0.38478234334436384,-0.2188181123515177,-0.5016336306783993,0.27989214274203955,0.07617875445622166,0.2752670812158381,0.012073339263480538,0.19261723488339577,-0.2351222143266101,0.39504728126349103,-0.3771241386361504,0.05784943439808258,0.0004570392095591536,-0.14633314875738188,0.20475529297040831,-0.19980054816677312,0.2658569679867645,-0.2337457786128655,-0.34716963872212603,0.07293133981269218,-0.43435274321190426,-0.08959174905976879,-0.1086568056083444,-0.15168750126206035,0.25667761872253914,-0.009040528708146353,0.0756966200842634,-0.3031024986686087,0.2455404056326175,0.3430160928380595,-0.34005738988900275,-0.5569535150731538,-0.2749834381368025,0.26399321639076423,-0.3529285494640287,0.29508467949503137,0.14418393149336556,-0.16176271051327526,-0.2684397585444132,-0.03415316135395933,-0.45950429623662614,-0.27222929906939186,-0.258818523170449,-0.12109542770457953,0.38349306430176516,0.1431183636431998,0.42167924981253263,-0.06112613522455696,-0.011836497883291015,0.16168445662760425,-0.5262526152685154,0.2091008461891202,0.4155538720713748,-0.27065267381624314,0.4575976908814043,-0.2361967142667502,0.4033545210452997,-0.07399290380108937,-0.0994296524231284,-0.3754112582275399,-0.46538377272400516,0.4160936460820025,-0.21885910016968207,-0.4831527852273697,-0.47057436293594657,0.2093155247432503,0.025182484625350082,0.2657054910249975,0.31381914160294955,-0.25969651906697405,0.09081751931081948,0.17559234347528055,0.4683779720772014,-0.4412308873292405,0.39492131400824265,-0.3560806342117446,0.3658755828576588,-0.26962272346713845,-0.2834080223359398,-0.027901303023711015,-0.39512849987252774,0.21542242805096795,-0.04846244141517073,-0.35318004726842017,0.26375758435446717,0.032401440119749714,-0.010957340048761208,-0.0839995675887376,-0.22332155194657707,0.15320661162654178,-0.1796224989640263,0.21499035534502567,0.2744997145410112,0.29472825165736183,-0.21019961602879625,0.09487559013048247,-0.19254667503633402,-0.2581303603871663,-0.11800722103541665,-0.27371860498417483,-0.4953198698663665,0.06419687538789222,0.3511953582063919,-0.0828501354884054,-0.4375787605393223,-0.11102331778212032,0.18075072601115194,0.03462638089294604,-0.37281801354272937,-0.4484846110110957,0.33945847127799783,0.49618886415111074,-0.4825536253731022,-0.3669033258340837,-0.37973469665015425,-0.138536117477766,0.17540814074660782,0.2568738266500272,-0.334879517590067,-0.45608660590081956,0.47854182060008704,-0.09523313725283332,-0.21627112822646963,0.1420889078698089,-0.24185351822472492,0.25660076455251046,0.4266808083725226,0.19950790261806436,0.25018373912460595,0.06642731382949571,-0.279678890811514,-0.1991249280581225,-0.3853956858460385,-0.3464168497258348,0.27888316230015536,-0.15938671353050574,-0.332518826481201,0.17843026700555195,0.20635816024254086,-0.08747511980585855,-0.36289332358275883,-0.4770380052000228,0.4816720224349569,0.3500107414780643,0.15847804575424035,0.38018530908084414,0.09131060730824367,0.1657948050694994,0.29401536091606173,-0.07621988270395937,0.3052391126985469,0.06290306719227078,0.22664564874016357,0.0006356185823225922,-0.1517888737957512,-0.4828304694899397,0.15905662007150598,-0.31891794539160184,-0.0698618744826611,-0.2725862045605654,-0.0062928797371507965,-0.4800659948960111,0.39257715467921817,0.23811374688428347,0.16332882673681995,-0.23270914150103186,-0.39026522220196475,-0.2820151659035751,0.2976342659703959,-0.4037902494903124,0.01931518009378769,-0.054655029074624745,-0.4727012662574585,-0.3081838159103591,0.3732119568505692,-0.09161298212490251,0.051626110500414296,-0.021665868815837038,0.4177409055624578,-0.33919801848048164,-0.28116360428072046,0.4766079230860075,0.08824074920920202,0.33186723841759236,-0.2808587571993283,0.1828069149311939,-0.3920746086843303,0.29216087847837796,-0.22682975666395835,-0.027076041792796265,-0.14159651515828087,0.49396548516351546,-0.40094184344913175,-0.04769199591370419,0.15290529647598336,0.33568632836002793,0.08932001274002631,-0.09015138974054919,-0.4297913204465198,-0.24823802681026688,0.04651338886353416,0.3348349764406361,-0.1081585558699203,-0.07615044788111121,-0.10340170565669256,0.17194412186591973,-0.2806107634534822,-0.283133424432454,0.40495811318873576,-0.3503988099015289,0.05627178850404562,0.1195991597977512,-0.1161532110328887,0.07262051339729449,0.47661719965030963,0.11374268944060197,-0.2520096731897717,0.004632696372725347,0.13641057043132235,0.091949757259444,-0.326787601425687,-0.4766258229423165,-0.06728596196933125,0.03230750141238614,0.03848646832131161,0.17485376408243758,0.3303107357982984,0.40668733627462383,0.36849959281654643,-0.16159212911502002,0.3502734006943555,-0.5015303490384483,0.36503087300084885,0.1977228825281093,-0.5068115801280824,-0.5326781104228034,0.4241174969454475,-0.2832525343396958,0.24065365280776346,0.05582454845568656,0.020481768105326374,0.09849893410784141,-0.1347509278254345,0.10280420130793369,-0.1674866757694232,0.4263641400662989,-0.02963223246156606,-0.13264704687915577,-0.2890354274882847,-0.35777740584350315,-0.05166745550177934,-0.3808044837447847,-0.3460621592829072,-0.15577566178459212,0.05889460448812463,0.23346349408081185,0.10854149293951043,0.2828891589412627,0.08989966616736793,-0.4671128994576956,-0.5030683123085498,-0.44311723861100105,0.35147657643888713,0.24220178713877208,0.3655682762620432,0.4099858696458929,0.4143273833887369,-0.49839036196042313,-0.269839463395092,0.3992059649732394,0.42151235651014624,0.1823981386723168,-0.49706884105951754,-0.3100083658119011,-0.3372411895818545,0.421301578134813,-0.46931587658764196,-0.36271274560695543,-0.04283251843195244,0.05542369231198511,-0.2105754497779232,0.24769297972667653,0.02450011468343143,0.1906083730188587,0.05797690658111891,-0.27212044425319454,-0.2808650917669517,0.05128710402548579,-0.06287184281509477,0.31356136032838516,0.23806643454423054,-0.09102790588918823,-0.2990424865297245,-0.28299615094644476,0.09063102082066911,0.3671448052618858,0.18569848006390052,0.2913761586247284,0.42593102046754805,0.04443631364959239,0.33828445036795385,0.30483971085771366,0.4744200124652618,0.08181556245482088,0.32975959673102795,-0.19903158654352848,0.2163014788047891,0.48791223715428367,-0.20218276858344345,0.45983076198299677,0.3288440652739973,-0.04599766554315752,-0.36624808921084134,-0.4730110540711942,-0.3337409773232025,-0.35339300135725304,0.08027211547906876,-0.4090587641511631,0.256367534498695,0.10453122534118606,-0.17538264183213279,0.1672807186294622,0.2048014345853006,-0.07250932133493611,-0.49436617461681204,0.33982967637311157,-0.44334897619604474,-0.13331681871243375,-0.18403442348724464,-0.04955833091435166,0.4527785332100316,0.20858985850134373,-0.24976013135528377,-0.20740348968581582,0.21538169204372584,0.017124015320418576,-0.35675453932607115,0.3261397184183109,0.33672374964053486,0.48762497353874756,-0.1646578807445171,0.12381063345375708,0.055032622568473494,-0.11284879571327912,0.21811073135263576,0.3926543655128037,-0.3230332309344779,-0.3077897006765143,-0.24787002523349053,0.2508513842058075,-0.06810050555939784,-0.4821616400470382,0.02690874375046286,0.10355179258171208,0.37246647790798953,0.35304572647319193,-0.3887654048609211,0.10375308746083979,-0.3228673087561261,-0.2971573532088081,0.03925178995652578,-0.46156685759193544,0.17069303740481437,-0.30262096357630097,-0.49538409761852703,-0.38770341727344787,0.33694062025646876,-0.36327903450598154,-0.4096860792770606,0.07352689672710763,-0.03283137325751924,0.25011132449428086,-0.30038461945577183,0.0963979900621451,0.37152796955587436,0.2021245487489031,-0.056696891662582065,-0.21713822309568195,-0.258178619166711,-0.1444621371696822,0.2064348809619493,-0.07203640509813439,0.10466464350076946,-0.17858372093963146,0.15459376483791124,0.022542968504232933,-0.3672421179387105,-0.2905517988372052,0.21960625879410847,-0.4912349928062027,-0.1642055802671116,0.02638398511167866,-0.24868196879645818,0.022984186885965433,0.4706378631134239,0.04754623495943919,-0.19735761054086656,0.32265205015704856,-0.1940634024695804,-0.13198911481047432,0.4745654358679706,-0.13470623753106228,-0.3656751579226427,-0.46993103032662,-0.4202588450172703,-0.384267350777036,0.41111926092651674,-0.16523715858532007,0.0293276218564473,0.2648738655420778,0.23027723588586205,-0.4610026595906779,-0.4660985928628768,0.14941736799148636,0.0481329539290616,0.10040113393545214,-0.027694232905491722,-0.13399313445170485,-0.47051830482919466,-0.3016214775311758,0.24499853587487247,0.19584354920919275,-0.04064878773239376,-0.453862696926928,0.4356124369826967,0.09468860131536343,-0.06576821335787054,-0.33965506726856,-0.2553942312875854,0.3761860395220463,0.06883429027830985,0.1406899600594353,-0.3921947482366166,0.40418366657284227,0.4519935260212425,-0.22314790540895618,0.2692166790656348,0.47049266068837264,0.23473551204041027,0.39178389125405894,-0.02771791895502951,-0.327455958724105,-0.33759193547871263,0.4329214938707285,-0.40249314426540317,0.48361198131680194,-0.4576790540706545,-0.3647206125673033,-0.3530929561466217,-0.4978329263152594,-0.43907998733737696,-0.2939849538615931,0.07473284067768741,0.18659563755120967,0.3803361919720904,-0.4350741373707977,-0.3242490073406986,0.11150659866324601,0.05556661683965002,0.10135485721974759,0.25266485824312446,0.14009477387825803,-0.44863808589910914,0.2756415365156762,0.20959252087939667,0.32791864199843357,-0.21310950681509963,-0.17374587730286004,-0.01564067925557976,-0.1654111311550777,-0.37398556371150804,-0.3415035149557462,0.3587868359965707,-0.3548351690695435,-0.36895059724079604,-0.17698450185421594,0.18467458389112837,-0.4570638305723405,0.1419579329808301,-0.3355627264026481,0.2742793200938136,0.1799397527691293,0.054159238973515614,0.07874946872739613,0.4694172608354103,-0.24576955066764597,-0.43786527368556316,0.07069967278489858,-0.42919108262337774,-0.42081242992511175,0.14633925656909386,-0.08471898999109592,-0.25454443293497375,-0.058994645796755014,-0.24167565980808833,-0.4970040397669815,0.21421110660485504,-0.2809053899495543,0.1676230959710909,-0.3715636532707873,0.3236502290037841,0.43006806579265344,-0.08267943950473937,-0.1437855470142249,-0.25186297099497124,-0.2840490853888026,0.026540877622673122,-0.21273626573810608,-0.1437006185827571,0.08593751154993855,-0.08860306182249113,0.3769303285914299,-0.365506939311741,0.1532521895000041,-0.02488502491924608,-0.1867476139921313,0.3874995585919528,-0.31220701909701637,0.36066833196115894,0.43206450446180394,0.3394036305276818,0.2610268563352149,0.21804376218836027,-0.009618874490623026,0.37445164655728574,0.31693995995191626,-0.17133298520480653,-0.314931745330871,-0.4027405926961438,0.22702551766981238,0.470331842398619,0.2080876679759263,0.2055316866823711,0.38181102686121565,-0.3107683600938,-0.08762319708452217,0.23379999291959888,-0.31685133573202706,-0.029122897347087444,0.3057834435063878,-0.35415729065016693,-0.44463089942391515,0.051989026018637814,0.3895489461735184,-0.11333856541747402,-0.40337205154745137,-0.1922389557352513,-0.29063010033104625,0.4752741830266941,-0.13807962350779424,0.15342393869479717,-0.4581479273244329,0.05850718168002286,0.3122812248724033,-0.47201589963373736,0.06006423236155964,0.41434325905458846,-0.31487230568529484,-0.38504527911011777,-0.4794920281221307,0.14692350810020485,0.049072449734739204,0.1794631957589348,-0.4168474856160045,-0.478876094010811,0.3607198000912515,0.3790321617080318,-0.04458994169948925,-0.2938121365471345,-0.4584262409652278,0.43221613757413974,0.3134379448198465,-0.17481647517310442,0.24957736079390155,0.42093478806787493,0.451545873050959,-0.03162343687332613,-0.08912173938699644,-0.3414700096311566,0.3577543485055669,0.015001065197589682,0.33818835325614716,0.3729091274770262,0.06052540773149605,0.16920231379378037,-0.04220406017103753,0.22733378885253921,0.47944248773655723,-0.14469871532189604,-0.31400771871365213,0.3486322925617673,-0.1738283942396191,-0.11852352636373989,-0.21738923445629593,0.05900923343457294,0.46196725264216465,-0.13191102019953982,-0.40544000175004996,0.49535035019858503,0.16912628647677447,0.32336569396183884,-0.0879400790711425,-0.413254779548651,0.13322316593658337,0.40946419513319665,0.30820782129358426,-0.2496209192002015,0.10331669740446683,0.3019382573429099,-0.3553242865247294,0.10988942290711756,-0.07903383577078707,0.2782308235909212,0.37021097096553857,-0.1574710560507649,0.34538238679958533,-0.19345282237597597,0.3653889955262474,-0.024002218262922256,0.20563308207096212,0.07697952671270084,0.49468336765138854,-0.40801160274724624,-0.26051613017539643,-0.17180788153903534,0.2253120093062109,-0.2781500128335876,0.4831066889129404,-0.188737128249546,0.05513011779126073,-0.49364001121160983,0.490531456398557,0.25144713283447895,-0.32762329463087575,-0.20696122574551995,-0.025898053546584972,-0.40081067213562394,-0.2762453378580009,-0.38695838188929776,-0.3832470467700634,0.45130996957451075,-0.21435006625313086,-0.08692215851617839,-0.3484491277158092,-0.37614093340042476,-0.03586720260679081,-0.40698687522629834,0.43962684377467653,0.4553726630951104,0.20961730496649048,0.18596096972290244,-0.3508688072250707,-0.47759236912723296,0.1518070656501448,0.3908023711494035,-0.3805055755735657,-0.48558214375365955,0.1647630095962086,-0.22989527522956585,-0.4134788987416891,-0.02611175609230465,0.21208825278815435,-0.18911190159473829,-0.2172862110793792,-0.49764876744029835,0.20998076313118383,0.20790578289996636,-0.4352055787700394,0.0199507739435481,0.12635574370857058,0.3692779014643054,-0.14174352478582314,-0.40499468379495024,0.013214957771205803,-0.35859581794397455,0.45496350944975594,-0.22828895979375588,0.16941720053825915,0.2830267594811333,0.36711313495652337,-0.13033160738166766,-0.11466508636159348,0.3599953246415425,0.04482872646015938,-0.28430789587095645,-0.3056885289943122,-0.43462145103940003,0.09717302124861037,-0.2360389873166109,0.3784571893296107,-0.024408285622288004,0.26773375240157643,0.2153302687058595,-0.2748900868181073,-0.3935573914112657,0.23269431362972678,0.1949700319046011,-0.24876340454645982,-0.19429745669903214,-0.2946913676188609,0.45081427529074203,0.02812435727225615,-0.03872219205403695,0.3637879167840695,0.36996861371042494,-0.021898132879200755,-0.3812555634614647,0.4444829355386792,0.32780969146392364,0.10579713029959012,-0.12699096382052327,0.28171535172097095,-0.23481757777452056,-0.36139217498149406,0.19342365073491935,-0.22307044378808788,0.47556916768251256,0.4324078789902842,0.47844124817323086,-0.44033494425058006,-0.22748424024245115,-0.22168079660019055,-0.11791460475854687,0.25661596658136376,0.48334503846490373,0.2600746333221616,0.24693135700507335,0.3718845118919476,-0.021341459822106106,-0.0357689353920212,-0.25069088848098103,0.30023810435292225,-0.15567647767428108,0.16773214993419436,-0.17216414650529008,0.2909154454303717,-0.16141750622807172,0.4352286555247997,-0.35952486351635354,-0.08278128122884565,0.0022763357730841466,-0.21064953320621163,0.19473309286312443,-0.19436103901042745,0.3434938557213355,0.07231253699845085,0.07175565172323063,-0.21440931331288265,-0.14206285819589412,0.17452265470704798,0.3975705611298389,-0.19533861494433022,-0.4525511923873255,-0.13038645480236347,-0.14937103163746526,-0.14728534500638546,-0.49396211527899486,0.278631505411614,0.32135270345419725,0.29432231435287876,-0.42202005715080093,-0.07348813585754359,-0.3963092979579595,-0.18864697923325638,0.10219584674170375,0.18090744758549068,0.17294524022202043,0.2555757672611854,-0.47442089037859886,0.10969187523626388,0.46095963667303014,-0.164096652098617,-0.09908186811686626,0.43933589306047177,-0.3426216507702354,-0.2698298199213901,-0.02427963447156872,0.30214027059922965,0.20580159120004196,0.10682754656227325,0.03842866214189675,-0.20732096193195734,-0.44152306594674134,-0.4737427971788828,-0.0860084201024895,-0.39289329796503003,0.36262554580998674,0.23839747721635124,-0.16934483616342647,0.0105523023617948,-0.4523835182081719,-0.3908725339484929,0.14496540178451908,0.47564824139996004,0.07383339420106388,-0.4984182250855807,0.4674147321076359,-0.2633098515040138,0.3142662440770234,-0.06870267742895897,0.14075103040240297,0.25193914208360174,0.06449583115957101,0.061668302529090266,-0.37992233746353693,0.2777889743662581,-0.36457167741746177,0.2372865698379092,-0.2513794746228023,-0.3729498169292118,0.10819237672890564,0.3685607859447301,-0.02175777182556191,-0.13386428029953462,-0.22686950045467574,-0.04220273601042284,-0.4591995945046311,0.4444146224774346,0.2177332204291886,0.1932286435912521,0.2836886835860427,0.45365320734848874,0.4773474317068089,0.4024359556237569,0.047814826308747393,-0.3029245787473397,-0.09333609834236109,-0.296562492135185,0.08628721111717677,-0.15012796196634948,0.21996196888558883,0.15713834259506881,0.1997330823034015,-0.011335388885269805,-0.02472273144184057,0.07269463934694202,-0.05327518519037905,0.39627816576155706,0.3831958965395969,0.26754688238274954,-0.32015297492175493,-0.2696808245249832,-0.45621010668825446,0.39606490945313866,-0.42541530052115567,-0.38930463199447307,-0.14921241788179876,-0.010910748221475402,0.09971945776334537,0.3861892573011159,-0.4318552964462845,0.04768254347915352,0.34179871632619657,-0.45846363826954317,-0.23689861142215446,-0.35916659125095357,0.2563550444142948,-0.3304340151486894,0.12746749166838595,0.4277386192246524,-0.135144906293943,0.4491538158218675,0.4482580618541511,-0.020273741995664292,-0.3732439155964773,0.4853196218045002,-0.17374930508907271,0.06374323085460518,-0.4747655578586323,-0.2746967484172744,0.34159209418439973,0.3651664837914642,0.08364498267485972,0.24164410051648055,-0.08364061010172599,-0.17991765476716193,0.036062132320205116,0.33464469072622344,-0.0033971816611072757,-0.23806757981572044,0.303327238121116,0.4759546875260764,-0.421556719131383,0.15441611733394137,0.07382576873190869,-0.2444288535878665,-0.0449816305931257,0.17147985903511687,0.1454954987230401,0.389542047229284,0.11288537202761716,-0.41740605127658104,0.4732820093373189,0.33184373122130784,0.07807305513888242,0.05560017085144824,-0.4250850796593026,-0.4189472414639173,-0.35676812766193833,-0.08009735106211953,-0.31449136594583527,0.3855384053890901,-0.09603991982921006,0.17000425095447724,0.2475722705595115,0.1304659829258309,0.16508809035378283,-0.4234245466260382,-0.2764795112438615,-0.4767023532913847,0.2679399213243295,0.4168288160394111,-0.10000972450976754,0.1572148851721921,-0.23353168791635825,0.2048822032284449,-0.39343845448729087,0.4504022251121386,0.4164417748013355,-0.27642043213723616,0.46187960334199174,-0.38403119110576067,0.34574964580409656,-0.2484086251661436,-0.2801776895305764,0.2566412072800436,-0.26447200862616005,-0.30383830043992177,0.2663538399189744,0.19487335407756562,-0.43348567829601786,-0.2500025799638706,0.4028632108624651,0.009656250606815872,-0.44302041805439435,0.10521105323224349,0.21204856574483968,0.43281906007097826,-0.10279499271754189,0.43953727429267586,-0.1572519737567134,-0.2747120921426479,-0.35602615281391237,-0.4754410496492353,-0.2956880136029096,0.4523466019419612,0.020735380486624596,-0.004668024325996889,0.09836133993692883,0.3434129062333467,-0.42338178460675374,0.03065891393724873,0.29110621995458247,0.07214139997261755,0.09618246697994857,-0.3753074077175315,-0.20229952310959012,0.14373959101431935,-0.2921799898905929,0.08568157233373017,-0.30399387282900364,-0.3642136364203445,0.2304922177417762,0.08320227065912399,-0.13738914099859093,0.38154669981235767,-0.08829065679541508,0.1253814349782173,0.25054849409105917,-0.1439835662121819,-0.05016543295159066,-0.18713012569207765,-0.18064224375719373,0.2907294650254587,0.1692168216029098,0.05988503615675511,-0.05208273084882791,-0.15138580601463406,-0.25952993039992733,-0.1691417779653951,0.05419782976878349,0.21384053065090783,-0.1768391138330013,0.3320316881313625,-0.4184968350706435,0.024185089002352705,0.010364584205364066,-0.08418842714095166,0.2199512834357139,0.09111576357019636,-0.23861358470214156,0.13712838197845062,0.08553436195769629,-0.09120681860390648,-0.008506132941995178,-0.39409106104903513,0.27034226583654924,-0.1760699165496273,-0.2092076935937711,-0.49517524349121556,-0.09323150976342046,-0.03047326889457091,-0.45902534464547967,0.09287318668089128,0.17669652182737183,0.21047768861368454,-0.40214805565046924,-0.13578423271381773,-0.2824206297753887,0.031428312547514235,-0.4821349714765049,-0.23352554998652522,0.0748431092838082,-0.051368202706427626,0.1520649952846094,-0.2476200724695771,-0.40056125331610093,0.1004381872293005,0.13105047509154144,0.1157091063572453,0.4378206792843614,0.40879513569408005,-0.22211397939335403,-0.12633306518098172,0.17269823998155684,-0.42103723938722293,0.07023550865384737,-0.40207176534200306,-0.44939194414459904,-0.032752887520202126,0.3263103495531121,0.25805489686330435,-0.10982644768482211,0.013358485888736482,0.08794218618133653,-0.1505056701624233,-0.3112427568293301,-0.32807503938258264,-0.17679783264092358,0.28272523008753714,0.1615946929480011,0.47940668672888404,0.38835898452438417,0.23187323633442436,-0.19185145075909163,-0.3623485485113013,0.3331807216549837,0.13179944279463388,-0.09488299763837335,0.14084717213545384,0.23767699246614185,0.3064702287594808,0.09333027213760257,0.08413097196291176,-0.06424759574701719,-0.279670420846859,-0.44888551894347883,0.00014309634847884856,-0.16168316869238392,-0.03813954250161196,-0.05207013435523383,-0.2641727652363817,0.10460718007731278,-0.2427416256499774,0.25721169811819355,-0.259194264756724,0.12352955595588946,-0.12307046640958433,0.19166008458987918,-0.43054751838598415,-0.43269555939953736,0.08168867205932431,-0.18288669746789296,0.48520999675900756,-0.3641854734260843,-0.39714661580037475,0.444056720281011,-0.2128995738832512,0.4694624992453469,-0.4789312464001991,0.40650526788482017,-0.1001469595152733,-0.03531670508014136,-0.1960216529464369,0.4198381781531997,-0.3729501962274453,0.03565147459719176,-0.4466150853396434,-0.3551234357768618,0.1007781676350233,0.02776471355408851,0.19184492249627738,0.4518968394120102,0.35132990723932866,0.03077846576131458,-0.4445715301534529,0.48896353148330945,-0.2997555562619666,0.11762790177160035,0.15686459792563928,0.1482638360207368,0.3469497062992956,-0.14601085627141674,-0.06469657702306003,0.377356205339372,-0.1302466787377438,0.12011590876953208,-0.1971079199612056,0.009881732746854374,0.37562324907714895,-0.22811171845796513,-0.33866579106213357,-0.48042480597260007,0.24207889910717795,0.05298759380744607,-0.060982049919937234,0.02223144565967768,0.027069724825204585,-0.4790302882619402,0.010194336584977762,-0.3445148890072453,-0.4229892380385917,-0.30722550300906626,0.44000239272815495,0.21001364977860618,0.17655938716030492,-0.5504116904168995,-0.4228305587592585,0.3681940858241899,-0.06842197401192131,0.11587497109165981,-0.032865549227309034,0.223565192687318,0.1826190699006726,-0.3732726583665192,-0.46189694951245847,-0.30079227790005725,-0.4097920672372063,0.18760725279259274,-0.47299453296007027,-0.0598539916275155,-0.29444202570894895,0.12446592822262689,0.05785400805972269,-0.47375216736571946,-0.4728952846377515,0.018816176605098954,0.03526112447344893,-0.14939655161387258,-0.4319489613391392,0.20588951090726593,0.36241374919194846,-0.16735986129393035,-0.41661129445665535,-0.3412881875911478,-0.4682798735951503,-0.5049573290958101,-0.29466115639999396,-0.22386725200306015,-0.5087635021287679,-0.039987682730383944,0.14868637073161645,-0.0756483231565461,0.005128807434198636,-0.24531863127410625,-0.4140191120865193,0.3571591057301631,-0.2641465576016149,-0.37939767922823603,0.2748573164270905,-0.31306063024121644,-0.31102102637810836,-0.1945619443629155,-0.4083286601096046,-0.12710813772964444,0.1492839249780867,0.25296920146314394,0.2243302584249057,-0.017861970797563475,-0.4837800123958068,0.3391707106684549,-0.3550960381051693,-0.5387740737796085,-0.29307867672020876,-0.21195663092753114,0.020054132865819425,-0.02096652075203433,0.24783183909715,0.015543267401435886,0.45796545008237394,-0.011665260020325556,0.06194248609716051,0.16201216827035472,0.18352390070835736,-0.4015598995424683,-0.28968282246625593,-0.04891392570565123,-0.4135738998264568,-0.3967347220567261,0.13713101598816146,-0.002117309956239852,-0.15359467718027453,0.18200306052848556,-0.03860260376938179,-0.12861117549824747,0.422414522737586,-0.2992922159633437,0.40342462390800354,-0.45933552610044354,0.3221651896810846,0.09039720400837016,-0.16925764480849964,0.26926590862968125,0.11095243587310313,0.34231104039029747,0.4563941414998389,-0.32302253272264586,0.3196943254932795,-0.12162942234653319,-0.19574220331858863,-0.12944280944443284,0.4451850216450368,0.19848678426977143,-0.10509379796229171,-0.09502890999937066,-0.22342636166605281,-0.20570706813775477,-0.2982691707330902,-0.34035461745871703,-0.05780706885649627,0.44359661102924575,0.09940498504265186,-0.1239043822718884,-0.01893297311375382,-0.32557971473230285,-0.40997761903986357,-0.31908019823081485,-0.0951125215209951,0.4001730815193086,-0.3097262597454882,0.32522796408752697,-0.4310568232998544,0.3454145869690049,0.0537914007660107,0.03917507857701903,-0.06505535367584694,0.4099091118583581,0.12363098428390634,0.3480793197075264,0.3642709402744345,0.0033413718520031387,-0.13372413083206114,0.2967471891305126,0.14864376590087505,0.15476739029551725,-0.22016643493995966,0.04274358454953251,0.26867089575737346,0.17460046698205392,0.033847588686079566,-0.43136516567677113,0.11246601670157882,0.2130009384066741,-0.22225568017317698,-0.19616976817044976,0.35750463109405545,-0.0030383805748735813,0.467243995526167,0.320083892505595,-0.41641580639155534,0.10917649897521312,-0.20454648780614307,0.21777898610728655,-0.3822256809717234,0.037445919440794645,0.06452964942203832,-0.26985211885451266,0.06569052166152758,-0.40593506026760645,-0.2815507201818111,0.4025344298275597,-0.11748854111803149,0.010213208007217632,-0.1841593186265222,0.4676246150631921,-0.10374318499344803,-0.1435043680988092,-0.43629958170278527,0.18486327376279546,-0.48779015550027693,-0.3002804314459121,0.4031868466364438,0.369006737766833,-0.43837990470896004,0.06439742807465368,0.09667963448681205,-0.20068833902305946,-0.31282246526840196,0.37366661337567336,-0.19731852159458546,-0.16614546220280263,-0.33584780657849167,-0.29534515545218565,0.026859540620887044,-0.48451048398382124,0.20110293760066697,0.2229645909105584,0.04397538011199001,0.3849982850227464,0.16077865602704067,-0.45070338760549594,-0.29279730169937723,-0.22573864661347792,0.29380453099673465,0.43782632717638803,0.23077201713669723,-0.14722043216987327,0.19663119583417135,0.4358935905513777,-0.3851328922928889,0.2852780121452853,-0.387003044358597,0.4314624794826075,0.2231175357844059,0.24524127209085983,0.07434243789696678,0.14535432844487828,0.20963231285834255,0.0006159934083224633,-0.0654069145969936,-0.2421448741667956,-0.17673945612994646,-0.2768978994462452,-0.3011407828463109,-0.38830107136912606,-0.41421305554851173,0.22614087907581595,-0.4778059424611387,-0.4289973031549279,-0.4957247860991633,-0.42060074015169296,-0.4536911034041953,0.38005664655130383,-0.08230042332681631,0.01846223110335044,-0.04923357299022622,-0.10926807908509657,0.11785406162465573,-0.13594363120715347,0.11337373394527239,0.07132365731008151,0.2940821987516561,0.07846478586543425,-0.03354424900761979,0.17466470033313275,0.3112564724874547,0.4662183542801981,0.3072318527058015,-0.0780583056577607,0.07260322049285921,-0.08930970369915898,-0.018728115854187325,0.43606897212489876,0.011869213993310127,-0.054743425588384825,0.24679407306226636,0.11726879996009579,0.07822108139383216,-0.04957665323769544,-0.43618552286760065,-0.012148150066400867,-0.2977058139812324,-0.17866736992251303,-0.19619988278586378,0.08628027520068295,-0.14111084508016783,-0.4790338541109053,0.31530186883910416,0.1827356161996735,-0.50292590259044,-0.2813728525642663,0.1449809909184085,-0.4157003944566418,0.2254559724480698,0.4409254497262249,0.20470928572165678,-0.16515356145342402,-0.41693721040600745,0.2250994542458127,0.07532692258915599,0.04796686525866101,-0.06172549943578844,0.13142393585501397,-0.45733270924301844,0.3471535695389649,0.05661342144643412,-0.015634695625960565,0.29521552959748704,0.3293993714860254,0.13805033081027154,-0.40466949225619536,-0.014237875380444574,-0.024765829644303187,0.1113868431487345,0.20644338458777395,0.007244420436835063,-0.4397579896091027,0.20711930673471282,0.23064207609034437,0.21677764088683024,0.11343794318282172,0.2742108060303082,0.2757004157209082,0.05576618458592538,0.4251864502639428,0.3594342107436031,0.18264442607047549,0.14948741567329998,0.42205266034179917,-0.4743602401481381,0.42675900413931467,0.14668196444901424,0.04625006671105294,0.26566952441939884,0.32838435166568214,-0.42268237271202164,0.30574034706603426,0.4706464353375883,-0.4916440320071496,0.4947618020275163,-0.36821122785849525,0.3481035473125892,-0.2865189374404067,0.39267406824052625,0.37921365544043184,-0.46130810092718266,0.3831724384151036,-0.4984198277228315,0.2672510498953119,0.07651683362164349,0.2386946920186789,0.10414773764999395,-0.1483233122691542,0.13757839933249352,-0.40959256785761733,-0.2992374281373482,0.3746467624531582,0.06659431313405165,0.38999468428975914,0.30490795442678686,0.12894216737996392,0.07405626772268482,-0.343568887510633,-0.2652455874616974,0.1920621465606475,0.12694540269676458,-0.3376065931312361,-0.07610350384190802,-0.374471355433897,-0.1312439086289295,0.33164624476488125,0.31402594813964857,-0.3728190074918254,-0.2285521901223933,0.25856106421626507,-0.1865685265777061,0.1230904851079233,-0.03285898122497918,-0.33842169656970084,-0.09822490931246308,0.06967857803763713,-0.2673675377974208,0.12454319369713926,0.32645208147282717,0.411966580645788,0.20887824977470199,0.18836769366368158,-0.28536303466271146,0.28919643659428446,0.28596817034219796,0.14695403595181258,-0.040569181387955025,-0.3558768626361793,-0.37146490058935155,-0.332112509190989,-0.23184996412069925,0.3750451112793567,0.14796300763683903,0.43483519162208245,-0.2425456886405084,-0.024122893414618204,0.45445864427204874,0.06285566765885378,0.328437490115872,0.1191796653295624,-0.1534551039684723,-0.21256550422034778,-0.47612940018427324,-0.12699350907234078,-0.21060632101691407,-0.4420556901084193,0.2626717952483889,-0.4780986802601372,-0.45697416804263963,0.20702774910952254,0.04903832208900087,0.4378562458373007,-0.09756965219217004,-0.47869804562762147,0.13434969286013693,-0.3756258759578432,0.20077654587447127,0.37625327729700786,0.045725704942960105,-0.29673130288152044,-0.37261125552461294,0.12941348230705288,-0.15305538386232517,-0.12025687450377343,-0.1708712619777192,-0.20725930751220437,-0.37686953133172524,0.0769469045031601,0.11672081673816008,-0.17921375147714214,0.21636621063496406,0.37675989435411583,0.12273427210577953,-0.09737422050316386,-0.10012002194006453,-0.4640999357003418,0.41581420870563374,-0.18645382693760468,-0.17390972195741164,0.32943529608115724,0.0014505324572937788,0.49864474558976585,-0.10223373714152648,-0.36561349368091883,-0.07619330996434022,-0.0013766161038818612,0.39994071514335794,0.2116738972486758,-0.1560449426511258,-0.24801916801121995,-0.3615897992473071,-0.4220829679592105,0.39664706384799536,0.30182910928832174,-0.11733590208102561,0.09589292033561969,-0.1984064275316846,-0.3264209817082911,-0.07372567816412336,0.38055312902010985,-0.3903392205995708,-0.33991264844218294,-0.4634764593715429,0.41056977314474385,-0.3681270367022989,0.1284751449990221,-0.2154264851783678,-0.3552498487743402,0.010296650300904852,0.06093958114012245,-0.4087714787852325,0.1608017508304998,0.2717876887304958,0.2353616214343827,-0.4748541529827475,0.2600563366200991,-0.2794482399964493,-0.33403376470055324,0.23850823280121214,0.29664823700581144,0.46718293144199025,0.38586489728600537,-0.044920058612933106,-0.503283195337175,-0.4764814651236561,-0.18373269934199074,0.034733526207138814,-0.3012108401476731,-0.0264055144269902,0.02957623563938919,-0.014290222622289444,-0.4039116394938551,-0.0364217479010781,-0.08258907273381304,0.15021952788178744,0.0029954343304299355,-0.5056192219067953,0.12059144232325626,-0.21808017196480642,0.012586809925712487,0.1320198071179844,-0.20563762809982314,-0.5115762235134156,-0.3072405582745121,-0.2912021213308993,-0.4078007971348786,0.46450331248683707,0.014908922719327857,-0.4940053600313381,0.1261116274520627,-0.0074009685641996635,-0.3181588968731517,0.0022028228589859667,0.04684171369297554,0.2615875791426165,0.10919239753690609,0.2410756627624722,0.20630923852820968,-0.3300263294029726,-0.08936931823527622,-0.3932075404237774,0.4700014492565413,0.06700371139947275,0.250937926393952,-0.5000742892556105,-0.3958351051735976,-0.44052916424226735,0.4045679477977263,0.20554711233282974,-0.07461700468313005,-0.26669122547542046,-0.4035388300831703,0.11204945026479741,0.20308623541172718,-0.29295159943856686,-0.37325873657773806,-0.4633107801330453,0.09611760315418888,0.4386661567441791,0.048047918416261784,-0.5370281921266185,-0.5332238456852576,-0.23046877563168405,0.004489161441620346,-0.4899793218883419,-0.3935345911772232,-0.4345812902149955,-0.05888865086441063,0.19873574590184231,-0.11030493253773212,0.15992640729132168,-0.39656853181052587,-0.23581141453473653,-0.14041714015286,0.4344538463918771,0.07210704888453864,-0.4848186208433247,-0.34031665437587827,-0.4237831222909029,-0.19967789801562488,0.014339866397838342,-0.10785184472089664,0.20563020394825204,0.04014536729037828,0.4596489689471539,0.19960629326213603,-0.30819626949863843,0.32514799669137984,0.126722006576548,0.460718485250913,0.4857114436340924,0.01552202469759704,-0.1942768036752344,0.30683420981604226,-0.39426894966072573,-0.43157804346261885,0.09823941731635136,0.3895812979310286,0.23011734896145644,0.3733728399486564,-0.32189547000175306,0.20114261911609058,0.30984555873891034,-0.35589433953530686,-0.05436107025023432,0.26368618223796025,0.43519089158387037,0.3760039845043677,0.10466516750604761,-0.3974089212603765,0.281096178547691,0.10391449075314585,0.35978024829633887,-0.21221410328802823,-0.33106358875751735,0.4621301755165396,0.34423393729719853,-0.34497906307085047,-0.03344662427907639,0.20389366527907987,0.19368492044787575,-0.1312135313450347,-0.14177991680523397,0.2710211895861485,0.2596590588276273,0.3241408316133186,0.041298626846594695,-0.4476455611891528,-0.3768006257568407,-0.4496668063357864,0.33220096052920206,0.05009797010958172,0.028408881198589,0.3872531389504521,-0.26087621967719393,-0.060909992652647515,0.14759290667449768,0.44891131163111037,-0.13896630650278166,0.40906456025895077,0.3638032819356065,0.0168888927752377,-0.13374612997570065,-0.13315878438844578,0.4027079214355527,-0.17397219305647157,-0.03301554125507972,-0.23177741424135392,-0.32481199854747217,-0.3766667148642202,-0.29710372165198223,0.2749719098415171,0.3830390816575699,0.24628870655371907,-0.09731965304244403,-0.085602113263128,0.38901278018321184,-0.3993977431249343,0.3354016427554999,0.4449078439434432,-0.4502554258032839,0.2562756124065547,-0.07719550554949768,0.31925403798386187,-0.1287906692176498,-0.33568612848302243,-0.20075849276326496,-0.05087330136350742,0.278255961646158,-0.16848336463900138,-0.18010677989648197,0.36023227429863297,-0.1406719130421312,0.42482822175399165,-0.17235841469411534,0.2918014604203724,0.3390934263266695,0.3417487662237196,-0.30446624887489115,-0.4767181429254445,0.021386634301272217,-0.2815240845209016,0.39395366034519147,-0.34681797784782553,-0.26448920536615544,0.26112349405273866,-0.37807258868753907,-0.18795804196735488,-0.007123891793689629,-0.31713320884022644,0.3617954631673286,0.34280913298140325,-0.39673612349180853,-0.47874766166651805,0.23787642113930357,0.05530173726888299,0.15259844797950334,-0.10323370255518363,0.4324337452777909,-0.49070730604063334,-0.3515620571235938,0.3191269197288111,0.39400078027156116,0.23185181561008783,-0.2660233590908569,-0.01616276933141336,-0.11734124690225442,-0.2297589051957732,0.3596654458482661,-0.10154210822396473,-0.1688677107796613,0.04240218417425548,-0.46166688972403724,-0.21906074210002954,0.10581567245375559,0.07186359068303047,0.18485929457008013,0.3570740692762299,0.2715112350566925,0.37560835785148894,-0.3949639052622596,0.09092373920631654,0.323291639170926,-0.20832245629813376,0.0465444101675975,-0.20668472128365867,-0.02685625918440871,0.0802773625939814,-0.043098883037602335,-0.5273347473325333,-0.10985128761067005,0.4372182470437889,-0.19763424161337365,0.32266816743203103,0.1575899122516238,0.3396812242803013,-0.011950912941037136,-0.1702623537834372,0.18227173303776936,0.2863234462754087,0.23736035674041883,-0.35033721170946636,0.32140523420148176,-0.052615615298601634,0.32478280718281544,-0.015406091601080198,0.12078623099280311,-0.18613579664353766,0.24549215170594024,-0.40570887721068605,0.02698770036987945,0.2073279194976469,-0.27068501270884243,-0.4671087732739871,0.34124317540071747,-0.07612368569650901,-0.1866327160371813,-0.09328518344736561,0.4199274343999653,-0.016427736513768325,-0.19279447398762933,0.4587318715059581,0.01499704557226924,0.2040326043930481,-0.445676134414518,-0.22647063788149827,0.4354091248018259,-0.35578341473298963,0.4711151781759681,0.1579872519962703,-0.4054853574492858,0.44684074145481406,0.1286935297082464,-0.4612286424323056,0.23455178007297692,-0.48251404597243286,0.04495629875891419,-0.04651917185846557,-0.3016726357258343,-0.3859205368901026,-0.49775083100198214,-0.20099036618237276,-0.49430661001624016,0.3345556993400608,0.38061750474653055,-0.3920072834230783,-0.4277816782399499,0.4285688568891602,-0.453574063269153,0.2732601672708354,-0.18967355694880175,0.32860942810149574,0.09709455846399262,-0.2365026613839014,-0.4728565038097288,-0.21595091343844142,0.014242960033457883,-0.4115855613027935,0.11641967871846487,0.46026240272405744,-0.13780175443698628,-0.3861455026247025,-0.2424048198134609,0.31230655162001125,0.42383206144624735,0.14394630113298645,-0.38966125583054073,-0.14369358703422952,0.37057887705852216,-0.16264743692110228,0.3326827880321516,-0.0768190823415855,-0.1518230872112981,0.02195409478259979,0.0061733160674571855,0.4033118161256286,0.23806703388401856,-0.08445824885777029,-0.021427779394079652,-0.36396373467011167,0.10446753994080182,0.23342921156692584,0.1398860521235432,-0.3525511580276279,0.47311844386583096,0.18778675727401914,-0.2013488795613912,0.3561576794492296,-0.00570351736638695,-0.20627266521507273,0.0378274022960787,-0.20203782616414004,0.4294483506601766,-0.329685850237032,-0.2924314133856687,0.32517510643880043,0.04889006608710107,0.239217828664233,0.34699927596764063,0.11539088684967853,-0.17101715314385454,-0.13727690473195084,-0.0576901612816066,0.3699040780934544,-0.1196907218112344,-0.4397194190048631,-0.2005197936394564,0.16742838067015817,0.4272654386657082,0.21419139760074937,-0.40204426834329127,-0.3063144855593676,-0.41147450966830634,0.12952639870536747,-0.17419978939319247,-0.06914436570762075,-0.21283905985934326,0.03584379845414121,-0.1529417190190421,0.40390242972720564,-0.17225674382456022,-0.4357098223697455,-0.27752918280726013,-0.1878005144965608,0.24184056683540991,0.007217444376390231,0.42650340439058,-0.2907152452605145,0.31916640801116614,0.14573957012473995,0.4844891614640934,0.2582442969738369,0.48020595987305426,-0.24051464140660989,0.122951121016521,-0.22567254703094333,0.21366262788243826,0.44953185873869916,-0.29195492261037387,0.10856771908121074,-0.20377149498956337,-0.22815668720424578,0.2243205057668809,0.1207823928952518,-0.2828946388049774,-0.15183126453023424,0.47612398470921957,0.4943929239251716,0.4436915992510862,0.16550610785434908,0.08880769619208406,-0.4482992854183346,-0.371121301680671,-0.30871505061304416,-0.17572289978354952,0.39382992715643383,-0.2570184953484562,0.03464082002035529,-0.028208840481078655,-0.3481357190152351,0.03577869153107106,-0.28287339274648204,0.06270132978529591,-0.447211230255335,0.3890828283144858,0.35142018243539896,-0.008679019930751397,0.12028216271919752,-0.014078245572984687,-0.012051422216142511,0.15551941146765158,-0.11733294955944984,-0.34828914439735825,0.031358745032080124,0.12458666150015496,-0.3837384627327012,-0.16660294481176866,0.13449567213734548,0.1896298582580687,0.07893599290241168,-0.4797175724975824,0.27583250248225394,0.19591860475081832,0.16111261180002265,-0.08203724524237112,0.42436518404923934,0.08319357326715382,0.44887936677779006,0.3900094550196581,0.17640009692634398,0.41439124441543584,-0.052107198474521096,-0.4948463664864997,-0.003939515174050914,-0.3072711581930868,-0.49428454833055707,0.014812018850401303,0.3854279932117305,-0.25533309297302526,-0.46924768279144774,-0.2931696743728886,0.024350955250969062,0.4789558179404919,-0.3752465681818426,0.15528213677994615,0.4217585178560868,0.35239586127421796,-0.3168157507897869,-0.03937594121624354,-0.038176565495469064,0.22942353481591082,-0.31283303750026453,0.42251297821965955,-0.3498860443408955,0.25314081049723414,0.1466357443871752,0.4655298265613345,-0.20564532626768298,0.047748032241409825,-0.4235460438579964,-0.19417462040153105,-0.02792437763035781,-0.20071706316845658,0.1950615343732835,-0.4633947163044769,0.4739705792460361,0.3779578712378347,0.2547127806988728,-0.08522806716065652,0.13014654575675091,-0.360224259883579,-0.016249001291848395,0.22584086518785332,0.22994669586761213,-0.35177929924522205,0.01014051972744235,0.3067240858414815,-0.07249165286928393,-0.14474650525552252,0.44615691107111555,-0.34325194582779667,0.16430160148848066,-0.46246299347999503,0.42631831909223306,0.222177901998795,-0.20837218452423276,-0.5118801549596425,-0.2511208397222513,0.25158583440086923,-0.3706885182375876,-0.4936774945076542,-0.33643768311020766,0.22198158133493917,0.42160102805860716,0.2112076491520967,-0.4083170530524066,-0.4467466107638989,0.3676247559768665,0.43426517851510943,0.46547039900682835,0.26464007999476985,0.3663330661094109,0.02755346561558776,0.08838254093924007,0.022134639097270557,-0.41079962463953584,0.2043935097064611,-0.15699439242124671,0.006268674463426979,0.18907848540600508,-0.39225359660926534,-0.04482189544324614,-0.07466769938693435,-0.2992406440113341,-0.19315405078954664,0.46913855957869843,0.13408280220047944,-0.3866345208475903,-0.11914815688337965,-0.20815177992242448,-0.22574201617768294,-0.46875102905629584,0.09786172231753316,0.007789715548174475,-0.20523966679855696,-0.418862004682321,0.17702592650850382,-0.28626998015446686,0.23811606472571425,-0.13544938008967006,0.306766931242772,-0.2638378071224881,0.06940502912661235,-0.4004057900234985,-0.4858969521034504,0.09401726193623329,-0.053239566132184724,0.13765228135251326,-0.2573534087531741,-0.135047285435514,-0.31049564332937757,0.12834674830528803,0.3015710212678769,0.3133880456134116,0.33932347727362366,-0.31193413513441015,-0.24713907655093617,0.3710653153753375,0.15338627502106397,0.40273285114807134,0.3596424831396039,0.07625759245464539,-0.026212927248241865,-0.3055195323594406,0.44150056537713384,0.17891470398313827,-0.2962597216620018,0.1395323268601454,-0.4811393673132591,0.2237953574682188,-0.1396534640623314,-0.026838196755315468,0.3236237356589213,-0.2686612259265919,-0.35453524892486377,0.4256950530948541,-0.4041997339518196,0.03150897262678767,-0.21485188110454237,0.41552324761384085,-0.2741410975569881,-0.4570812067824217,-0.03884411974547506,-0.23527083375263044,0.3287203342194272,0.10470904961229982,-0.4345040317833936,-0.4365223822177092,0.22346264446019576,-0.49128140336139947,-0.34005428282527256,-0.2447015619385048,0.43545551371232105,-0.3633078888421109,0.09909002947026403,0.27676284317109245,-0.09516125021781999,0.1190859020781743,-0.42772997337320956,0.29410227174930037,-0.1485677406975511,0.135698952029377,0.28845419075265655,0.41413977287745474,0.4106554422672257,-0.31013718881007835,0.25480608668494525,-0.3866042949636132,-0.09974412559962298,-0.37766728440597425,0.14419724154576943,0.07240609185490415,-0.3932557683216837,0.3100904888109164,0.010358583614667355,0.20219990905214766,0.48738472957714796,-0.31180675365250465,0.22341441516146643,-0.4809493622465039,0.25582938303679215,0.3919435577326845,0.45258538950891186,0.38633922956960753,0.08593922062487816,0.44253536812636474,-0.07130895560584795,0.3969297816805684,-0.3133746924190151,0.292879520860064,-0.386335582682916,0.10509527971658528,-0.25538683528760225,-0.38307801093812255,0.33431986443783596,-0.11393922124876207,-0.3400821711900827,0.4786090322583821,0.24696054227644978,-0.20517207923034614,0.24867726936981432,0.07955488865018771,-0.47609620231442284,-0.17940573516900257,0.10659127207438876,-0.24665760733960312,0.4610173585124686,-0.24299123561248123,0.21176605426463005,-0.048641308197897845,0.2807279629478837,0.10876748055858619,-0.21643285138059035,0.2534887201525895,-0.0061741463064454985,-0.31844589159823994,0.20137223140633015,0.24970336269719048,-0.25173898434842695,-0.22224492775798774,0.19696113636929566,-0.2946906962359169,0.20195294003052844,-0.17075914675502704,-0.3553851832082518,-0.10379148556474338,-0.4891526705689328,-0.0853663414893026,-0.09292503840587465,0.05604778172370719,0.181225120500882,-0.3405567224221846,0.32906317282887254,0.17689140347942592,0.20850607364246154,-0.39038227353075844,0.26374921603861695,-0.19966301877089393,0.3619144943820846,0.005323271326794181,-0.467594487546636,-0.025074909472145086,-0.25534790243681654,0.07727442411348445,0.13621327285189777,-0.24889312271807218,-0.06312249595311988,0.03800049338187456,0.4391653809149621,0.2377644958937233,0.45987402332839006,-0.1007328389565812,-0.45738722981812147,0.1553025546089334,0.028195091867803966,-0.28659709506829567,0.31483473473559237,-0.38285314159007683,-0.013744413573470499,-0.4814307711836068,-0.34628339681661935,0.12667431287782976,-0.24334033095665694,-0.3093333407925665,0.08066269873810175,-0.19627279734745876,0.10011547134332192,-0.11737885015579186,-0.07452319977962733,0.38142426344846786,0.2508695818095821,-0.5082299580455988,0.2403915774997896,0.011809227988431325,-0.154356089703592,0.2549195457197882,-0.1044898964149176,-0.10172780849240949,0.23067587052313784,-0.15708405193980388,-0.4527489676147654,0.2075710406427629,0.312423117337668,-0.3420545935546205,-0.09651354328888988,0.07348192509006593,-0.286615274056914,-0.0735421709890587,0.021445279572701807,0.22026881178990024,-0.008614520817830429,0.15753086485420897,-0.0478549552814263,0.10390837139691096,-0.13143975132114213,-0.10257882807549436,0.33113662674023314,-0.10322345545067614,-0.5399007441363621,-0.22797622031425843,-0.4707000087593618,-0.21913964467369568,0.3781887285549078,0.33348374589209695,0.00996658776871736,-0.08967306151158433,0.24082773121907516,0.37978117907497366,0.044844022785403274,-0.07178343391254181,0.16218482170650284,0.17562008998448655,-0.40677502840497326,0.3129159208697588,-0.04102421490458834,-0.38847161574421935,0.16309088791642617,-0.4636839040961651,-0.448365740392709,-0.3003791555326064,0.32281866299130507,-0.21332358304537438,-0.19945859104052685,0.15111919369231241,0.4587380382852724,-0.2621007141749914,-0.42677668781096917,0.4508969357601506,-0.4029174322282116,0.4055965348815256,-0.4700036913826402,-0.31166770949800304,0.07390438073510612,0.42162413081754774,-0.2108416852698095,0.08040066166727684,0.38692057058703366,0.2801092808433281,0.3637248895725719,-0.013267464498497122,0.1955333371016296,-0.18749583922040944,-0.36351027296562405,-0.426756802753842,-0.1595895136096069,-0.14622148676810584,0.4836095074901257,0.40953422276829693,-0.4838249520846674,-0.37902655842269944,-0.18399966392092248,0.3765972443543003,0.013829619475561345,0.47635191495972795,-0.1711116398859084,0.1481219764937172,-0.26245490755690665,0.3335053858807356,-0.3089475757400424,0.03316316754704893,-0.2293721058595718,0.1202412876137323,-0.44436358482179744,-0.10114576906147303,-0.15415437328497417,-0.4063091008856178,0.19292259946251034,-0.34075045586458946,0.4269577183749635,0.28297778666147244,-0.26338716118432176,-0.021361041028879556,0.42208217301912276,-0.0384930621807106,0.13578430964993882,0.0042437601103027574,-0.38760425155582445,-0.33505794031712705,-0.08394184959666592,-0.1553267626381574,